<?xml version="1.0"?>
<opencv_storage>
<cascade>
  <stageType>BOOST</stageType>
  <featureType>HAAR</featureType>
  <height>24</height>
  <width>24</width>
  <stageParams>
    <boostType>GAB</boostType>
    <minHitRate>9.9500000476837158e-01</minHitRate>
    <maxFalseAlarm>5.0000000000000000e-01</maxFalseAlarm>
    <weightTrimRate>9.4999999999999996e-01</weightTrimRate>
    <maxDepth>1</maxDepth>
    <maxWeakCount>100</maxWeakCount></stageParams>
  <featureParams>
    <maxCatCount>0</maxCatCount>
    <featSize>1</featSize>
    <mode>BASIC</mode></featureParams>
  <stageNum>20</stageNum>
  <stages>
    <!-- stage 0 -->
    <_>
      <maxWeakCount>7</maxWeakCount>
      <stageThreshold>-4.3331500887870789e-01</stageThreshold>
      <weakClassifiers>
        <_>
          <internalNodes>
            0 -1 144 -1.4498147647827864e-03</internalNodes>
          <leafValues>
            -8.0769228935241699e-01 3.0872482061386108e-01</leafValues></_>
        <_>
          <internalNodes>
            0 -1 213 7.8420365753117949e-05</internalNodes>
          <leafValues>
            2.9674819111824036e-01 -5.0546920299530029e-01</leafValues></_>
        <_>
          <internalNodes>
            0 -1 143 2.0152973011136055e-03</internalNodes>
          <leafValues>
            1.9842496514320374e-01 -7.8246736526489258e-01</leafValues></_>
        <_>
          <internalNodes>
            0 -1 89 -5.3210888290777802e-04</internalNodes>
          <leafValues>
            -8.2823002338409424e-01 1.7577303946018219e-01</leafValues></_>
        <_>
          <internalNodes>
            0 -1 91 3.7182729691267014e-02</internalNodes>
          <leafValues>
            -3.4556341171264648e-01 5.9952443838119507e-01</leafValues></_>
        <_>
          <internalNodes>
            0 -1 128 -5.5573448538780212e-02</internalNodes>
          <leafValues>
            6.2885034084320068e-01 -2.4242511391639709e-01</leafValues></_>
        <_>
          <internalNodes>
            0 -1 221 -1.8330409657210112e-03</internalNodes>
          <leafValues>
            -9.7746551036834717e-01 1.7900554835796356e-01</leafValues></_></weakClassifiers></_>
    <!-- stage 1 -->
    <_>
      <maxWeakCount>9</maxWeakCount>
      <stageThreshold>-6.7740786075592041e-01</stageThreshold>
      <weakClassifiers>
        <_>
          <internalNodes>
            0 -1 73 -5.9649273753166199e-02</internalNodes>
          <leafValues>
            5.0000000000000000e-01 -2.0224718749523163e-01</leafValues></_>
        <_>
          <internalNodes>
            0 -1 159 -1.7244275659322739e-02</internalNodes>
          <leafValues>
            8.1319940090179443e-01 -1.6371454298496246e-01</leafValues></_>
        <_>
          <internalNodes>
            0 -1 10 -1.8404684669803828e-04</internalNodes>
          <leafValues>
            -4.5380604267120361e-01 3.0643972754478455e-01</leafValues></_>
        <_>
          <internalNodes>
            0 -1 126 7.2603872977197170e-03</internalNodes>
          <leafValues>
            -2.3347567021846771e-01 6.2273854017257690e-01</leafValues></_>
        <_>
          <internalNodes>
            0 -1 20 1.6291498468490317e-05</internalNodes>
          <leafValues>
            -3.7244558334350586e-01 3.5338351130485535e-01</leafValues></_>
        <_>
          <internalNodes>
            0 -1 205 -6.5567377023398876e-03</internalNodes>
          <leafValues>
            6.3182318210601807e-01 -2.2528515756130219e-01</leafValues></_>
        <_>
          <internalNodes>
            0 -1 219 1.7824022797867656e-03</internalNodes>
          <leafValues>
            2.1667326986789703e-01 -7.8667122125625610e-01</leafValues></_>
        <_>
          <internalNodes>
            0 -1 124 -1.2084111571311951e-02</internalNodes>
          <leafValues>
            6.4087164402008057e-01 -2.5352773070335388e-01</leafValues></_>
        <_>
          <internalNodes>
            0 -1 95 -1.6518596559762955e-02</internalNodes>
          <leafValues>
            6.8571084737777710e-01 -1.7455679178237915e-01</leafValues></_></weakClassifiers></_>
    <!-- stage 2 -->
    <_>
      <maxWeakCount>9</maxWeakCount>
      <stageThreshold>-2.3904122412204742e-01</stageThreshold>
      <weakClassifiers>
        <_>
          <internalNodes>
            0 -1 173 -1.2630543205887079e-03</internalNodes>
          <leafValues>
            -7.5000000000000000e-01 3.1292515993118286e-01</leafValues></_>
        <_>
          <internalNodes>
            0 -1 233 1.9443634664639831e-04</internalNodes>
          <leafValues>
            1.9528883695602417e-01 -7.2098237276077271e-01</leafValues></_>
        <_>
          <internalNodes>
            0 -1 26 5.9779151342809200e-04</internalNodes>
          <leafValues>
            -2.7718096971511841e-01 4.9137243628501892e-01</leafValues></_>
        <_>
          <internalNodes>
            0 -1 180 -5.9801677707582712e-04</internalNodes>
          <leafValues>
            -4.2941245436668396e-01 3.1061652302742004e-01</leafValues></_>
        <_>
          <internalNodes>
            0 -1 88 9.3870924320071936e-04</internalNodes>
          <leafValues>
            1.6313724219799042e-01 -8.3380663394927979e-01</leafValues></_>
        <_>
          <internalNodes>
            0 -1 32 8.7435208261013031e-03</internalNodes>
          <leafValues>
            -2.6406428217887878e-01 5.6738227605819702e-01</leafValues></_>
        <_>
          <internalNodes>
            0 -1 99 -4.5319416676647961e-04</internalNodes>
          <leafValues>
            4.9544027447700500e-01 -2.9731827974319458e-01</leafValues></_>
        <_>
          <internalNodes>
            0 -1 222 7.7472277916967869e-04</internalNodes>
          <leafValues>
            1.7247721552848816e-01 -7.3809438943862915e-01</leafValues></_>
        <_>
          <internalNodes>
            0 -1 2 -4.0072783827781677e-02</internalNodes>
          <leafValues>
            5.8263760805130005e-01 -2.8475606441497803e-01</leafValues></_></weakClassifiers></_>
    <!-- stage 3 -->
    <_>
      <maxWeakCount>12</maxWeakCount>
      <stageThreshold>-8.1665933132171631e-01</stageThreshold>
      <weakClassifiers>
        <_>
          <internalNodes>
            0 -1 141 -8.7501034140586853e-02</internalNodes>
          <leafValues>
            7.2815531492233276e-01 -1.0121457278728485e-01</leafValues></_>
        <_>
          <internalNodes>
            0 -1 87 1.9671063637360930e-04</internalNodes>
          <leafValues>
            2.4675583839416504e-01 -5.5624288320541382e-01</leafValues></_>
        <_>
          <internalNodes>
            0 -1 228 -6.0202488384675235e-05</internalNodes>
          <leafValues>
            3.0231004953384399e-01 -3.8623884320259094e-01</leafValues></_>
        <_>
          <internalNodes>
            0 -1 56 -4.5840758830308914e-02</internalNodes>
          <leafValues>
            4.7367891669273376e-01 -2.4599924683570862e-01</leafValues></_>
        <_>
          <internalNodes>
            0 -1 31 1.4876370131969452e-01</internalNodes>
          <leafValues>
            1.6031254827976227e-01 -8.9949440956115723e-01</leafValues></_>
        <_>
          <internalNodes>
            0 -1 46 -8.2425288856029510e-03</internalNodes>
          <leafValues>
            4.5892608165740967e-01 -2.8460484743118286e-01</leafValues></_>
        <_>
          <internalNodes>
            0 -1 186 -9.5701240934431553e-04</internalNodes>
          <leafValues>
            -6.8259227275848389e-01 1.7368195950984955e-01</leafValues></_>
        <_>
          <internalNodes>
            0 -1 63 5.1700193434953690e-03</internalNodes>
          <leafValues>
            -2.2806806862354279e-01 5.4037213325500488e-01</leafValues></_>
        <_>
          <internalNodes>
            0 -1 94 -2.5641385465860367e-02</internalNodes>
          <leafValues>
            6.1662369966506958e-01 -1.8509045243263245e-01</leafValues></_>
        <_>
          <internalNodes>
            0 -1 122 -2.0232949405908585e-02</internalNodes>
          <leafValues>
            3.9931955933570862e-01 -3.2519775629043579e-01</leafValues></_>
        <_>
          <internalNodes>
            0 -1 109 1.0230287443846464e-03</internalNodes>
          <leafValues>
            1.5725353360176086e-01 -7.1381574869155884e-01</leafValues></_>
        <_>
          <internalNodes>
            0 -1 18 3.6607269430533051e-04</internalNodes>
          <leafValues>
            -3.6703953146934509e-01 3.3907657861709595e-01</leafValues></_></weakClassifiers></_>
    <!-- stage 4 -->
    <_>
      <maxWeakCount>13</maxWeakCount>
      <stageThreshold>-3.9871084690093994e-01</stageThreshold>
      <weakClassifiers>
        <_>
          <internalNodes>
            0 -1 224 -2.0185276298434474e-05</internalNodes>
          <leafValues>
            4.0740740299224854e-01 -2.8358209133148193e-01</leafValues></_>
        <_>
          <internalNodes>
            0 -1 178 -3.3976086415350437e-03</internalNodes>
          <leafValues>
            5.6580537557601929e-01 -1.7783120274543762e-01</leafValues></_>
        <_>
          <internalNodes>
            0 -1 167 -2.4731926620006561e-02</internalNodes>
          <leafValues>
            6.4947926998138428e-01 -1.4172671735286713e-01</leafValues></_>
        <_>
          <internalNodes>
            0 -1 39 3.8879702333360910e-04</internalNodes>
          <leafValues>
            2.4569498002529144e-01 -4.1286569833755493e-01</leafValues></_>
        <_>
          <internalNodes>
            0 -1 33 1.5168652869760990e-02</internalNodes>
          <leafValues>
            -2.5180664658546448e-01 4.9205183982849121e-01</leafValues></_>
        <_>
          <internalNodes>
            0 -1 101 5.5834818631410599e-03</internalNodes>
          <leafValues>
            -1.0714391618967056e-01 6.5136933326721191e-01</leafValues></_>
        <_>
          <internalNodes>
            0 -1 151 2.1799251437187195e-02</internalNodes>
          <leafValues>
            -2.2750607132911682e-01 6.7118412256240845e-01</leafValues></_>
        <_>
          <internalNodes>
            0 -1 183 1.5493426471948624e-02</internalNodes>
          <leafValues>
            -1.2706151604652405e-01 7.0723688602447510e-01</leafValues></_>
        <_>
          <internalNodes>
            0 -1 11 -1.4496999792754650e-03</internalNodes>
          <leafValues>
            -8.2895970344543457e-01 1.5696737170219421e-01</leafValues></_>
        <_>
          <internalNodes>
            0 -1 149 1.9727416802197695e-03</internalNodes>
          <leafValues>
            -2.6192092895507813e-01 4.6259990334510803e-01</leafValues></_>
        <_>
          <internalNodes>
            0 -1 172 8.5738638881593943e-04</internalNodes>
          <leafValues>
            2.1724799275398254e-01 -5.5712312459945679e-01</leafValues></_>
        <_>
          <internalNodes>
            0 -1 188 -5.9572113677859306e-03</internalNodes>
          <leafValues>
            4.1380283236503601e-01 -2.9197740554809570e-01</leafValues></_>
        <_>
          <internalNodes>
            0 -1 147 1.9723685909411870e-05</internalNodes>
          <leafValues>
            2.8661671280860901e-01 -4.0284639596939087e-01</leafValues></_></weakClassifiers></_>
    <!-- stage 5 -->
    <_>
      <maxWeakCount>15</maxWeakCount>
      <stageThreshold>-5.4544562101364136e-01</stageThreshold>
      <weakClassifiers>
        <_>
          <internalNodes>
            0 -1 22 -3.9133103564381599e-03</internalNodes>
          <leafValues>
            5.5963301658630371e-01 -4.5643154531717300e-02</leafValues></_>
        <_>
          <internalNodes>
            0 -1 134 -1.7507720738649368e-02</internalNodes>
          <leafValues>
            7.3793876171112061e-01 -1.1096530407667160e-01</leafValues></_>
        <_>
          <internalNodes>
            0 -1 209 9.9230033811181784e-05</internalNodes>
          <leafValues>
            2.4458381533622742e-01 -3.8480162620544434e-01</leafValues></_>
        <_>
          <internalNodes>
            0 -1 57 -2.3316689766943455e-03</internalNodes>
          <leafValues>
            4.7339692711830139e-01 -2.6270201802253723e-01</leafValues></_>
        <_>
          <internalNodes>
            0 -1 85 5.6125904666259885e-04</internalNodes>
          <leafValues>
            1.8652941286563873e-01 -6.7869997024536133e-01</leafValues></_>
        <_>
          <internalNodes>
            0 -1 42 8.1551391631364822e-03</internalNodes>
          <leafValues>
            -2.3776635527610779e-01 4.5366609096527100e-01</leafValues></_>
        <_>
          <internalNodes>
            0 -1 177 1.9309163093566895e-02</internalNodes>
          <leafValues>
            -1.5345333516597748e-01 6.7461079359054565e-01</leafValues></_>
        <_>
          <internalNodes>
            0 -1 210 -8.9539570035412908e-04</internalNodes>
          <leafValues>
            -4.6833261847496033e-01 2.7519077062606812e-01</leafValues></_>
        <_>
          <internalNodes>
            0 -1 164 -1.5553944977000356e-03</internalNodes>
          <leafValues>
            4.9484020471572876e-01 -2.4854907393455505e-01</leafValues></_>
        <_>
          <internalNodes>
            0 -1 160 -2.3195296525955200e-03</internalNodes>
          <leafValues>
            7.3905682563781738e-01 -1.4861392974853516e-01</leafValues></_>
        <_>
          <internalNodes>
            0 -1 116 5.3491676226258278e-04</internalNodes>
          <leafValues>
            2.6552024483680725e-01 -4.1132798790931702e-01</leafValues></_>
        <_>
          <internalNodes>
            0 -1 198 -3.7622116506099701e-03</internalNodes>
          <leafValues>
            6.0268354415893555e-01 -1.5925459563732147e-01</leafValues></_>
        <_>
          <internalNodes>
            0 -1 133 1.8082490190863609e-02</internalNodes>
          <leafValues>
            -1.3244198262691498e-01 8.4890371561050415e-01</leafValues></_>
        <_>
          <internalNodes>
            0 -1 119 -3.2104988349601626e-04</internalNodes>
          <leafValues>
            4.7080281376838684e-01 -2.0557352900505066e-01</leafValues></_>
        <_>
          <internalNodes>
            0 -1 102 -3.3624572097323835e-04</internalNodes>
          <leafValues>
            -5.8037954568862915e-01 2.1180267632007599e-01</leafValues></_></weakClassifiers></_>
    <!-- stage 6 -->
    <_>
      <maxWeakCount>12</maxWeakCount>
      <stageThreshold>-5.5381733179092407e-01</stageThreshold>
      <weakClassifiers>
        <_>
          <internalNodes>
            0 -1 13 1.9747642800211906e-03</internalNodes>
          <leafValues>
            -1.2380952388048172e-01 5.4285717010498047e-01</leafValues></_>
        <_>
          <internalNodes>
            0 -1 100 -5.3244051523506641e-03</internalNodes>
          <leafValues>
            8.7014317512512207e-01 -9.8000191152095795e-02</leafValues></_>
        <_>
          <internalNodes>
            0 -1 107 2.5724306702613831e-02</internalNodes>
          <leafValues>
            -9.7566999495029449e-02 9.0774983167648315e-01</leafValues></_>
        <_>
          <internalNodes>
            0 -1 182 1.1001057922840118e-01</internalNodes>
          <leafValues>
            2.0256368815898895e-01 -6.6454142332077026e-01</leafValues></_>
        <_>
          <internalNodes>
            0 -1 118 1.4008491300046444e-02</internalNodes>
          <leafValues>
            -1.4321450889110565e-01 7.3167049884796143e-01</leafValues></_>
        <_>
          <internalNodes>
            0 -1 170 -1.6648661345243454e-02</internalNodes>
          <leafValues>
            7.4901032447814941e-01 -1.2381179630756378e-01</leafValues></_>
        <_>
          <internalNodes>
            0 -1 207 6.8002392072230577e-04</internalNodes>
          <leafValues>
            -2.0019222795963287e-01 4.7406560182571411e-01</leafValues></_>
        <_>
          <internalNodes>
            0 -1 36 2.1670786372851580e-04</internalNodes>
          <leafValues>
            4.2680516839027405e-01 -2.4211400747299194e-01</leafValues></_>
        <_>
          <internalNodes>
            0 -1 81 -8.0359745770692825e-03</internalNodes>
          <leafValues>
            6.1273092031478882e-01 -2.0390030741691589e-01</leafValues></_>
        <_>
          <internalNodes>
            0 -1 192 -4.9324315041303635e-03</internalNodes>
          <leafValues>
            3.8021993637084961e-01 -3.1560233235359192e-01</leafValues></_>
        <_>
          <internalNodes>
            0 -1 90 1.9062001956626773e-04</internalNodes>
          <leafValues>
            3.0562335252761841e-01 -4.1433799266815186e-01</leafValues></_>
        <_>
          <internalNodes>
            0 -1 204 1.8587349914014339e-03</internalNodes>
          <leafValues>
            -1.8045918643474579e-01 6.2352299690246582e-01</leafValues></_></weakClassifiers></_>
    <!-- stage 7 -->
    <_>
      <maxWeakCount>13</maxWeakCount>
      <stageThreshold>-7.3438543081283569e-01</stageThreshold>
      <weakClassifiers>
        <_>
          <internalNodes>
            0 -1 17 -2.2550597786903381e-03</internalNodes>
          <leafValues>
            -7.3913043737411499e-01 2.7631577849388123e-01</leafValues></_>
        <_>
          <internalNodes>
            0 -1 232 -1.0763876343844458e-04</internalNodes>
          <leafValues>
            2.6477998495101929e-01 -3.5145455598831177e-01</leafValues></_>
        <_>
          <internalNodes>
            0 -1 51 1.5188040561042726e-04</internalNodes>
          <leafValues>
            2.8287392854690552e-01 -3.9995014667510986e-01</leafValues></_>
        <_>
          <internalNodes>
            0 -1 121 2.3910492658615112e-02</internalNodes>
          <leafValues>
            -1.4459219574928284e-01 7.0257031917572021e-01</leafValues></_>
        <_>
          <internalNodes>
            0 -1 223 -3.6942545557394624e-04</internalNodes>
          <leafValues>
            -6.1022114753723145e-01 1.5445162355899811e-01</leafValues></_>
        <_>
          <internalNodes>
            0 -1 62 -1.1934325098991394e-02</internalNodes>
          <leafValues>
            4.9030786752700806e-01 -2.1421653032302856e-01</leafValues></_>
        <_>
          <internalNodes>
            0 -1 79 -6.9708414375782013e-03</internalNodes>
          <leafValues>
            7.9189503192901611e-01 -1.3240273296833038e-01</leafValues></_>
        <_>
          <internalNodes>
            0 -1 84 -2.1666033717337996e-04</internalNodes>
          <leafValues>
            -4.7361111640930176e-01 2.5741335749626160e-01</leafValues></_>
        <_>
          <internalNodes>
            0 -1 44 -2.4011131376028061e-02</internalNodes>
          <leafValues>
            6.6653400659561157e-01 -1.7354230582714081e-01</leafValues></_>
        <_>
          <internalNodes>
            0 -1 74 4.0268236771225929e-03</internalNodes>
          <leafValues>
            2.3663853108882904e-01 -4.8528623580932617e-01</leafValues></_>
        <_>
          <internalNodes>
            0 -1 92 -1.3192242942750454e-02</internalNodes>
          <leafValues>
            5.7297116518020630e-01 -2.1868951618671417e-01</leafValues></_>
        <_>
          <internalNodes>
            0 -1 125 -1.0646328330039978e-02</internalNodes>
          <leafValues>
            5.9016376733779907e-01 -1.5898410975933075e-01</leafValues></_>
        <_>
          <internalNodes>
            0 -1 152 1.4087826013565063e-02</internalNodes>
          <leafValues>
            -1.2838181853294373e-01 7.8474903106689453e-01</leafValues></_></weakClassifiers></_>
    <!-- stage 8 -->
    <_>
      <maxWeakCount>15</maxWeakCount>
      <stageThreshold>-5.6612986326217651e-01</stageThreshold>
      <weakClassifiers>
        <_>
          <internalNodes>
            0 -1 117 -1.2346947565674782e-02</internalNodes>
          <leafValues>
            -1. 2.0845921337604523e-01</leafValues></_>
        <_>
          <internalNodes>
            0 -1 21 -2.0327768288552761e-03</internalNodes>
          <leafValues>
            4.5978158712387085e-01 -1.7602926492691040e-01</leafValues></_>
        <_>
          <internalNodes>
            0 -1 3 1.8361696274951100e-03</internalNodes>
          <leafValues>
            1.4782483875751495e-01 -5.6014704704284668e-01</leafValues></_>
        <_>
          <internalNodes>
            0 -1 29 3.6592017859220505e-02</internalNodes>
          <leafValues>
            -1.0439645498991013e-01 8.0208307504653931e-01</leafValues></_>
        <_>
          <internalNodes>
            0 -1 185 3.4974902519024909e-05</internalNodes>
          <leafValues>
            -2.9824563860893250e-01 2.9899647831916809e-01</leafValues></_>
        <_>
          <internalNodes>
            0 -1 233 -1.3930249224358704e-05</internalNodes>
          <leafValues>
            3.0330199003219604e-01 -3.8886904716491699e-01</leafValues></_>
        <_>
          <internalNodes>
            0 -1 108 3.1973034492693841e-04</internalNodes>
          <leafValues>
            1.5815617144107819e-01 -6.0748726129531860e-01</leafValues></_>
        <_>
          <internalNodes>
            0 -1 45 -1.9595683552324772e-03</internalNodes>
          <leafValues>
            3.8567772507667542e-01 -2.3827354609966278e-01</leafValues></_>
        <_>
          <internalNodes>
            0 -1 60 3.1187959015369415e-02</internalNodes>
          <leafValues>
            1.1329565197229385e-01 -9.5669180154800415e-01</leafValues></_>
        <_>
          <internalNodes>
            0 -1 148 -6.5667048329487443e-04</internalNodes>
          <leafValues>
            3.3572918176651001e-01 -2.9287761449813843e-01</leafValues></_>
        <_>
          <internalNodes>
            0 -1 75 2.7836648747324944e-02</internalNodes>
          <leafValues>
            -1.9168522953987122e-01 4.9383422732353210e-01</leafValues></_>
        <_>
          <internalNodes>
            0 -1 174 -6.8229256430640817e-04</internalNodes>
          <leafValues>
            3.5998514294624329e-01 -3.0970549583435059e-01</leafValues></_>
        <_>
          <internalNodes>
            0 -1 69 -1.5863773296587169e-04</internalNodes>
          <leafValues>
            -6.1349135637283325e-01 1.8048094213008881e-01</leafValues></_>
        <_>
          <internalNodes>
            0 -1 113 -7.1095917373895645e-03</internalNodes>
          <leafValues>
            3.3597153425216675e-01 -3.0654439330101013e-01</leafValues></_>
        <_>
          <internalNodes>
            0 -1 112 7.6970607042312622e-02</internalNodes>
          <leafValues>
            -1.6184453666210175e-01 7.3039692640304565e-01</leafValues></_></weakClassifiers></_>
    <!-- stage 9 -->
    <_>
      <maxWeakCount>14</maxWeakCount>
      <stageThreshold>-6.6254580020904541e-01</stageThreshold>
      <weakClassifiers>
        <_>
          <internalNodes>
            0 -1 19 8.7622727733105421e-04</internalNodes>
          <leafValues>
            -2.5333333015441895e-01 4.3999999761581421e-01</leafValues></_>
        <_>
          <internalNodes>
            0 -1 76 -1.7431054729968309e-03</internalNodes>
          <leafValues>
            6.1972159147262573e-01 -1.2513102591037750e-01</leafValues></_>
        <_>
          <internalNodes>
            0 -1 200 1.1510231997817755e-03</internalNodes>
          <leafValues>
            -2.4050581455230713e-01 3.9083594083786011e-01</leafValues></_>
        <_>
          <internalNodes>
            0 -1 166 1.8353960476815701e-03</internalNodes>
          <leafValues>
            1.4465780556201935e-01 -6.3066089153289795e-01</leafValues></_>
        <_>
          <internalNodes>
            0 -1 179 -7.8020482324063778e-03</internalNodes>
          <leafValues>
            4.7367712855339050e-01 -1.7559842765331268e-01</leafValues></_>
        <_>
          <internalNodes>
            0 -1 4 8.6564157390967011e-04</internalNodes>
          <leafValues>
            -2.8428569436073303e-01 3.2697591185569763e-01</leafValues></_>
        <_>
          <internalNodes>
            0 -1 27 -2.4635907262563705e-02</internalNodes>
          <leafValues>
            3.9671427011489868e-01 -2.2785171866416931e-01</leafValues></_>
        <_>
          <internalNodes>
            0 -1 114 -1.4774212613701820e-02</internalNodes>
          <leafValues>
            8.0013835430145264e-01 -1.1826779693365097e-01</leafValues></_>
        <_>
          <internalNodes>
            0 -1 150 2.3594903759658337e-03</internalNodes>
          <leafValues>
            -2.1760137379169464e-01 4.3585833907127380e-01</leafValues></_>
        <_>
          <internalNodes>
            0 -1 187 2.9456475749611855e-03</internalNodes>
          <leafValues>
            -2.4567806720733643e-01 4.3915477395057678e-01</leafValues></_>
        <_>
          <internalNodes>
            0 -1 217 -6.1849865596741438e-04</internalNodes>
          <leafValues>
            3.7848508358001709e-01 -2.8697219491004944e-01</leafValues></_>
        <_>
          <internalNodes>
            0 -1 169 9.2674698680639267e-04</internalNodes>
          <leafValues>
            -2.4977704882621765e-01 3.8936468958854675e-01</leafValues></_>
        <_>
          <internalNodes>
            0 -1 139 4.6185354585759342e-04</internalNodes>
          <leafValues>
            -2.5396928191184998e-01 3.9718738198280334e-01</leafValues></_>
        <_>
          <internalNodes>
            0 -1 37 3.3494326635263860e-04</internalNodes>
          <leafValues>
            1.5470367670059204e-01 -6.1618649959564209e-01</leafValues></_></weakClassifiers></_>
    <!-- stage 10 -->
    <_>
      <maxWeakCount>10</maxWeakCount>
      <stageThreshold>-4.5949766039848328e-01</stageThreshold>
      <weakClassifiers>
        <_>
          <internalNodes>
            0 -1 52 1.6291498468490317e-05</internalNodes>
          <leafValues>
            -2.3636363446712494e-01 4.8108106851577759e-01</leafValues></_>
        <_>
          <internalNodes>
            0 -1 142 4.7696166438981891e-04</internalNodes>
          <leafValues>
            -2.5113335251808167e-01 5.3919953107833862e-01</leafValues></_>
        <_>
          <internalNodes>
            0 -1 184 -1.4491741239908151e-05</internalNodes>
          <leafValues>
            4.5046034455299377e-01 -2.9070597887039185e-01</leafValues></_>
        <_>
          <internalNodes>
            0 -1 156 -1.7696740105748177e-03</internalNodes>
          <leafValues>
            6.2961333990097046e-01 -2.3733147978782654e-01</leafValues></_>
        <_>
          <internalNodes>
            0 -1 168 -1.3930249224358704e-05</internalNodes>
          <leafValues>
            4.2774599790573120e-01 -3.6933884024620056e-01</leafValues></_>
        <_>
          <internalNodes>
            0 -1 59 6.6010109148919582e-03</internalNodes>
          <leafValues>
            -1.9986581802368164e-01 6.7058926820755005e-01</leafValues></_>
        <_>
          <internalNodes>
            0 -1 136 -4.6618335181847215e-04</internalNodes>
          <leafValues>
            7.6614397764205933e-01 -1.5560136735439301e-01</leafValues></_>
        <_>
          <internalNodes>
            0 -1 165 -1.9637953955680132e-03</internalNodes>
          <leafValues>
            7.6933729648590088e-01 -1.3023816049098969e-01</leafValues></_>
        <_>
          <internalNodes>
            0 -1 130 -2.8113108128309250e-03</internalNodes>
          <leafValues>
            5.2674353122711182e-01 -2.3219901323318481e-01</leafValues></_>
        <_>
          <internalNodes>
            0 -1 86 -5.6767258793115616e-03</internalNodes>
          <leafValues>
            -8.2805442810058594e-01 1.6689266264438629e-01</leafValues></_></weakClassifiers></_>
    <!-- stage 11 -->
    <_>
      <maxWeakCount>13</maxWeakCount>
      <stageThreshold>-6.9890457391738892e-01</stageThreshold>
      <weakClassifiers>
        <_>
          <internalNodes>
            0 -1 43 2.1702575031667948e-03</internalNodes>
          <leafValues>
            -1.8857142329216003e-01 4.7428572177886963e-01</leafValues></_>
        <_>
          <internalNodes>
            0 -1 49 3.4402648452669382e-05</internalNodes>
          <leafValues>
            -3.2470250129699707e-01 3.5363778471946716e-01</leafValues></_>
        <_>
          <internalNodes>
            0 -1 25 3.2052411697804928e-03</internalNodes>
          <leafValues>
            -1.3848669826984406e-01 9.1239041090011597e-01</leafValues></_>
        <_>
          <internalNodes>
            0 -1 127 5.4833488538861275e-03</internalNodes>
          <leafValues>
            2.5636267662048340e-01 -5.0222218036651611e-01</leafValues></_>
        <_>
          <internalNodes>
            0 -1 203 8.0401415470987558e-04</internalNodes>
          <leafValues>
            -1.9062410295009613e-01 5.7508921623229980e-01</leafValues></_>
        <_>
          <internalNodes>
            0 -1 8 -5.4046604782342911e-03</internalNodes>
          <leafValues>
            4.8393142223358154e-01 -2.2761297225952148e-01</leafValues></_>
        <_>
          <internalNodes>
            0 -1 58 -6.7843660712242126e-02</internalNodes>
          <leafValues>
            4.5791083574295044e-01 -2.4608913064002991e-01</leafValues></_>
        <_>
          <internalNodes>
            0 -1 212 1.9300398416817188e-03</internalNodes>
          <leafValues>
            1.7259840667247772e-01 -6.7570012807846069e-01</leafValues></_>
        <_>
          <internalNodes>
            0 -1 140 -3.1028687953948975e-03</internalNodes>
          <leafValues>
            5.6367444992065430e-01 -2.5714686512947083e-01</leafValues></_>
        <_>
          <internalNodes>
            0 -1 97 4.2045731097459793e-03</internalNodes>
          <leafValues>
            -1.9324454665184021e-01 6.1715638637542725e-01</leafValues></_>
        <_>
          <internalNodes>
            0 -1 115 -1.2831795029342175e-03</internalNodes>
          <leafValues>
            6.9055390357971191e-01 -1.5669862926006317e-01</leafValues></_>
        <_>
          <internalNodes>
            0 -1 201 -6.1562901828438044e-04</internalNodes>
          <leafValues>
            5.0624644756317139e-01 -2.1838302910327911e-01</leafValues></_>
        <_>
          <internalNodes>
            0 -1 230 -5.6060811039060354e-04</internalNodes>
          <leafValues>
            3.8746216893196106e-01 -3.2750317454338074e-01</leafValues></_></weakClassifiers></_>
    <!-- stage 12 -->
    <_>
      <maxWeakCount>13</maxWeakCount>
      <stageThreshold>-8.7440830469131470e-01</stageThreshold>
      <weakClassifiers>
        <_>
          <internalNodes>
            0 -1 83 -9.5583742950111628e-04</internalNodes>
          <leafValues>
            -4.5238095521926880e-01 3.3082705736160278e-01</leafValues></_>
        <_>
          <internalNodes>
            0 -1 71 -4.8972419463098049e-03</internalNodes>
          <leafValues>
            4.3891271948814392e-01 -2.7867305278778076e-01</leafValues></_>
        <_>
          <internalNodes>
            0 -1 216 1.0634709615260363e-03</internalNodes>
          <leafValues>
            -1.7282770574092865e-01 6.1621165275573730e-01</leafValues></_>
        <_>
          <internalNodes>
            0 -1 38 -3.9489768096245825e-04</internalNodes>
          <leafValues>
            -4.8099681735038757e-01 2.4040152132511139e-01</leafValues></_>
        <_>
          <internalNodes>
            0 -1 80 -7.4897632002830505e-02</internalNodes>
          <leafValues>
            7.9541748762130737e-01 -1.1928058415651321e-01</leafValues></_>
        <_>
          <internalNodes>
            0 -1 196 -2.3686224594712257e-03</internalNodes>
          <leafValues>
            3.9508685469627380e-01 -2.8818365931510925e-01</leafValues></_>
        <_>
          <internalNodes>
            0 -1 190 -1.4757458120584488e-03</internalNodes>
          <leafValues>
            4.7899910807609558e-01 -2.2320571541786194e-01</leafValues></_>
        <_>
          <internalNodes>
            0 -1 7 -1.0811902582645416e-01</internalNodes>
          <leafValues>
            7.7935242652893066e-01 -1.0648542642593384e-01</leafValues></_>
        <_>
          <internalNodes>
            0 -1 158 2.4601723998785019e-03</internalNodes>
          <leafValues>
            -2.3536810278892517e-01 5.5947941541671753e-01</leafValues></_>
        <_>
          <internalNodes>
            0 -1 16 -4.9215555191040039e-04</internalNodes>
          <leafValues>
            -4.7936302423477173e-01 2.7734345197677612e-01</leafValues></_>
        <_>
          <internalNodes>
            0 -1 215 7.8096771612763405e-03</internalNodes>
          <leafValues>
            -3.7352293729782104e-01 3.9081045985221863e-01</leafValues></_>
        <_>
          <internalNodes>
            0 -1 195 -6.6792513243854046e-03</internalNodes>
          <leafValues>
            7.9342210292816162e-01 -1.2286680936813354e-01</leafValues></_>
        <_>
          <internalNodes>
            0 -1 34 1.9857422448694706e-03</internalNodes>
          <leafValues>
            2.1079584956169128e-01 -6.4358013868331909e-01</leafValues></_></weakClassifiers></_>
    <!-- stage 13 -->
    <_>
      <maxWeakCount>9</maxWeakCount>
      <stageThreshold>-5.7452619075775146e-01</stageThreshold>
      <weakClassifiers>
        <_>
          <internalNodes>
            0 -1 54 -3.4433236578479409e-04</internalNodes>
          <leafValues>
            -5.4929578304290771e-01 3.1899642944335938e-01</leafValues></_>
        <_>
          <internalNodes>
            0 -1 53 2.8835440753027797e-04</internalNodes>
          <leafValues>
            2.9231896996498108e-01 -5.1914244890213013e-01</leafValues></_>
        <_>
          <internalNodes>
            0 -1 171 -1.5437784604728222e-03</internalNodes>
          <leafValues>
            -7.9829758405685425e-01 1.3199573755264282e-01</leafValues></_>
        <_>
          <internalNodes>
            0 -1 96 2.4752458557486534e-03</internalNodes>
          <leafValues>
            -2.0871606469154358e-01 5.1432728767395020e-01</leafValues></_>
        <_>
          <internalNodes>
            0 -1 104 7.0408615283668041e-04</internalNodes>
          <leafValues>
            1.5028439462184906e-01 -6.7569208145141602e-01</leafValues></_>
        <_>
          <internalNodes>
            0 -1 1 -7.2540650144219398e-03</internalNodes>
          <leafValues>
            5.1404982805252075e-01 -2.4597632884979248e-01</leafValues></_>
        <_>
          <internalNodes>
            0 -1 23 -3.8796346634626389e-03</internalNodes>
          <leafValues>
            4.8693421483039856e-01 -1.8288555741310120e-01</leafValues></_>
        <_>
          <internalNodes>
            0 -1 65 -1.8509486690163612e-02</internalNodes>
          <leafValues>
            6.9928020238876343e-01 -1.8482419848442078e-01</leafValues></_>
        <_>
          <internalNodes>
            0 -1 98 7.5912885367870331e-02</internalNodes>
          <leafValues>
            1.6574184596538544e-01 -8.3211469650268555e-01</leafValues></_></weakClassifiers></_>
    <!-- stage 14 -->
    <_>
      <maxWeakCount>9</maxWeakCount>
      <stageThreshold>-4.3772265315055847e-01</stageThreshold>
      <weakClassifiers>
        <_>
          <internalNodes>
            0 -1 20 1.6291498468490317e-05</internalNodes>
          <leafValues>
            -2.9927006363868713e-01 4.2723006010055542e-01</leafValues></_>
        <_>
          <internalNodes>
            0 -1 146 -2.2087129764258862e-04</internalNodes>
          <leafValues>
            4.5070090889930725e-01 -2.4568814039230347e-01</leafValues></_>
        <_>
          <internalNodes>
            0 -1 211 -1.7825175746111199e-05</internalNodes>
          <leafValues>
            3.0942136049270630e-01 -3.8529410958290100e-01</leafValues></_>
        <_>
          <internalNodes>
            0 -1 145 1.4491741239908151e-05</internalNodes>
          <leafValues>
            -2.8631639480590820e-01 4.0927913784980774e-01</leafValues></_>
        <_>
          <internalNodes>
            0 -1 48 -5.4474564967676997e-04</internalNodes>
          <leafValues>
            4.6871915459632874e-01 -2.5167149305343628e-01</leafValues></_>
        <_>
          <internalNodes>
            0 -1 229 1.8603063654154539e-03</internalNodes>
          <leafValues>
            1.4885012805461884e-01 -8.6719286441802979e-01</leafValues></_>
        <_>
          <internalNodes>
            0 -1 106 -2.8918897733092308e-03</internalNodes>
          <leafValues>
            7.1003532409667969e-01 -2.0983532071113586e-01</leafValues></_>
        <_>
          <internalNodes>
            0 -1 82 -9.6857380121946335e-03</internalNodes>
          <leafValues>
            6.2804144620895386e-01 -1.6060604155063629e-01</leafValues></_>
        <_>
          <internalNodes>
            0 -1 218 -2.0507103763520718e-03</internalNodes>
          <leafValues>
            -7.2480303049087524e-01 1.5054713189601898e-01</leafValues></_></weakClassifiers></_>
    <!-- stage 15 -->
    <_>
      <maxWeakCount>10</maxWeakCount>
      <stageThreshold>-4.9215948581695557e-01</stageThreshold>
      <weakClassifiers>
        <_>
          <internalNodes>
            0 -1 67 1.7230386220035143e-05</internalNodes>
          <leafValues>
            -1.5841583907604218e-01 5.5405408143997192e-01</leafValues></_>
        <_>
          <internalNodes>
            0 -1 0 7.0317159406840801e-04</internalNodes>
          <leafValues>
            -1.5638948976993561e-01 6.1710327863693237e-01</leafValues></_>
        <_>
          <internalNodes>
            0 -1 197 1.4491741239908151e-05</internalNodes>
          <leafValues>
            -3.1748127937316895e-01 4.3578687310218811e-01</leafValues></_>
        <_>
          <internalNodes>
            0 -1 15 -2.0386862161103636e-05</internalNodes>
          <leafValues>
            4.1760843992233276e-01 -3.4814211726188660e-01</leafValues></_>
        <_>
          <internalNodes>
            0 -1 50 2.0051606406923383e-04</internalNodes>
          <leafValues>
            -3.1217586994171143e-01 4.3161275982856750e-01</leafValues></_>
        <_>
          <internalNodes>
            0 -1 138 -1.2139875616412610e-04</internalNodes>
          <leafValues>
            6.1539316177368164e-01 -2.0419821143150330e-01</leafValues></_>
        <_>
          <internalNodes>
            0 -1 157 -2.0671288075391203e-04</internalNodes>
          <leafValues>
            3.9540830254554749e-01 -3.6292958259582520e-01</leafValues></_>
        <_>
          <internalNodes>
            0 -1 163 1.7311558622168377e-05</internalNodes>
          <leafValues>
            -2.8417968750000000e-01 5.0183176994323730e-01</leafValues></_>
        <_>
          <internalNodes>
            0 -1 47 -8.4272510139271617e-04</internalNodes>
          <leafValues>
            6.4327406883239746e-01 -2.4961760640144348e-01</leafValues></_>
        <_>
          <internalNodes>
            0 -1 194 -1.7051837858161889e-05</internalNodes>
          <leafValues>
            4.8732632398605347e-01 -3.2270574569702148e-01</leafValues></_></weakClassifiers></_>
    <!-- stage 16 -->
    <_>
      <maxWeakCount>12</maxWeakCount>
      <stageThreshold>-5.1505804061889648e-01</stageThreshold>
      <weakClassifiers>
        <_>
          <internalNodes>
            0 -1 12 4.1359835304319859e-03</internalNodes>
          <leafValues>
            -1.7708332836627960e-01 5.3164559602737427e-01</leafValues></_>
        <_>
          <internalNodes>
            0 -1 181 -2.9500644654035568e-02</internalNodes>
          <leafValues>
            5.9238147735595703e-01 -1.3312731683254242e-01</leafValues></_>
        <_>
          <internalNodes>
            0 -1 66 -2.4273462593555450e-02</internalNodes>
          <leafValues>
            5.3708642721176147e-01 -2.1460700035095215e-01</leafValues></_>
        <_>
          <internalNodes>
            0 -1 131 7.4608949944376945e-03</internalNodes>
          <leafValues>
            -2.6256373524665833e-01 3.6389580368995667e-01</leafValues></_>
        <_>
          <internalNodes>
            0 -1 137 3.9713676087558270e-03</internalNodes>
          <leafValues>
            -2.6573896408081055e-01 3.9996707439422607e-01</leafValues></_>
        <_>
          <internalNodes>
            0 -1 214 -8.0274627543985844e-04</internalNodes>
          <leafValues>
            2.9258280992507935e-01 -3.4113141894340515e-01</leafValues></_>
        <_>
          <internalNodes>
            0 -1 55 -5.2089514210820198e-03</internalNodes>
          <leafValues>
            7.2409552335739136e-01 -1.4477027952671051e-01</leafValues></_>
        <_>
          <internalNodes>
            0 -1 123 4.6985864173620939e-04</internalNodes>
          <leafValues>
            -1.7270225286483765e-01 5.6359565258026123e-01</leafValues></_>
        <_>
          <internalNodes>
            0 -1 111 1.1113004293292761e-03</internalNodes>
          <leafValues>
            1.9673894345760345e-01 -5.3738236427307129e-01</leafValues></_>
        <_>
          <internalNodes>
            0 -1 6 1.6379379667341709e-04</internalNodes>
          <leafValues>
            -3.1065770983695984e-01 3.3606603741645813e-01</leafValues></_>
        <_>
          <internalNodes>
            0 -1 68 7.4580386281013489e-03</internalNodes>
          <leafValues>
            -2.9686942696571350e-01 3.5486468672752380e-01</leafValues></_>
        <_>
          <internalNodes>
            0 -1 35 -1.0437713353894651e-04</internalNodes>
          <leafValues>
            4.3787029385566711e-01 -2.9584094882011414e-01</leafValues></_></weakClassifiers></_>
    <!-- stage 17 -->
    <_>
      <maxWeakCount>12</maxWeakCount>
      <stageThreshold>-5.8719253540039063e-01</stageThreshold>
      <weakClassifiers>
        <_>
          <internalNodes>
            0 -1 135 2.5722000747919083e-02</internalNodes>
          <leafValues>
            -1.5740740299224854e-01 6.2686568498611450e-01</leafValues></_>
        <_>
          <internalNodes>
            0 -1 199 -5.8451788499951363e-03</internalNodes>
          <leafValues>
            6.9625949859619141e-01 -1.4650234580039978e-01</leafValues></_>
        <_>
          <internalNodes>
            0 -1 202 4.4954475015401840e-03</internalNodes>
          <leafValues>
            -1.8519192934036255e-01 5.8903491497039795e-01</leafValues></_>
        <_>
          <internalNodes>
            0 -1 77 -1.9327301532030106e-02</internalNodes>
          <leafValues>
            -4.3750765919685364e-01 2.4431894719600677e-01</leafValues></_>
        <_>
          <internalNodes>
            0 -1 220 -3.4365165047347546e-03</internalNodes>
          <leafValues>
            -6.0483288764953613e-01 1.7317409813404083e-01</leafValues></_>
        <_>
          <internalNodes>
            0 -1 61 3.4995011985301971e-02</internalNodes>
          <leafValues>
            -1.5324307978153229e-01 7.6541566848754883e-01</leafValues></_>
        <_>
          <internalNodes>
            0 -1 231 -4.5073390938341618e-03</internalNodes>
          <leafValues>
            6.4473450183868408e-01 -1.9481769204139709e-01</leafValues></_>
        <_>
          <internalNodes>
            0 -1 70 -2.0059930160641670e-02</internalNodes>
          <leafValues>
            8.2126128673553467e-01 -1.5137861669063568e-01</leafValues></_>
        <_>
          <internalNodes>
            0 -1 5 -2.4119183421134949e-02</internalNodes>
          <leafValues>
            5.1067334413528442e-01 -2.1140433847904205e-01</leafValues></_>
        <_>
          <internalNodes>
            0 -1 40 1.6786418855190277e-03</internalNodes>
          <leafValues>
            -2.3020328581333160e-01 5.2463692426681519e-01</leafValues></_>
        <_>
          <internalNodes>
            0 -1 103 -9.8944921046495438e-03</internalNodes>
          <leafValues>
            -4.7533744573593140e-01 2.7152955532073975e-01</leafValues></_>
        <_>
          <internalNodes>
            0 -1 9 -1.3385269790887833e-02</internalNodes>
          <leafValues>
            8.8775277137756348e-01 -1.7879341542720795e-01</leafValues></_></weakClassifiers></_>
    <!-- stage 18 -->
    <_>
      <maxWeakCount>15</maxWeakCount>
      <stageThreshold>-6.1637532711029053e-01</stageThreshold>
      <weakClassifiers>
        <_>
          <internalNodes>
            0 -1 78 1.9968893378973007e-02</internalNodes>
          <leafValues>
            -3.3613447099924088e-02 5.1785713434219360e-01</leafValues></_>
        <_>
          <internalNodes>
            0 -1 132 -1.1978478869423270e-03</internalNodes>
          <leafValues>
            4.9724295735359192e-01 -1.4488016068935394e-01</leafValues></_>
        <_>
          <internalNodes>
            0 -1 105 4.3531097471714020e-02</internalNodes>
          <leafValues>
            -1.4842869341373444e-01 5.1624459028244019e-01</leafValues></_>
        <_>
          <internalNodes>
            0 -1 191 -4.4676726683974266e-03</internalNodes>
          <leafValues>
            -8.2772749662399292e-01 9.3756631016731262e-02</leafValues></_>
        <_>
          <internalNodes>
            0 -1 93 2.3168290033936501e-02</internalNodes>
          <leafValues>
            8.3422981202602386e-02 -1.</leafValues></_>
        <_>
          <internalNodes>
            0 -1 154 8.2382103428244591e-03</internalNodes>
          <leafValues>
            -1.2598119676113129e-01 7.1529346704483032e-01</leafValues></_>
        <_>
          <internalNodes>
            0 -1 189 5.8524170890450478e-03</internalNodes>
          <leafValues>
            -1.3679933547973633e-01 5.2839910984039307e-01</leafValues></_>
        <_>
          <internalNodes>
            0 -1 206 4.2907133698463440e-02</internalNodes>
          <leafValues>
            1.2240443378686905e-01 -7.1146488189697266e-01</leafValues></_>
        <_>
          <internalNodes>
            0 -1 153 -1.3904699590057135e-03</internalNodes>
          <leafValues>
            6.5194571018218994e-01 -1.2532193958759308e-01</leafValues></_>
        <_>
          <internalNodes>
            0 -1 41 -1.5714015811681747e-02</internalNodes>
          <leafValues>
            -2.8495055437088013e-01 2.7371209859848022e-01</leafValues></_>
        <_>
          <internalNodes>
            0 -1 226 4.4644635636359453e-05</internalNodes>
          <leafValues>
            -2.9597282409667969e-01 2.7092671394348145e-01</leafValues></_>
        <_>
          <internalNodes>
            0 -1 161 -3.3365568378940225e-04</internalNodes>
          <leafValues>
            3.3413219451904297e-01 -2.2742503881454468e-01</leafValues></_>
        <_>
          <internalNodes>
            0 -1 120 -1.8322260584682226e-03</internalNodes>
          <leafValues>
            -4.6325084567070007e-01 1.6825681924819946e-01</leafValues></_>
        <_>
          <internalNodes>
            0 -1 30 1.4615023974329233e-03</internalNodes>
          <leafValues>
            -2.0605960488319397e-01 4.0021902322769165e-01</leafValues></_>
        <_>
          <internalNodes>
            0 -1 110 -3.2556150108575821e-03</internalNodes>
          <leafValues>
            6.3662463426589966e-01 -1.2321301549673080e-01</leafValues></_></weakClassifiers></_>
    <!-- stage 19 -->
    <_>
      <maxWeakCount>14</maxWeakCount>
      <stageThreshold>-6.2544971704483032e-01</stageThreshold>
      <weakClassifiers>
        <_>
          <internalNodes>
            0 -1 193 9.3271915102377534e-04</internalNodes>
          <leafValues>
            2.9370629787445068e-01 -5.3125000000000000e-01</leafValues></_>
        <_>
          <internalNodes>
            0 -1 72 4.3623343110084534e-02</internalNodes>
          <leafValues>
            1.4280886948108673e-01 -6.6957390308380127e-01</leafValues></_>
        <_>
          <internalNodes>
            0 -1 129 2.9596113599836826e-03</internalNodes>
          <leafValues>
            -1.7407922446727753e-01 6.1277014017105103e-01</leafValues></_>
        <_>
          <internalNodes>
            0 -1 162 8.8527053594589233e-04</internalNodes>
          <leafValues>
            2.1437528729438782e-01 -4.9497389793395996e-01</leafValues></_>
        <_>
          <internalNodes>
            0 -1 64 6.5901987254619598e-03</internalNodes>
          <leafValues>
            -2.7680498361587524e-01 4.4503191113471985e-01</leafValues></_>
        <_>
          <internalNodes>
            0 -1 14 1.8146241083741188e-02</internalNodes>
          <leafValues>
            1.4998540282249451e-01 -9.6497696638107300e-01</leafValues></_>
        <_>
          <internalNodes>
            0 -1 28 -2.3419793695211411e-02</internalNodes>
          <leafValues>
            -5.6163990497589111e-01 1.7112323641777039e-01</leafValues></_>
        <_>
          <internalNodes>
            0 -1 225 -1.5504119219258428e-03</internalNodes>
          <leafValues>
            5.7982784509658813e-01 -2.2431571781635284e-01</leafValues></_>
        <_>
          <internalNodes>
            0 -1 176 2.1344474516808987e-03</internalNodes>
          <leafValues>
            -1.5134938061237335e-01 5.9095388650894165e-01</leafValues></_>
        <_>
          <internalNodes>
            0 -1 227 -6.2950281426310539e-04</internalNodes>
          <leafValues>
            -6.4761179685592651e-01 1.6744305193424225e-01</leafValues></_>
        <_>
          <internalNodes>
            0 -1 155 2.8594578616321087e-03</internalNodes>
          <leafValues>
            -1.6863526403903961e-01 7.4491614103317261e-01</leafValues></_>
        <_>
          <internalNodes>
            0 -1 175 -1.6676674783229828e-01</internalNodes>
          <leafValues>
            8.7088507413864136e-01 -8.0752119421958923e-02</leafValues></_>
        <_>
          <internalNodes>
            0 -1 208 -1.9722740398719907e-04</internalNodes>
          <leafValues>
            -3.1799322366714478e-01 3.2166928052902222e-01</leafValues></_>
        <_>
          <internalNodes>
            0 -1 24 -3.6497935652732849e-02</internalNodes>
          <leafValues>
            5.8900725841522217e-01 -1.8566817045211792e-01</leafValues></_></weakClassifiers></_></stages>
  <features>
    <_>
      <rects>
        <_>
          0 0 2 2 -1.</_>
        <_>
          1 0 1 2 2.</_></rects>
      <tilted>0</tilted></_>
    <_>
      <rects>
        <_>
          0 0 2 6 -1.</_>
        <_>
          0 3 2 3 2.</_></rects>
      <tilted>0</tilted></_>
    <_>
      <rects>
        <_>
          0 1 12 14 -1.</_>
        <_>
          0 1 6 7 2.</_>
        <_>
          6 8 6 7 2.</_></rects>
      <tilted>0</tilted></_>
    <_>
      <rects>
        <_>
          0 2 1 4 -1.</_>
        <_>
          0 4 1 2 2.</_></rects>
      <tilted>0</tilted></_>
    <_>
      <rects>
        <_>
          0 2 1 16 -1.</_>
        <_>
          0 10 1 8 2.</_></rects>
      <tilted>0</tilted></_>
    <_>
      <rects>
        <_>
          0 4 21 6 -1.</_>
        <_>
          0 7 21 3 2.</_></rects>
      <tilted>0</tilted></_>
    <_>
      <rects>
        <_>
          0 5 4 5 -1.</_>
        <_>
          2 5 2 5 2.</_></rects>
      <tilted>0</tilted></_>
    <_>
      <rects>
        <_>
          0 5 21 9 -1.</_>
        <_>
          0 8 21 3 3.</_></rects>
      <tilted>0</tilted></_>
    <_>
      <rects>
        <_>
          0 14 12 6 -1.</_>
        <_>
          0 16 12 2 3.</_></rects>
      <tilted>0</tilted></_>
    <_>
      <rects>
        <_>
          0 14 23 2 -1.</_>
        <_>
          0 15 23 1 2.</_></rects>
      <tilted>0</tilted></_>
    <_>
      <rects>
        <_>
          0 17 2 3 -1.</_>
        <_>
          1 17 1 3 2.</_></rects>
      <tilted>0</tilted></_>
    <_>
      <rects>
        <_>
          0 19 3 5 -1.</_>
        <_>
          1 19 1 5 3.</_></rects>
      <tilted>0</tilted></_>
    <_>
      <rects>
        <_>
          0 19 21 2 -1.</_>
        <_>
          7 19 7 2 3.</_></rects>
      <tilted>0</tilted></_>
    <_>
      <rects>
        <_>
          0 20 6 4 -1.</_>
        <_>
          3 20 3 4 2.</_></rects>
      <tilted>0</tilted></_>
    <_>
      <rects>
        <_>
          0 20 16 1 -1.</_>
        <_>
          8 20 8 1 2.</_></rects>
      <tilted>0</tilted></_>
    <_>
      <rects>
        <_>
          0 21 1 2 -1.</_>
        <_>
          0 22 1 1 2.</_></rects>
      <tilted>0</tilted></_>
    <_>
      <rects>
        <_>
          0 22 6 1 -1.</_>
        <_>
          2 22 2 1 3.</_></rects>
      <tilted>0</tilted></_>
    <_>
      <rects>
        <_>
          0 22 6 2 -1.</_>
        <_>
          2 22 2 2 3.</_></rects>
      <tilted>0</tilted></_>
    <_>
      <rects>
        <_>
          0 22 8 1 -1.</_>
        <_>
          4 22 4 1 2.</_></rects>
      <tilted>0</tilted></_>
    <_>
      <rects>
        <_>
          0 22 10 2 -1.</_>
        <_>
          5 22 5 2 2.</_></rects>
      <tilted>0</tilted></_>
    <_>
      <rects>
        <_>
          0 23 2 1 -1.</_>
        <_>
          1 23 1 1 2.</_></rects>
      <tilted>0</tilted></_>
    <_>
      <rects>
        <_>
          1 0 2 10 -1.</_>
        <_>
          1 0 1 5 2.</_>
        <_>
          2 5 1 5 2.</_></rects>
      <tilted>0</tilted></_>
    <_>
      <rects>
        <_>
          1 0 4 4 -1.</_>
        <_>
          1 2 4 2 2.</_></rects>
      <tilted>0</tilted></_>
    <_>
      <rects>
        <_>
          1 0 8 8 -1.</_>
        <_>
          1 0 4 4 2.</_>
        <_>
          5 4 4 4 2.</_></rects>
      <tilted>0</tilted></_>
    <_>
      <rects>
        <_>
          1 0 12 18 -1.</_>
        <_>
          5 0 4 18 3.</_></rects>
      <tilted>0</tilted></_>
    <_>
      <rects>
        <_>
          1 3 3 3 -1.</_>
        <_>
          2 3 1 3 3.</_></rects>
      <tilted>0</tilted></_>
    <_>
      <rects>
        <_>
          1 6 2 4 -1.</_>
        <_>
          2 6 1 4 2.</_></rects>
      <tilted>0</tilted></_>
    <_>
      <rects>
        <_>
          1 7 5 15 -1.</_>
        <_>
          1 12 5 5 3.</_></rects>
      <tilted>0</tilted></_>
    <_>
      <rects>
        <_>
          1 8 18 2 -1.</_>
        <_>
          7 8 6 2 3.</_></rects>
      <tilted>0</tilted></_>
    <_>
      <rects>
        <_>
          1 8 14 6 -1.</_>
        <_>
          1 8 7 3 2.</_>
        <_>
          8 11 7 3 2.</_></rects>
      <tilted>0</tilted></_>
    <_>
      <rects>
        <_>
          1 9 7 3 -1.</_>
        <_>
          1 10 7 1 3.</_></rects>
      <tilted>0</tilted></_>
    <_>
      <rects>
        <_>
          1 9 16 14 -1.</_>
        <_>
          9 9 8 14 2.</_></rects>
      <tilted>0</tilted></_>
    <_>
      <rects>
        <_>
          1 10 8 5 -1.</_>
        <_>
          5 10 4 5 2.</_></rects>
      <tilted>0</tilted></_>
    <_>
      <rects>
        <_>
          1 11 12 8 -1.</_>
        <_>
          1 11 6 4 2.</_>
        <_>
          7 15 6 4 2.</_></rects>
      <tilted>0</tilted></_>
    <_>
      <rects>
        <_>
          1 12 2 6 -1.</_>
        <_>
          1 12 1 3 2.</_>
        <_>
          2 15 1 3 2.</_></rects>
      <tilted>0</tilted></_>
    <_>
      <rects>
        <_>
          1 16 5 6 -1.</_>
        <_>
          1 19 5 3 2.</_></rects>
      <tilted>0</tilted></_>
    <_>
      <rects>
        <_>
          1 16 6 4 -1.</_>
        <_>
          1 18 6 2 2.</_></rects>
      <tilted>0</tilted></_>
    <_>
      <rects>
        <_>
          1 18 2 2 -1.</_>
        <_>
          1 18 1 1 2.</_>
        <_>
          2 19 1 1 2.</_></rects>
      <tilted>0</tilted></_>
    <_>
      <rects>
        <_>
          1 18 2 3 -1.</_>
        <_>
          2 18 1 3 2.</_></rects>
      <tilted>0</tilted></_>
    <_>
      <rects>
        <_>
          1 18 3 2 -1.</_>
        <_>
          1 19 3 1 2.</_></rects>
      <tilted>0</tilted></_>
    <_>
      <rects>
        <_>
          2 0 3 5 -1.</_>
        <_>
          3 0 1 5 3.</_></rects>
      <tilted>0</tilted></_>
    <_>
      <rects>
        <_>
          2 2 22 17 -1.</_>
        <_>
          13 2 11 17 2.</_></rects>
      <tilted>0</tilted></_>
    <_>
      <rects>
        <_>
          2 5 20 1 -1.</_>
        <_>
          12 5 10 1 2.</_></rects>
      <tilted>0</tilted></_>
    <_>
      <rects>
        <_>
          2 8 1 16 -1.</_>
        <_>
          2 16 1 8 2.</_></rects>
      <tilted>0</tilted></_>
    <_>
      <rects>
        <_>
          2 8 8 12 -1.</_>
        <_>
          2 8 4 6 2.</_>
        <_>
          6 14 4 6 2.</_></rects>
      <tilted>0</tilted></_>
    <_>
      <rects>
        <_>
          2 11 12 4 -1.</_>
        <_>
          6 11 4 4 3.</_></rects>
      <tilted>0</tilted></_>
    <_>
      <rects>
        <_>
          2 14 14 6 -1.</_>
        <_>
          2 14 7 3 2.</_>
        <_>
          9 17 7 3 2.</_></rects>
      <tilted>0</tilted></_>
    <_>
      <rects>
        <_>
          2 15 2 3 -1.</_>
        <_>
          2 16 2 1 3.</_></rects>
      <tilted>0</tilted></_>
    <_>
      <rects>
        <_>
          2 15 4 4 -1.</_>
        <_>
          2 15 2 2 2.</_>
        <_>
          4 17 2 2 2.</_></rects>
      <tilted>0</tilted></_>
    <_>
      <rects>
        <_>
          2 16 2 3 -1.</_>
        <_>
          3 16 1 3 2.</_></rects>
      <tilted>0</tilted></_>
    <_>
      <rects>
        <_>
          2 16 2 4 -1.</_>
        <_>
          3 16 1 4 2.</_></rects>
      <tilted>0</tilted></_>
    <_>
      <rects>
        <_>
          2 20 3 1 -1.</_>
        <_>
          3 20 1 1 3.</_></rects>
      <tilted>0</tilted></_>
    <_>
      <rects>
        <_>
          2 21 2 3 -1.</_>
        <_>
          3 21 1 3 2.</_></rects>
      <tilted>0</tilted></_>
    <_>
      <rects>
        <_>
          2 22 3 2 -1.</_>
        <_>
          3 22 1 2 3.</_></rects>
      <tilted>0</tilted></_>
    <_>
      <rects>
        <_>
          2 23 3 1 -1.</_>
        <_>
          3 23 1 1 3.</_></rects>
      <tilted>0</tilted></_>
    <_>
      <rects>
        <_>
          3 0 2 16 -1.</_>
        <_>
          3 0 1 8 2.</_>
        <_>
          4 8 1 8 2.</_></rects>
      <tilted>0</tilted></_>
    <_>
      <rects>
        <_>
          3 0 16 12 -1.</_>
        <_>
          3 4 16 4 3.</_></rects>
      <tilted>0</tilted></_>
    <_>
      <rects>
        <_>
          3 1 2 18 -1.</_>
        <_>
          3 1 1 9 2.</_>
        <_>
          4 10 1 9 2.</_></rects>
      <tilted>0</tilted></_>
    <_>
      <rects>
        <_>
          3 1 19 12 -1.</_>
        <_>
          3 5 19 4 3.</_></rects>
      <tilted>0</tilted></_>
    <_>
      <rects>
        <_>
          3 2 4 10 -1.</_>
        <_>
          5 2 2 10 2.</_></rects>
      <tilted>0</tilted></_>
    <_>
      <rects>
        <_>
          3 2 20 3 -1.</_>
        <_>
          3 3 20 1 3.</_></rects>
      <tilted>0</tilted></_>
    <_>
      <rects>
        <_>
          3 3 9 13 -1.</_>
        <_>
          6 3 3 13 3.</_></rects>
      <tilted>0</tilted></_>
    <_>
      <rects>
        <_>
          3 4 6 14 -1.</_>
        <_>
          5 4 2 14 3.</_></rects>
      <tilted>0</tilted></_>
    <_>
      <rects>
        <_>
          3 7 6 10 -1.</_>
        <_>
          5 7 2 10 3.</_></rects>
      <tilted>0</tilted></_>
    <_>
      <rects>
        <_>
          3 11 10 6 -1.</_>
        <_>
          3 11 5 3 2.</_>
        <_>
          8 14 5 3 2.</_></rects>
      <tilted>0</tilted></_>
    <_>
      <rects>
        <_>
          3 11 12 6 -1.</_>
        <_>
          3 11 6 3 2.</_>
        <_>
          9 14 6 3 2.</_></rects>
      <tilted>0</tilted></_>
    <_>
      <rects>
        <_>
          3 13 18 9 -1.</_>
        <_>
          9 13 6 9 3.</_></rects>
      <tilted>0</tilted></_>
    <_>
      <rects>
        <_>
          3 18 2 2 -1.</_>
        <_>
          3 18 1 1 2.</_>
        <_>
          4 19 1 1 2.</_></rects>
      <tilted>0</tilted></_>
    <_>
      <rects>
        <_>
          3 20 21 4 -1.</_>
        <_>
          10 20 7 4 3.</_></rects>
      <tilted>0</tilted></_>
    <_>
      <rects>
        <_>
          3 23 2 1 -1.</_>
        <_>
          4 23 1 1 2.</_></rects>
      <tilted>0</tilted></_>
    <_>
      <rects>
        <_>
          4 0 4 24 -1.</_>
        <_>
          6 0 2 24 2.</_></rects>
      <tilted>0</tilted></_>
    <_>
      <rects>
        <_>
          4 0 9 4 -1.</_>
        <_>
          4 2 9 2 2.</_></rects>
      <tilted>0</tilted></_>
    <_>
      <rects>
        <_>
          4 0 18 6 -1.</_>
        <_>
          4 2 18 2 3.</_></rects>
      <tilted>0</tilted></_>
    <_>
      <rects>
        <_>
          4 0 20 12 -1.</_>
        <_>
          4 6 20 6 2.</_></rects>
      <tilted>0</tilted></_>
    <_>
      <rects>
        <_>
          4 1 5 6 -1.</_>
        <_>
          4 4 5 3 2.</_></rects>
      <tilted>0</tilted></_>
    <_>
      <rects>
        <_>
          4 3 12 8 -1.</_>
        <_>
          8 3 4 8 3.</_></rects>
      <tilted>0</tilted></_>
    <_>
      <rects>
        <_>
          4 6 3 2 -1.</_>
        <_>
          5 6 1 2 3.</_></rects>
      <tilted>0</tilted></_>
    <_>
      <rects>
        <_>
          4 8 10 11 -1.</_>
        <_>
          9 8 5 11 2.</_></rects>
      <tilted>0</tilted></_>
    <_>
      <rects>
        <_>
          4 10 15 8 -1.</_>
        <_>
          9 10 5 8 3.</_></rects>
      <tilted>0</tilted></_>
    <_>
      <rects>
        <_>
          4 13 1 9 -1.</_>
        <_>
          4 16 1 3 3.</_></rects>
      <tilted>0</tilted></_>
    <_>
      <rects>
        <_>
          4 14 13 9 -1.</_>
        <_>
          4 17 13 3 3.</_></rects>
      <tilted>0</tilted></_>
    <_>
      <rects>
        <_>
          4 15 8 6 -1.</_>
        <_>
          4 15 4 3 2.</_>
        <_>
          8 18 4 3 2.</_></rects>
      <tilted>0</tilted></_>
    <_>
      <rects>
        <_>
          4 17 16 3 -1.</_>
        <_>
          12 17 8 3 2.</_></rects>
      <tilted>0</tilted></_>
    <_>
      <rects>
        <_>
          4 18 3 4 -1.</_>
        <_>
          5 18 1 4 3.</_></rects>
      <tilted>0</tilted></_>
    <_>
      <rects>
        <_>
          4 19 2 2 -1.</_>
        <_>
          5 19 1 2 2.</_></rects>
      <tilted>0</tilted></_>
    <_>
      <rects>
        <_>
          4 20 3 2 -1.</_>
        <_>
          5 20 1 2 3.</_></rects>
      <tilted>0</tilted></_>
    <_>
      <rects>
        <_>
          4 21 20 2 -1.</_>
        <_>
          4 22 20 1 2.</_></rects>
      <tilted>0</tilted></_>
    <_>
      <rects>
        <_>
          4 22 2 2 -1.</_>
        <_>
          4 22 1 1 2.</_>
        <_>
          5 23 1 1 2.</_></rects>
      <tilted>0</tilted></_>
    <_>
      <rects>
        <_>
          4 22 3 2 -1.</_>
        <_>
          5 22 1 2 3.</_></rects>
      <tilted>0</tilted></_>
    <_>
      <rects>
        <_>
          4 23 3 1 -1.</_>
        <_>
          5 23 1 1 3.</_></rects>
      <tilted>0</tilted></_>
    <_>
      <rects>
        <_>
          5 0 3 3 -1.</_>
        <_>
          6 0 1 3 3.</_></rects>
      <tilted>0</tilted></_>
    <_>
      <rects>
        <_>
          5 0 12 15 -1.</_>
        <_>
          9 0 4 15 3.</_></rects>
      <tilted>0</tilted></_>
    <_>
      <rects>
        <_>
          5 2 9 6 -1.</_>
        <_>
          8 2 3 6 3.</_></rects>
      <tilted>0</tilted></_>
    <_>
      <rects>
        <_>
          5 2 10 4 -1.</_>
        <_>
          5 2 5 2 2.</_>
        <_>
          10 4 5 2 2.</_></rects>
      <tilted>0</tilted></_>
    <_>
      <rects>
        <_>
          5 3 6 20 -1.</_>
        <_>
          5 3 3 10 2.</_>
        <_>
          8 13 3 10 2.</_></rects>
      <tilted>0</tilted></_>
    <_>
      <rects>
        <_>
          5 4 4 9 -1.</_>
        <_>
          5 7 4 3 3.</_></rects>
      <tilted>0</tilted></_>
    <_>
      <rects>
        <_>
          5 5 3 15 -1.</_>
        <_>
          6 5 1 15 3.</_></rects>
      <tilted>0</tilted></_>
    <_>
      <rects>
        <_>
          5 5 3 19 -1.</_>
        <_>
          6 5 1 19 3.</_></rects>
      <tilted>0</tilted></_>
    <_>
      <rects>
        <_>
          5 5 12 7 -1.</_>
        <_>
          11 5 6 7 2.</_></rects>
      <tilted>0</tilted></_>
    <_>
      <rects>
        <_>
          5 7 3 5 -1.</_>
        <_>
          6 7 1 5 3.</_></rects>
      <tilted>0</tilted></_>
    <_>
      <rects>
        <_>
          5 10 2 4 -1.</_>
        <_>
          5 12 2 2 2.</_></rects>
      <tilted>0</tilted></_>
    <_>
      <rects>
        <_>
          5 13 2 6 -1.</_>
        <_>
          5 16 2 3 2.</_></rects>
      <tilted>0</tilted></_>
    <_>
      <rects>
        <_>
          5 15 2 2 -1.</_>
        <_>
          6 15 1 2 2.</_></rects>
      <tilted>0</tilted></_>
    <_>
      <rects>
        <_>
          5 17 10 3 -1.</_>
        <_>
          10 17 5 3 2.</_></rects>
      <tilted>0</tilted></_>
    <_>
      <rects>
        <_>
          5 19 3 2 -1.</_>
        <_>
          6 19 1 2 3.</_></rects>
      <tilted>0</tilted></_>
    <_>
      <rects>
        <_>
          6 0 16 10 -1.</_>
        <_>
          6 0 8 5 2.</_>
        <_>
          14 5 8 5 2.</_></rects>
      <tilted>0</tilted></_>
    <_>
      <rects>
        <_>
          6 3 3 4 -1.</_>
        <_>
          7 3 1 4 3.</_></rects>
      <tilted>0</tilted></_>
    <_>
      <rects>
        <_>
          6 8 18 4 -1.</_>
        <_>
          6 8 9 2 2.</_>
        <_>
          15 10 9 2 2.</_></rects>
      <tilted>0</tilted></_>
    <_>
      <rects>
        <_>
          6 19 3 1 -1.</_>
        <_>
          7 19 1 1 3.</_></rects>
      <tilted>0</tilted></_>
    <_>
      <rects>
        <_>
          6 20 3 3 -1.</_>
        <_>
          7 20 1 3 3.</_></rects>
      <tilted>0</tilted></_>
    <_>
      <rects>
        <_>
          6 23 18 1 -1.</_>
        <_>
          12 23 6 1 3.</_></rects>
      <tilted>0</tilted></_>
    <_>
      <rects>
        <_>
          7 0 1 6 -1.</_>
        <_>
          7 3 1 3 2.</_></rects>
      <tilted>0</tilted></_>
    <_>
      <rects>
        <_>
          7 1 12 15 -1.</_>
        <_>
          7 6 12 5 3.</_></rects>
      <tilted>0</tilted></_>
    <_>
      <rects>
        <_>
          7 2 2 12 -1.</_>
        <_>
          7 6 2 4 3.</_></rects>
      <tilted>0</tilted></_>
    <_>
      <rects>
        <_>
          7 3 1 12 -1.</_>
        <_>
          7 7 1 4 3.</_></rects>
      <tilted>0</tilted></_>
    <_>
      <rects>
        <_>
          7 7 2 4 -1.</_>
        <_>
          7 7 1 2 2.</_>
        <_>
          8 9 1 2 2.</_></rects>
      <tilted>0</tilted></_>
    <_>
      <rects>
        <_>
          7 8 2 3 -1.</_>
        <_>
          7 9 2 1 3.</_></rects>
      <tilted>0</tilted></_>
    <_>
      <rects>
        <_>
          7 9 3 15 -1.</_>
        <_>
          8 9 1 15 3.</_></rects>
      <tilted>0</tilted></_>
    <_>
      <rects>
        <_>
          7 13 12 4 -1.</_>
        <_>
          7 13 6 2 2.</_>
        <_>
          13 15 6 2 2.</_></rects>
      <tilted>0</tilted></_>
    <_>
      <rects>
        <_>
          7 17 3 3 -1.</_>
        <_>
          7 18 3 1 3.</_></rects>
      <tilted>0</tilted></_>
    <_>
      <rects>
        <_>
          7 19 12 2 -1.</_>
        <_>
          7 19 6 1 2.</_>
        <_>
          13 20 6 1 2.</_></rects>
      <tilted>0</tilted></_>
    <_>
      <rects>
        <_>
          8 0 6 12 -1.</_>
        <_>
          10 0 2 12 3.</_></rects>
      <tilted>0</tilted></_>
    <_>
      <rects>
        <_>
          8 0 16 10 -1.</_>
        <_>
          8 5 16 5 2.</_></rects>
      <tilted>0</tilted></_>
    <_>
      <rects>
        <_>
          8 2 3 1 -1.</_>
        <_>
          9 2 1 1 3.</_></rects>
      <tilted>0</tilted></_>
    <_>
      <rects>
        <_>
          8 8 9 7 -1.</_>
        <_>
          11 8 3 7 3.</_></rects>
      <tilted>0</tilted></_>
    <_>
      <rects>
        <_>
          8 13 12 4 -1.</_>
        <_>
          12 13 4 4 3.</_></rects>
      <tilted>0</tilted></_>
    <_>
      <rects>
        <_>
          8 13 10 4 -1.</_>
        <_>
          8 13 5 2 2.</_>
        <_>
          13 15 5 2 2.</_></rects>
      <tilted>0</tilted></_>
    <_>
      <rects>
        <_>
          8 20 12 3 -1.</_>
        <_>
          12 20 4 3 3.</_></rects>
      <tilted>0</tilted></_>
    <_>
      <rects>
        <_>
          9 2 6 15 -1.</_>
        <_>
          9 7 6 5 3.</_></rects>
      <tilted>0</tilted></_>
    <_>
      <rects>
        <_>
          9 3 3 4 -1.</_>
        <_>
          10 3 1 4 3.</_></rects>
      <tilted>0</tilted></_>
    <_>
      <rects>
        <_>
          9 9 10 3 -1.</_>
        <_>
          9 10 10 1 3.</_></rects>
      <tilted>0</tilted></_>
    <_>
      <rects>
        <_>
          9 10 6 12 -1.</_>
        <_>
          9 14 6 4 3.</_></rects>
      <tilted>0</tilted></_>
    <_>
      <rects>
        <_>
          9 12 2 9 -1.</_>
        <_>
          10 12 1 9 2.</_></rects>
      <tilted>0</tilted></_>
    <_>
      <rects>
        <_>
          9 12 12 4 -1.</_>
        <_>
          9 12 6 2 2.</_>
        <_>
          15 14 6 2 2.</_></rects>
      <tilted>0</tilted></_>
    <_>
      <rects>
        <_>
          9 12 7 6 -1.</_>
        <_>
          9 14 7 2 3.</_></rects>
      <tilted>0</tilted></_>
    <_>
      <rects>
        <_>
          9 12 14 12 -1.</_>
        <_>
          9 16 14 4 3.</_></rects>
      <tilted>0</tilted></_>
    <_>
      <rects>
        <_>
          9 14 2 2 -1.</_>
        <_>
          9 14 1 1 2.</_>
        <_>
          10 15 1 1 2.</_></rects>
      <tilted>0</tilted></_>
    <_>
      <rects>
        <_>
          9 16 5 8 -1.</_>
        <_>
          9 20 5 4 2.</_></rects>
      <tilted>0</tilted></_>
    <_>
      <rects>
        <_>
          9 19 2 2 -1.</_>
        <_>
          9 19 1 1 2.</_>
        <_>
          10 20 1 1 2.</_></rects>
      <tilted>0</tilted></_>
    <_>
      <rects>
        <_>
          9 19 11 3 -1.</_>
        <_>
          9 20 11 1 3.</_></rects>
      <tilted>0</tilted></_>
    <_>
      <rects>
        <_>
          10 1 4 8 -1.</_>
        <_>
          10 1 2 4 2.</_>
        <_>
          12 5 2 4 2.</_></rects>
      <tilted>0</tilted></_>
    <_>
      <rects>
        <_>
          10 1 6 18 -1.</_>
        <_>
          10 7 6 6 3.</_></rects>
      <tilted>0</tilted></_>
    <_>
      <rects>
        <_>
          10 8 2 6 -1.</_>
        <_>
          10 8 1 3 2.</_>
        <_>
          11 11 1 3 2.</_></rects>
      <tilted>0</tilted></_>
    <_>
      <rects>
        <_>
          10 19 3 4 -1.</_>
        <_>
          11 19 1 4 3.</_></rects>
      <tilted>0</tilted></_>
    <_>
      <rects>
        <_>
          10 20 3 3 -1.</_>
        <_>
          11 20 1 3 3.</_></rects>
      <tilted>0</tilted></_>
    <_>
      <rects>
        <_>
          10 22 2 2 -1.</_>
        <_>
          10 22 1 1 2.</_>
        <_>
          11 23 1 1 2.</_></rects>
      <tilted>0</tilted></_>
    <_>
      <rects>
        <_>
          10 22 4 2 -1.</_>
        <_>
          10 23 4 1 2.</_></rects>
      <tilted>0</tilted></_>
    <_>
      <rects>
        <_>
          11 0 6 2 -1.</_>
        <_>
          11 1 6 1 2.</_></rects>
      <tilted>0</tilted></_>
    <_>
      <rects>
        <_>
          11 0 9 3 -1.</_>
        <_>
          11 1 9 1 3.</_></rects>
      <tilted>0</tilted></_>
    <_>
      <rects>
        <_>
          11 5 4 6 -1.</_>
        <_>
          11 5 2 3 2.</_>
        <_>
          13 8 2 3 2.</_></rects>
      <tilted>0</tilted></_>
    <_>
      <rects>
        <_>
          11 5 9 2 -1.</_>
        <_>
          14 5 3 2 3.</_></rects>
      <tilted>0</tilted></_>
    <_>
      <rects>
        <_>
          11 7 3 12 -1.</_>
        <_>
          11 11 3 4 3.</_></rects>
      <tilted>0</tilted></_>
    <_>
      <rects>
        <_>
          11 9 1 10 -1.</_>
        <_>
          11 14 1 5 2.</_></rects>
      <tilted>0</tilted></_>
    <_>
      <rects>
        <_>
          11 11 1 3 -1.</_>
        <_>
          11 12 1 1 3.</_></rects>
      <tilted>0</tilted></_>
    <_>
      <rects>
        <_>
          11 12 6 4 -1.</_>
        <_>
          11 12 3 2 2.</_>
        <_>
          14 14 3 2 2.</_></rects>
      <tilted>0</tilted></_>
    <_>
      <rects>
        <_>
          12 0 3 2 -1.</_>
        <_>
          13 0 1 2 3.</_></rects>
      <tilted>0</tilted></_>
    <_>
      <rects>
        <_>
          12 4 3 4 -1.</_>
        <_>
          13 4 1 4 3.</_></rects>
      <tilted>0</tilted></_>
    <_>
      <rects>
        <_>
          12 6 2 6 -1.</_>
        <_>
          12 6 1 3 2.</_>
        <_>
          13 9 1 3 2.</_></rects>
      <tilted>0</tilted></_>
    <_>
      <rects>
        <_>
          12 7 1 6 -1.</_>
        <_>
          12 9 1 2 3.</_></rects>
      <tilted>0</tilted></_>
    <_>
      <rects>
        <_>
          12 7 12 3 -1.</_>
        <_>
          18 7 6 3 2.</_></rects>
      <tilted>0</tilted></_>
    <_>
      <rects>
        <_>
          12 10 3 2 -1.</_>
        <_>
          12 11 3 1 2.</_></rects>
      <tilted>0</tilted></_>
    <_>
      <rects>
        <_>
          12 14 4 2 -1.</_>
        <_>
          14 14 2 2 2.</_></rects>
      <tilted>0</tilted></_>
    <_>
      <rects>
        <_>
          12 15 3 5 -1.</_>
        <_>
          13 15 1 5 3.</_></rects>
      <tilted>0</tilted></_>
    <_>
      <rects>
        <_>
          12 18 3 3 -1.</_>
        <_>
          13 18 1 3 3.</_></rects>
      <tilted>0</tilted></_>
    <_>
      <rects>
        <_>
          12 23 10 1 -1.</_>
        <_>
          17 23 5 1 2.</_></rects>
      <tilted>0</tilted></_>
    <_>
      <rects>
        <_>
          13 0 2 5 -1.</_>
        <_>
          14 0 1 5 2.</_></rects>
      <tilted>0</tilted></_>
    <_>
      <rects>
        <_>
          13 1 1 4 -1.</_>
        <_>
          13 3 1 2 2.</_></rects>
      <tilted>0</tilted></_>
    <_>
      <rects>
        <_>
          13 5 9 12 -1.</_>
        <_>
          16 5 3 12 3.</_></rects>
      <tilted>0</tilted></_>
    <_>
      <rects>
        <_>
          13 6 2 1 -1.</_>
        <_>
          14 6 1 1 2.</_></rects>
      <tilted>0</tilted></_>
    <_>
      <rects>
        <_>
          13 6 3 6 -1.</_>
        <_>
          13 8 3 2 3.</_></rects>
      <tilted>0</tilted></_>
    <_>
      <rects>
        <_>
          13 9 8 6 -1.</_>
        <_>
          13 9 4 3 2.</_>
        <_>
          17 12 4 3 2.</_></rects>
      <tilted>0</tilted></_>
    <_>
      <rects>
        <_>
          13 18 2 4 -1.</_>
        <_>
          14 18 1 4 2.</_></rects>
      <tilted>0</tilted></_>
    <_>
      <rects>
        <_>
          13 18 2 3 -1.</_>
        <_>
          13 19 2 1 3.</_></rects>
      <tilted>0</tilted></_>
    <_>
      <rects>
        <_>
          13 21 3 3 -1.</_>
        <_>
          14 21 1 3 3.</_></rects>
      <tilted>0</tilted></_>
    <_>
      <rects>
        <_>
          13 21 10 1 -1.</_>
        <_>
          18 21 5 1 2.</_></rects>
      <tilted>0</tilted></_>
    <_>
      <rects>
        <_>
          14 0 7 16 -1.</_>
        <_>
          14 8 7 8 2.</_></rects>
      <tilted>0</tilted></_>
    <_>
      <rects>
        <_>
          14 1 3 4 -1.</_>
        <_>
          15 1 1 4 3.</_></rects>
      <tilted>0</tilted></_>
    <_>
      <rects>
        <_>
          14 2 6 12 -1.</_>
        <_>
          16 2 2 12 3.</_></rects>
      <tilted>0</tilted></_>
    <_>
      <rects>
        <_>
          14 6 3 13 -1.</_>
        <_>
          15 6 1 13 3.</_></rects>
      <tilted>0</tilted></_>
    <_>
      <rects>
        <_>
          14 11 9 5 -1.</_>
        <_>
          17 11 3 5 3.</_></rects>
      <tilted>0</tilted></_>
    <_>
      <rects>
        <_>
          14 19 9 4 -1.</_>
        <_>
          17 19 3 4 3.</_></rects>
      <tilted>0</tilted></_>
    <_>
      <rects>
        <_>
          15 0 1 24 -1.</_>
        <_>
          15 8 1 8 3.</_></rects>
      <tilted>0</tilted></_>
    <_>
      <rects>
        <_>
          15 0 7 20 -1.</_>
        <_>
          15 10 7 10 2.</_></rects>
      <tilted>0</tilted></_>
    <_>
      <rects>
        <_>
          15 6 8 8 -1.</_>
        <_>
          15 6 4 4 2.</_>
        <_>
          19 10 4 4 2.</_></rects>
      <tilted>0</tilted></_>
    <_>
      <rects>
        <_>
          15 15 2 1 -1.</_>
        <_>
          16 15 1 1 2.</_></rects>
      <tilted>0</tilted></_>
    <_>
      <rects>
        <_>
          15 15 2 2 -1.</_>
        <_>
          15 15 1 1 2.</_>
        <_>
          16 16 1 1 2.</_></rects>
      <tilted>0</tilted></_>
    <_>
      <rects>
        <_>
          15 19 3 3 -1.</_>
        <_>
          16 19 1 3 3.</_></rects>
      <tilted>0</tilted></_>
    <_>
      <rects>
        <_>
          16 1 6 5 -1.</_>
        <_>
          18 1 2 5 3.</_></rects>
      <tilted>0</tilted></_>
    <_>
      <rects>
        <_>
          16 1 5 6 -1.</_>
        <_>
          16 4 5 3 2.</_></rects>
      <tilted>0</tilted></_>
    <_>
      <rects>
        <_>
          16 3 3 14 -1.</_>
        <_>
          17 3 1 14 3.</_></rects>
      <tilted>0</tilted></_>
    <_>
      <rects>
        <_>
          16 13 4 3 -1.</_>
        <_>
          16 14 4 1 3.</_></rects>
      <tilted>0</tilted></_>
    <_>
      <rects>
        <_>
          16 17 6 3 -1.</_>
        <_>
          18 17 2 3 3.</_></rects>
      <tilted>0</tilted></_>
    <_>
      <rects>
        <_>
          16 18 8 6 -1.</_>
        <_>
          20 18 4 6 2.</_></rects>
      <tilted>0</tilted></_>
    <_>
      <rects>
        <_>
          16 21 3 3 -1.</_>
        <_>
          17 21 1 3 3.</_></rects>
      <tilted>0</tilted></_>
    <_>
      <rects>
        <_>
          16 22 2 2 -1.</_>
        <_>
          17 22 1 2 2.</_></rects>
      <tilted>0</tilted></_>
    <_>
      <rects>
        <_>
          17 12 1 12 -1.</_>
        <_>
          17 18 1 6 2.</_></rects>
      <tilted>0</tilted></_>
    <_>
      <rects>
        <_>
          17 14 6 6 -1.</_>
        <_>
          20 14 3 6 2.</_></rects>
      <tilted>0</tilted></_>
    <_>
      <rects>
        <_>
          17 17 2 2 -1.</_>
        <_>
          17 17 1 1 2.</_>
        <_>
          18 18 1 1 2.</_></rects>
      <tilted>0</tilted></_>
    <_>
      <rects>
        <_>
          18 0 3 7 -1.</_>
        <_>
          19 0 1 7 3.</_></rects>
      <tilted>0</tilted></_>
    <_>
      <rects>
        <_>
          18 1 3 15 -1.</_>
        <_>
          19 1 1 15 3.</_></rects>
      <tilted>0</tilted></_>
    <_>
      <rects>
        <_>
          18 1 6 2 -1.</_>
        <_>
          20 1 2 2 3.</_></rects>
      <tilted>0</tilted></_>
    <_>
      <rects>
        <_>
          18 2 3 3 -1.</_>
        <_>
          19 2 1 3 3.</_></rects>
      <tilted>0</tilted></_>
    <_>
      <rects>
        <_>
          18 4 3 19 -1.</_>
        <_>
          19 4 1 19 3.</_></rects>
      <tilted>0</tilted></_>
    <_>
      <rects>
        <_>
          18 6 1 3 -1.</_>
        <_>
          18 7 1 1 3.</_></rects>
      <tilted>0</tilted></_>
    <_>
      <rects>
        <_>
          18 8 2 12 -1.</_>
        <_>
          18 8 1 6 2.</_>
        <_>
          19 14 1 6 2.</_></rects>
      <tilted>0</tilted></_>
    <_>
      <rects>
        <_>
          18 8 6 4 -1.</_>
        <_>
          21 8 3 4 2.</_></rects>
      <tilted>0</tilted></_>
    <_>
      <rects>
        <_>
          18 11 6 9 -1.</_>
        <_>
          18 14 6 3 3.</_></rects>
      <tilted>0</tilted></_>
    <_>
      <rects>
        <_>
          18 14 6 1 -1.</_>
        <_>
          20 14 2 1 3.</_></rects>
      <tilted>0</tilted></_>
    <_>
      <rects>
        <_>
          18 15 2 8 -1.</_>
        <_>
          18 15 1 4 2.</_>
        <_>
          19 19 1 4 2.</_></rects>
      <tilted>0</tilted></_>
    <_>
      <rects>
        <_>
          18 18 4 1 -1.</_>
        <_>
          20 18 2 1 2.</_></rects>
      <tilted>0</tilted></_>
    <_>
      <rects>
        <_>
          18 20 6 3 -1.</_>
        <_>
          20 20 2 3 3.</_></rects>
      <tilted>0</tilted></_>
    <_>
      <rects>
        <_>
          18 23 4 1 -1.</_>
        <_>
          20 23 2 1 2.</_></rects>
      <tilted>0</tilted></_>
    <_>
      <rects>
        <_>
          18 23 6 1 -1.</_>
        <_>
          20 23 2 1 3.</_></rects>
      <tilted>0</tilted></_>
    <_>
      <rects>
        <_>
          19 18 4 6 -1.</_>
        <_>
          21 18 2 6 2.</_></rects>
      <tilted>0</tilted></_>
    <_>
      <rects>
        <_>
          19 19 4 5 -1.</_>
        <_>
          21 19 2 5 2.</_></rects>
      <tilted>0</tilted></_>
    <_>
      <rects>
        <_>
          20 9 3 12 -1.</_>
        <_>
          20 15 3 6 2.</_></rects>
      <tilted>0</tilted></_>
    <_>
      <rects>
        <_>
          20 13 2 2 -1.</_>
        <_>
          20 14 2 1 2.</_></rects>
      <tilted>0</tilted></_>
    <_>
      <rects>
        <_>
          20 15 2 9 -1.</_>
        <_>
          21 15 1 9 2.</_></rects>
      <tilted>0</tilted></_>
    <_>
      <rects>
        <_>
          20 16 3 7 -1.</_>
        <_>
          21 16 1 7 3.</_></rects>
      <tilted>0</tilted></_>
    <_>
      <rects>
        <_>
          20 19 3 5 -1.</_>
        <_>
          21 19 1 5 3.</_></rects>
      <tilted>0</tilted></_>
    <_>
      <rects>
        <_>
          20 20 4 3 -1.</_>
        <_>
          22 20 2 3 2.</_></rects>
      <tilted>0</tilted></_>
    <_>
      <rects>
        <_>
          20 21 3 3 -1.</_>
        <_>
          21 21 1 3 3.</_></rects>
      <tilted>0</tilted></_>
    <_>
      <rects>
        <_>
          20 22 3 2 -1.</_>
        <_>
          21 22 1 2 3.</_></rects>
      <tilted>0</tilted></_>
    <_>
      <rects>
        <_>
          20 23 3 1 -1.</_>
        <_>
          21 23 1 1 3.</_></rects>
      <tilted>0</tilted></_>
    <_>
      <rects>
        <_>
          20 23 4 1 -1.</_>
        <_>
          22 23 2 1 2.</_></rects>
      <tilted>0</tilted></_>
    <_>
      <rects>
        <_>
          21 2 2 8 -1.</_>
        <_>
          21 2 1 4 2.</_>
        <_>
          22 6 1 4 2.</_></rects>
      <tilted>0</tilted></_>
    <_>
      <rects>
        <_>
          21 3 3 3 -1.</_>
        <_>
          21 4 3 1 3.</_></rects>
      <tilted>0</tilted></_>
    <_>
      <rects>
        <_>
          21 19 3 2 -1.</_>
        <_>
          22 19 1 2 3.</_></rects>
      <tilted>0</tilted></_>
    <_>
      <rects>
        <_>
          21 19 2 3 -1.</_>
        <_>
          22 19 1 3 2.</_></rects>
      <tilted>0</tilted></_>
    <_>
      <rects>
        <_>
          21 20 3 4 -1.</_>
        <_>
          22 20 1 4 3.</_></rects>
      <tilted>0</tilted></_>
    <_>
      <rects>
        <_>
          22 2 2 7 -1.</_>
        <_>
          23 2 1 7 2.</_></rects>
      <tilted>0</tilted></_>
    <_>
      <rects>
        <_>
          22 3 2 20 -1.</_>
        <_>
          23 3 1 20 2.</_></rects>
      <tilted>0</tilted></_>
    <_>
      <rects>
        <_>
          22 19 2 4 -1.</_>
        <_>
          23 19 1 4 2.</_></rects>
      <tilted>0</tilted></_>
    <_>
      <rects>
        <_>
          22 23 2 1 -1.</_>
        <_>
          23 23 1 1 2.</_></rects>
      <tilted>0</tilted></_></features></cascade>
</opencv_storage>
