<?xml version="1.0"?>
<opencv_storage>
<cascade>
  <stageType>BOOST</stageType>
  <featureType>HAAR</featureType>
  <height>24</height>
  <width>24</width>
  <stageParams>
    <boostType>GAB</boostType>
    <minHitRate>9.9500000476837158e-01</minHitRate>
    <maxFalseAlarm>5.0000000000000000e-01</maxFalseAlarm>
    <weightTrimRate>9.4999999999999996e-01</weightTrimRate>
    <maxDepth>1</maxDepth>
    <maxWeakCount>100</maxWeakCount></stageParams>
  <featureParams>
    <maxCatCount>0</maxCatCount>
    <featSize>1</featSize>
    <mode>BASIC</mode></featureParams>
  <stageNum>20</stageNum>
  <stages>
    <!-- stage 0 -->
    <_>
      <maxWeakCount>9</maxWeakCount>
      <stageThreshold>-9.0476399660110474e-01</stageThreshold>
      <weakClassifiers>
        <_>
          <internalNodes>
            0 -1 147 1.4379005879163742e-03</internalNodes>
          <leafValues>
            1.5094339847564697e-01 -8.4210526943206787e-01</leafValues></_>
        <_>
          <internalNodes>
            0 -1 46 -8.8868565857410431e-02</internalNodes>
          <leafValues>
            4.0533426403999329e-01 -3.1853252649307251e-01</leafValues></_>
        <_>
          <internalNodes>
            0 -1 41 -1.5437158290296793e-03</internalNodes>
          <leafValues>
            -6.7589330673217773e-01 2.1265900135040283e-01</leafValues></_>
        <_>
          <internalNodes>
            0 -1 116 6.8928212858736515e-03</internalNodes>
          <leafValues>
            -2.3682437837123871e-01 5.2771669626235962e-01</leafValues></_>
        <_>
          <internalNodes>
            0 -1 240 8.4951447206549346e-05</internalNodes>
          <leafValues>
            2.3428909480571747e-01 -4.7193732857704163e-01</leafValues></_>
        <_>
          <internalNodes>
            0 -1 102 -3.8808587123639882e-04</internalNodes>
          <leafValues>
            -5.9263199567794800e-01 2.1409684419631958e-01</leafValues></_>
        <_>
          <internalNodes>
            0 -1 145 -1.2121155858039856e-02</internalNodes>
          <leafValues>
            6.9030809402465820e-01 -1.9062091410160065e-01</leafValues></_>
        <_>
          <internalNodes>
            0 -1 214 2.6005553081631660e-04</internalNodes>
          <leafValues>
            2.8425416350364685e-01 -4.2678943276405334e-01</leafValues></_>
        <_>
          <internalNodes>
            0 -1 111 -6.4033141825348139e-04</internalNodes>
          <leafValues>
            -7.9391717910766602e-01 1.6224132478237152e-01</leafValues></_></weakClassifiers></_>
    <!-- stage 1 -->
    <_>
      <maxWeakCount>12</maxWeakCount>
      <stageThreshold>-7.1820735931396484e-01</stageThreshold>
      <weakClassifiers>
        <_>
          <internalNodes>
            0 -1 160 2.4173201527446508e-03</internalNodes>
          <leafValues>
            1.3425925374031067e-01 -8.5294115543365479e-01</leafValues></_>
        <_>
          <internalNodes>
            0 -1 213 1.0357022983953357e-03</internalNodes>
          <leafValues>
            1.2281899154186249e-01 -6.8603336811065674e-01</leafValues></_>
        <_>
          <internalNodes>
            0 -1 8 2.6561070233583450e-02</internalNodes>
          <leafValues>
            -1.9102631509304047e-01 5.6196886301040649e-01</leafValues></_>
        <_>
          <internalNodes>
            0 -1 203 -2.1303002722561359e-03</internalNodes>
          <leafValues>
            3.9369118213653564e-01 -2.4985875189304352e-01</leafValues></_>
        <_>
          <internalNodes>
            0 -1 12 8.7309740483760834e-03</internalNodes>
          <leafValues>
            -2.9160267114639282e-01 4.4879812002182007e-01</leafValues></_>
        <_>
          <internalNodes>
            0 -1 276 1.4527263119816780e-03</internalNodes>
          <leafValues>
            1.8838714063167572e-01 -7.9487979412078857e-01</leafValues></_>
        <_>
          <internalNodes>
            0 -1 69 -2.6866294443607330e-02</internalNodes>
          <leafValues>
            6.5434306859970093e-01 -1.6931739449501038e-01</leafValues></_>
        <_>
          <internalNodes>
            0 -1 246 1.3910369016230106e-03</internalNodes>
          <leafValues>
            2.1902202069759369e-01 -5.5091935396194458e-01</leafValues></_>
        <_>
          <internalNodes>
            0 -1 138 1.4222512021660805e-02</internalNodes>
          <leafValues>
            -2.8419667482376099e-01 4.0754908323287964e-01</leafValues></_>
        <_>
          <internalNodes>
            0 -1 259 -1.2642440851777792e-03</internalNodes>
          <leafValues>
            -9.0767389535903931e-01 1.0701367259025574e-01</leafValues></_>
        <_>
          <internalNodes>
            0 -1 257 1.2724605039693415e-04</internalNodes>
          <leafValues>
            2.6451408863067627e-01 -4.7142085433006287e-01</leafValues></_>
        <_>
          <internalNodes>
            0 -1 204 2.8115563094615936e-02</internalNodes>
          <leafValues>
            -1.4637458324432373e-01 7.3743605613708496e-01</leafValues></_></weakClassifiers></_>
    <!-- stage 2 -->
    <_>
      <maxWeakCount>14</maxWeakCount>
      <stageThreshold>-9.2901629209518433e-01</stageThreshold>
      <weakClassifiers>
        <_>
          <internalNodes>
            0 -1 185 -8.1939280033111572e-02</internalNodes>
          <leafValues>
            7.8082191944122314e-01 -1.3348945975303650e-01</leafValues></_>
        <_>
          <internalNodes>
            0 -1 142 -9.9670793861150742e-03</internalNodes>
          <leafValues>
            7.1463692188262939e-01 -1.1520320177078247e-01</leafValues></_>
        <_>
          <internalNodes>
            0 -1 277 2.7677355683408678e-04</internalNodes>
          <leafValues>
            2.0855693519115448e-01 -4.9740603566169739e-01</leafValues></_>
        <_>
          <internalNodes>
            0 -1 157 -3.9435103535652161e-03</internalNodes>
          <leafValues>
            4.6665900945663452e-01 -2.0143657922744751e-01</leafValues></_>
        <_>
          <internalNodes>
            0 -1 126 -1.3059529010206461e-03</internalNodes>
          <leafValues>
            -1. 8.5461623966693878e-02</leafValues></_>
        <_>
          <internalNodes>
            0 -1 87 -1.1078633368015289e-02</internalNodes>
          <leafValues>
            4.1073605418205261e-01 -2.3396760225296021e-01</leafValues></_>
        <_>
          <internalNodes>
            0 -1 233 6.0764821246266365e-03</internalNodes>
          <leafValues>
            -1.4869260787963867e-01 6.6038894653320313e-01</leafValues></_>
        <_>
          <internalNodes>
            0 -1 33 -1.4838257338851690e-03</internalNodes>
          <leafValues>
            -6.5108537673950195e-01 1.8264512717723846e-01</leafValues></_>
        <_>
          <internalNodes>
            0 -1 132 1.9086927175521851e-02</internalNodes>
          <leafValues>
            -3.0052709579467773e-01 3.5805743932723999e-01</leafValues></_>
        <_>
          <internalNodes>
            0 -1 51 1.1880318634212017e-03</internalNodes>
          <leafValues>
            -2.6242670416831970e-01 3.8733649253845215e-01</leafValues></_>
        <_>
          <internalNodes>
            0 -1 112 -1.4730504481121898e-03</internalNodes>
          <leafValues>
            3.9145067334175110e-01 -2.8201892971992493e-01</leafValues></_>
        <_>
          <internalNodes>
            0 -1 183 8.4607326425611973e-04</internalNodes>
          <leafValues>
            1.0544407367706299e-01 -8.7743717432022095e-01</leafValues></_>
        <_>
          <internalNodes>
            0 -1 136 -1.7828991636633873e-02</internalNodes>
          <leafValues>
            5.4022878408432007e-01 -2.0776043832302094e-01</leafValues></_>
        <_>
          <internalNodes>
            0 -1 84 8.5771810263395309e-03</internalNodes>
          <leafValues>
            -2.9624012112617493e-01 3.9904758334159851e-01</leafValues></_></weakClassifiers></_>
    <!-- stage 3 -->
    <_>
      <maxWeakCount>14</maxWeakCount>
      <stageThreshold>-5.7333016395568848e-01</stageThreshold>
      <weakClassifiers>
        <_>
          <internalNodes>
            0 -1 104 -1.0268872976303101e-01</internalNodes>
          <leafValues>
            4.4578313827514648e-01 -2.2155688703060150e-01</leafValues></_>
        <_>
          <internalNodes>
            0 -1 191 -1.5061767771840096e-03</internalNodes>
          <leafValues>
            5.4579925537109375e-01 -1.5078704059123993e-01</leafValues></_>
        <_>
          <internalNodes>
            0 -1 188 6.5675511956214905e-02</internalNodes>
          <leafValues>
            -1.2070500850677490e-01 7.8227519989013672e-01</leafValues></_>
        <_>
          <internalNodes>
            0 -1 252 -1.7963870777748525e-04</internalNodes>
          <leafValues>
            2.2140388190746307e-01 -3.8605704903602600e-01</leafValues></_>
        <_>
          <internalNodes>
            0 -1 7 -4.2468742467463017e-03</internalNodes>
          <leafValues>
            4.1947296261787415e-01 -2.0721910893917084e-01</leafValues></_>
        <_>
          <internalNodes>
            0 -1 232 1.7096078023314476e-02</internalNodes>
          <leafValues>
            -1.2940584123134613e-01 5.0772106647491455e-01</leafValues></_>
        <_>
          <internalNodes>
            0 -1 27 9.2190882423892617e-04</internalNodes>
          <leafValues>
            3.2398772239685059e-01 -2.4329833686351776e-01</leafValues></_>
        <_>
          <internalNodes>
            0 -1 224 -2.2809021174907684e-03</internalNodes>
          <leafValues>
            -6.9683504104614258e-01 1.4541852474212646e-01</leafValues></_>
        <_>
          <internalNodes>
            0 -1 268 -9.9939387291669846e-04</internalNodes>
          <leafValues>
            -5.9545981884002686e-01 1.4600433409214020e-01</leafValues></_>
        <_>
          <internalNodes>
            0 -1 182 -3.6997168790549040e-03</internalNodes>
          <leafValues>
            6.7084515094757080e-01 -1.7768090963363647e-01</leafValues></_>
        <_>
          <internalNodes>
            0 -1 166 -6.1356117948889732e-03</internalNodes>
          <leafValues>
            6.0403996706008911e-01 -1.3997721672058105e-01</leafValues></_>
        <_>
          <internalNodes>
            0 -1 179 2.0891963504254818e-03</internalNodes>
          <leafValues>
            -1.3601770997047424e-01 5.6003338098526001e-01</leafValues></_>
        <_>
          <internalNodes>
            0 -1 171 1.5672793611884117e-02</internalNodes>
          <leafValues>
            1.3820578157901764e-01 -7.0830702781677246e-01</leafValues></_>
        <_>
          <internalNodes>
            0 -1 217 2.2203079424798489e-03</internalNodes>
          <leafValues>
            -2.3935395479202271e-01 4.1473430395126343e-01</leafValues></_></weakClassifiers></_>
    <!-- stage 4 -->
    <_>
      <maxWeakCount>12</maxWeakCount>
      <stageThreshold>-6.2307250499725342e-01</stageThreshold>
      <weakClassifiers>
        <_>
          <internalNodes>
            0 -1 121 -5.7060578837990761e-03</internalNodes>
          <leafValues>
            5.6435644626617432e-01 -1.4285714924335480e-01</leafValues></_>
        <_>
          <internalNodes>
            0 -1 113 -1.9784069061279297e-01</internalNodes>
          <leafValues>
            5.3241133689880371e-01 -1.3188476860523224e-01</leafValues></_>
        <_>
          <internalNodes>
            0 -1 133 1.9202247262001038e-02</internalNodes>
          <leafValues>
            -1.0790949314832687e-01 6.9784361124038696e-01</leafValues></_>
        <_>
          <internalNodes>
            0 -1 129 -9.1393832117319107e-03</internalNodes>
          <leafValues>
            6.4755004644393921e-01 -1.3704046607017517e-01</leafValues></_>
        <_>
          <internalNodes>
            0 -1 120 3.2318264245986938e-02</internalNodes>
          <leafValues>
            -1.5290439128875732e-01 5.9168237447738647e-01</leafValues></_>
        <_>
          <internalNodes>
            0 -1 134 4.3553844443522394e-04</internalNodes>
          <leafValues>
            1.3893562555313110e-01 -7.1826875209808350e-01</leafValues></_>
        <_>
          <internalNodes>
            0 -1 2 -1.3103319332003593e-02</internalNodes>
          <leafValues>
            5.7252657413482666e-01 -1.3505637645721436e-01</leafValues></_>
        <_>
          <internalNodes>
            0 -1 122 -1.1995182931423187e-01</internalNodes>
          <leafValues>
            7.0662754774093628e-01 -1.1380532383918762e-01</leafValues></_>
        <_>
          <internalNodes>
            0 -1 57 -8.7875087046995759e-04</internalNodes>
          <leafValues>
            3.6044538021087646e-01 -2.7679166197776794e-01</leafValues></_>
        <_>
          <internalNodes>
            0 -1 53 7.2310805320739746e-02</internalNodes>
          <leafValues>
            -1.6856923699378967e-01 4.5935350656509399e-01</leafValues></_>
        <_>
          <internalNodes>
            0 -1 30 -4.9246787966694683e-05</internalNodes>
          <leafValues>
            3.0345886945724487e-01 -2.7618989348411560e-01</leafValues></_>
        <_>
          <internalNodes>
            0 -1 82 2.4177508428692818e-02</internalNodes>
          <leafValues>
            -1.7749981582164764e-01 4.3667188286781311e-01</leafValues></_></weakClassifiers></_>
    <!-- stage 5 -->
    <_>
      <maxWeakCount>15</maxWeakCount>
      <stageThreshold>-8.0958646535873413e-01</stageThreshold>
      <weakClassifiers>
        <_>
          <internalNodes>
            0 -1 156 3.0250187963247299e-02</internalNodes>
          <leafValues>
            -1.5760870277881622e-01 4.3939393758773804e-01</leafValues></_>
        <_>
          <internalNodes>
            0 -1 43 4.6580648049712181e-03</internalNodes>
          <leafValues>
            -2.1456024050712585e-01 3.0007737874984741e-01</leafValues></_>
        <_>
          <internalNodes>
            0 -1 205 -1.3655028305947781e-03</internalNodes>
          <leafValues>
            -6.2803030014038086e-01 1.2821720540523529e-01</leafValues></_>
        <_>
          <internalNodes>
            0 -1 11 -1.7267027869820595e-02</internalNodes>
          <leafValues>
            4.0395617485046387e-01 -2.0215554535388947e-01</leafValues></_>
        <_>
          <internalNodes>
            0 -1 255 -6.7310011945664883e-03</internalNodes>
          <leafValues>
            5.4047942161560059e-01 -1.9356882572174072e-01</leafValues></_>
        <_>
          <internalNodes>
            0 -1 141 -1.9665097817778587e-02</internalNodes>
          <leafValues>
            5.9456223249435425e-01 -1.2896655499935150e-01</leafValues></_>
        <_>
          <internalNodes>
            0 -1 100 4.2416783981025219e-04</internalNodes>
          <leafValues>
            1.7305806279182434e-01 -4.8833990097045898e-01</leafValues></_>
        <_>
          <internalNodes>
            0 -1 60 -4.6837003901600838e-04</internalNodes>
          <leafValues>
            -6.5063047409057617e-01 1.6369429230690002e-01</leafValues></_>
        <_>
          <internalNodes>
            0 -1 222 -8.9046414941549301e-03</internalNodes>
          <leafValues>
            4.8379039764404297e-01 -2.0919977128505707e-01</leafValues></_>
        <_>
          <internalNodes>
            0 -1 119 -2.4731308221817017e-02</internalNodes>
          <leafValues>
            5.1825964450836182e-01 -1.2647131085395813e-01</leafValues></_>
        <_>
          <internalNodes>
            0 -1 172 -9.4999801367521286e-03</internalNodes>
          <leafValues>
            3.9988052845001221e-01 -1.9129490852355957e-01</leafValues></_>
        <_>
          <internalNodes>
            0 -1 19 -1.6498420387506485e-02</internalNodes>
          <leafValues>
            6.5671455860137939e-01 -1.2069628387689590e-01</leafValues></_>
        <_>
          <internalNodes>
            0 -1 199 -5.9891457203775644e-04</internalNodes>
          <leafValues>
            -6.3154077529907227e-01 1.2826074659824371e-01</leafValues></_>
        <_>
          <internalNodes>
            0 -1 70 3.4458583104424179e-04</internalNodes>
          <leafValues>
            -2.9775157570838928e-01 2.5278034806251526e-01</leafValues></_>
        <_>
          <internalNodes>
            0 -1 168 -2.4631883949041367e-02</internalNodes>
          <leafValues>
            4.7298756241798401e-01 -1.5171848237514496e-01</leafValues></_></weakClassifiers></_>
    <!-- stage 6 -->
    <_>
      <maxWeakCount>18</maxWeakCount>
      <stageThreshold>-9.2108803987503052e-01</stageThreshold>
      <weakClassifiers>
        <_>
          <internalNodes>
            0 -1 175 1.2628911063075066e-03</internalNodes>
          <leafValues>
            1.2560386955738068e-01 -6.0465115308761597e-01</leafValues></_>
        <_>
          <internalNodes>
            0 -1 239 1.4685367234051228e-02</internalNodes>
          <leafValues>
            -9.9120303988456726e-02 8.9287644624710083e-01</leafValues></_>
        <_>
          <internalNodes>
            0 -1 105 -2.1140668541193008e-02</internalNodes>
          <leafValues>
            4.1144287586212158e-01 -1.4968794584274292e-01</leafValues></_>
        <_>
          <internalNodes>
            0 -1 92 -2.5096990168094635e-02</internalNodes>
          <leafValues>
            4.3031972646713257e-01 -1.5215852856636047e-01</leafValues></_>
        <_>
          <internalNodes>
            0 -1 67 1.8368738889694214e-01</internalNodes>
          <leafValues>
            1.5698407590389252e-01 -7.2516405582427979e-01</leafValues></_>
        <_>
          <internalNodes>
            0 -1 45 -4.7369603998959064e-03</internalNodes>
          <leafValues>
            -4.4190302491188049e-01 1.2087538093328476e-01</leafValues></_>
        <_>
          <internalNodes>
            0 -1 173 -2.5775700807571411e-02</internalNodes>
          <leafValues>
            9.2136979103088379e-01 -1.0114160180091858e-01</leafValues></_>
        <_>
          <internalNodes>
            0 -1 258 -5.2266509737819433e-04</internalNodes>
          <leafValues>
            -5.9466326236724854e-01 1.5595182776451111e-01</leafValues></_>
        <_>
          <internalNodes>
            0 -1 66 -1.0797603987157345e-02</internalNodes>
          <leafValues>
            5.2056396007537842e-01 -1.7707815766334534e-01</leafValues></_>
        <_>
          <internalNodes>
            0 -1 26 1.3706618919968605e-02</internalNodes>
          <leafValues>
            -1.7140783369541168e-01 4.2026776075363159e-01</leafValues></_>
        <_>
          <internalNodes>
            0 -1 190 -8.3482952322810888e-04</internalNodes>
          <leafValues>
            3.9428463578224182e-01 -1.8878331780433655e-01</leafValues></_>
        <_>
          <internalNodes>
            0 -1 107 -9.9916094914078712e-03</internalNodes>
          <leafValues>
            5.8166205883026123e-01 -1.5323114395141602e-01</leafValues></_>
        <_>
          <internalNodes>
            0 -1 154 4.9362326972186565e-03</internalNodes>
          <leafValues>
            1.6257402300834656e-01 -6.1817014217376709e-01</leafValues></_>
        <_>
          <internalNodes>
            0 -1 91 -9.6745446324348450e-02</internalNodes>
          <leafValues>
            9.6964079141616821e-01 -1.0141532123088837e-01</leafValues></_>
        <_>
          <internalNodes>
            0 -1 248 3.9839409291744232e-03</internalNodes>
          <leafValues>
            -1.4047932624816895e-01 4.6985131502151489e-01</leafValues></_>
        <_>
          <internalNodes>
            0 -1 180 7.4373751878738403e-02</internalNodes>
          <leafValues>
            -9.2123009264469147e-02 8.5803395509719849e-01</leafValues></_>
        <_>
          <internalNodes>
            0 -1 194 1.1862544342875481e-03</internalNodes>
          <leafValues>
            1.7493300139904022e-01 -5.2038878202438354e-01</leafValues></_>
        <_>
          <internalNodes>
            0 -1 143 -9.0036187320947647e-03</internalNodes>
          <leafValues>
            5.6985139846801758e-01 -1.7912988364696503e-01</leafValues></_></weakClassifiers></_>
    <!-- stage 7 -->
    <_>
      <maxWeakCount>17</maxWeakCount>
      <stageThreshold>-6.9659256935119629e-01</stageThreshold>
      <weakClassifiers>
        <_>
          <internalNodes>
            0 -1 44 1.6055904779932462e-05</internalNodes>
          <leafValues>
            -3.3953487873077393e-01 2.5614035129547119e-01</leafValues></_>
        <_>
          <internalNodes>
            0 -1 86 1.3796103000640869e-01</internalNodes>
          <leafValues>
            -1.0900655388832092e-01 6.2476611137390137e-01</leafValues></_>
        <_>
          <internalNodes>
            0 -1 195 -2.5314795784652233e-03</internalNodes>
          <leafValues>
            2.8660017251968384e-01 -2.4630874395370483e-01</leafValues></_>
        <_>
          <internalNodes>
            0 -1 250 1.0563051328063011e-02</internalNodes>
          <leafValues>
            -9.7764953970909119e-02 5.3458851575851440e-01</leafValues></_>
        <_>
          <internalNodes>
            0 -1 207 1.0658592509571463e-04</internalNodes>
          <leafValues>
            2.1367149055004120e-01 -3.2026070356369019e-01</leafValues></_>
        <_>
          <internalNodes>
            0 -1 153 -9.3300223350524902e-02</internalNodes>
          <leafValues>
            4.9082601070404053e-01 -1.1506840586662292e-01</leafValues></_>
        <_>
          <internalNodes>
            0 -1 118 2.4406774900853634e-03</internalNodes>
          <leafValues>
            -1.4587888121604919e-01 4.8943957686424255e-01</leafValues></_>
        <_>
          <internalNodes>
            0 -1 90 -4.0702246129512787e-02</internalNodes>
          <leafValues>
            6.0472524166107178e-01 -1.2429215013980865e-01</leafValues></_>
        <_>
          <internalNodes>
            0 -1 63 5.5616372264921665e-04</internalNodes>
          <leafValues>
            2.2332181036472321e-01 -2.9506954550743103e-01</leafValues></_>
        <_>
          <internalNodes>
            0 -1 209 1.8546923529356718e-03</internalNodes>
          <leafValues>
            -1.8695119023323059e-01 3.4201437234878540e-01</leafValues></_>
        <_>
          <internalNodes>
            0 -1 5 -2.4855234660208225e-03</internalNodes>
          <leafValues>
            3.2065278291702271e-01 -2.3696582019329071e-01</leafValues></_>
        <_>
          <internalNodes>
            0 -1 24 -1.1729354038834572e-02</internalNodes>
          <leafValues>
            7.4721759557723999e-01 -1.1092548072338104e-01</leafValues></_>
        <_>
          <internalNodes>
            0 -1 125 1.5408759936690331e-03</internalNodes>
          <leafValues>
            1.3135936856269836e-01 -7.9028832912445068e-01</leafValues></_>
        <_>
          <internalNodes>
            0 -1 191 -1.3307395856827497e-03</internalNodes>
          <leafValues>
            3.7475839257240295e-01 -1.9404204189777374e-01</leafValues></_>
        <_>
          <internalNodes>
            0 -1 271 5.6793948169797659e-04</internalNodes>
          <leafValues>
            1.7154383659362793e-01 -4.2882376909255981e-01</leafValues></_>
        <_>
          <internalNodes>
            0 -1 219 9.6501596271991730e-03</internalNodes>
          <leafValues>
            -1.3723787665367126e-01 5.2008420228958130e-01</leafValues></_>
        <_>
          <internalNodes>
            0 -1 201 5.5748224258422852e-03</internalNodes>
          <leafValues>
            9.6407577395439148e-02 -6.2054079771041870e-01</leafValues></_></weakClassifiers></_>
    <!-- stage 8 -->
    <_>
      <maxWeakCount>15</maxWeakCount>
      <stageThreshold>-6.7254155874252319e-01</stageThreshold>
      <weakClassifiers>
        <_>
          <internalNodes>
            0 -1 59 1.2416271492838860e-03</internalNodes>
          <leafValues>
            -2.7272728085517883e-01 3.3333334326744080e-01</leafValues></_>
        <_>
          <internalNodes>
            0 -1 197 1.5077916905283928e-03</internalNodes>
          <leafValues>
            -2.4837066233158112e-01 2.7522170543670654e-01</leafValues></_>
        <_>
          <internalNodes>
            0 -1 226 5.0769206136465073e-03</internalNodes>
          <leafValues>
            -9.3333929777145386e-02 6.4949411153793335e-01</leafValues></_>
        <_>
          <internalNodes>
            0 -1 71 -4.8009995371103287e-02</internalNodes>
          <leafValues>
            5.4419934749603271e-01 -1.5196569263935089e-01</leafValues></_>
        <_>
          <internalNodes>
            0 -1 192 3.3372629433870316e-02</internalNodes>
          <leafValues>
            -1.4214231073856354e-01 4.5070359110832214e-01</leafValues></_>
        <_>
          <internalNodes>
            0 -1 3 -2.6659274473786354e-02</internalNodes>
          <leafValues>
            2.6783543825149536e-01 -2.4590626358985901e-01</leafValues></_>
        <_>
          <internalNodes>
            0 -1 47 5.3781323134899139e-02</internalNodes>
          <leafValues>
            -8.7634153664112091e-02 5.9645968675613403e-01</leafValues></_>
        <_>
          <internalNodes>
            0 -1 88 -3.1405738554894924e-03</internalNodes>
          <leafValues>
            4.6162730455398560e-01 -1.7404375970363617e-01</leafValues></_>
        <_>
          <internalNodes>
            0 -1 137 -6.2191493809223175e-02</internalNodes>
          <leafValues>
            6.9423824548721313e-01 -1.1047679185867310e-01</leafValues></_>
        <_>
          <internalNodes>
            0 -1 249 -3.3010910265147686e-03</internalNodes>
          <leafValues>
            3.4905764460563660e-01 -2.0197384059429169e-01</leafValues></_>
        <_>
          <internalNodes>
            0 -1 243 -1.7614651005715132e-03</internalNodes>
          <leafValues>
            3.7165871262550354e-01 -1.8841259181499481e-01</leafValues></_>
        <_>
          <internalNodes>
            0 -1 83 1.5601204708218575e-02</internalNodes>
          <leafValues>
            1.4392574131488800e-01 -5.5073988437652588e-01</leafValues></_>
        <_>
          <internalNodes>
            0 -1 61 -2.8742651920765638e-03</internalNodes>
          <leafValues>
            6.5145087242126465e-01 -1.3872915506362915e-01</leafValues></_>
        <_>
          <internalNodes>
            0 -1 22 2.0558875985443592e-03</internalNodes>
          <leafValues>
            1.4292649924755096e-01 -6.7559534311294556e-01</leafValues></_>
        <_>
          <internalNodes>
            0 -1 16 3.7521575577557087e-03</internalNodes>
          <leafValues>
            5.8988586068153381e-02 -8.8482868671417236e-01</leafValues></_></weakClassifiers></_>
    <!-- stage 9 -->
    <_>
      <maxWeakCount>11</maxWeakCount>
      <stageThreshold>-7.7391201257705688e-01</stageThreshold>
      <weakClassifiers>
        <_>
          <internalNodes>
            0 -1 10 2.5623429100960493e-03</internalNodes>
          <leafValues>
            -2.7384614944458008e-01 5.0857144594192505e-01</leafValues></_>
        <_>
          <internalNodes>
            0 -1 44 1.6055904779932462e-05</internalNodes>
          <leafValues>
            -3.5143825411796570e-01 3.0430555343627930e-01</leafValues></_>
        <_>
          <internalNodes>
            0 -1 165 4.6219766954891384e-04</internalNodes>
          <leafValues>
            -2.3530609905719757e-01 4.4799900054931641e-01</leafValues></_>
        <_>
          <internalNodes>
            0 -1 256 -3.1500356271862984e-04</internalNodes>
          <leafValues>
            3.4209623932838440e-01 -3.2597225904464722e-01</leafValues></_>
        <_>
          <internalNodes>
            0 -1 241 -1.9965393221355043e-05</internalNodes>
          <leafValues>
            3.4074458479881287e-01 -3.2863011956214905e-01</leafValues></_>
        <_>
          <internalNodes>
            0 -1 98 5.4081410780781880e-05</internalNodes>
          <leafValues>
            -2.6120188832283020e-01 4.3993878364562988e-01</leafValues></_>
        <_>
          <internalNodes>
            0 -1 164 3.9508724585175514e-03</internalNodes>
          <leafValues>
            2.0745828747749329e-01 -5.2351838350296021e-01</leafValues></_>
        <_>
          <internalNodes>
            0 -1 85 7.3687718249857426e-03</internalNodes>
          <leafValues>
            -3.0231609940528870e-01 3.9319747686386108e-01</leafValues></_>
        <_>
          <internalNodes>
            0 -1 242 -1.3948867563158274e-03</internalNodes>
          <leafValues>
            4.3950691819190979e-01 -2.7002868056297302e-01</leafValues></_>
        <_>
          <internalNodes>
            0 -1 54 1.7666807252680883e-05</internalNodes>
          <leafValues>
            -2.8382271528244019e-01 3.9309433102607727e-01</leafValues></_>
        <_>
          <internalNodes>
            0 -1 235 -5.2111419790890068e-05</internalNodes>
          <leafValues>
            3.2834815979003906e-01 -3.6834895610809326e-01</leafValues></_></weakClassifiers></_>
    <!-- stage 10 -->
    <_>
      <maxWeakCount>12</maxWeakCount>
      <stageThreshold>-4.8255100846290588e-01</stageThreshold>
      <weakClassifiers>
        <_>
          <internalNodes>
            0 -1 202 1.8824946600943804e-03</internalNodes>
          <leafValues>
            -1.6253443062305450e-01 4.3065693974494934e-01</leafValues></_>
        <_>
          <internalNodes>
            0 -1 215 9.1533455997705460e-04</internalNodes>
          <leafValues>
            1.4941544830799103e-01 -4.9428761005401611e-01</leafValues></_>
        <_>
          <internalNodes>
            0 -1 55 3.4594719181768596e-05</internalNodes>
          <leafValues>
            -2.6977172493934631e-01 3.0609092116355896e-01</leafValues></_>
        <_>
          <internalNodes>
            0 -1 238 -1.5774943167343736e-03</internalNodes>
          <leafValues>
            5.1502764225006104e-01 -1.5221077203750610e-01</leafValues></_>
        <_>
          <internalNodes>
            0 -1 127 -1.6705393791198730e-03</internalNodes>
          <leafValues>
            4.9067994952201843e-01 -1.9076766073703766e-01</leafValues></_>
        <_>
          <internalNodes>
            0 -1 40 4.1202404536306858e-03</internalNodes>
          <leafValues>
            1.5409488976001740e-01 -5.5866175889968872e-01</leafValues></_>
        <_>
          <internalNodes>
            0 -1 96 -4.0591415017843246e-03</internalNodes>
          <leafValues>
            5.1410412788391113e-01 -1.4497880637645721e-01</leafValues></_>
        <_>
          <internalNodes>
            0 -1 103 1.9563417881727219e-03</internalNodes>
          <leafValues>
            -2.1443384885787964e-01 3.9426228404045105e-01</leafValues></_>
        <_>
          <internalNodes>
            0 -1 181 1.8543872982263565e-02</internalNodes>
          <leafValues>
            -2.2057153284549713e-01 3.6434361338615417e-01</leafValues></_>
        <_>
          <internalNodes>
            0 -1 144 -6.2445094808936119e-03</internalNodes>
          <leafValues>
            5.1959115266799927e-01 -1.6656075417995453e-01</leafValues></_>
        <_>
          <internalNodes>
            0 -1 263 3.9151491364464164e-04</internalNodes>
          <leafValues>
            -1.9726410508155823e-01 4.0260812640190125e-01</leafValues></_>
        <_>
          <internalNodes>
            0 -1 93 7.5204977765679359e-03</internalNodes>
          <leafValues>
            -1.2368500232696533e-01 6.5744441747665405e-01</leafValues></_></weakClassifiers></_>
    <!-- stage 11 -->
    <_>
      <maxWeakCount>11</maxWeakCount>
      <stageThreshold>-6.8615359067916870e-01</stageThreshold>
      <weakClassifiers>
        <_>
          <internalNodes>
            0 -1 76 -7.6885096495971084e-04</internalNodes>
          <leafValues>
            -7.1153843402862549e-01 1.8686868250370026e-01</leafValues></_>
        <_>
          <internalNodes>
            0 -1 29 -1.1175515828654170e-03</internalNodes>
          <leafValues>
            -6.4464598894119263e-01 1.7073930799961090e-01</leafValues></_>
        <_>
          <internalNodes>
            0 -1 124 -3.0867347959429026e-04</internalNodes>
          <leafValues>
            -5.0168770551681519e-01 2.0108141005039215e-01</leafValues></_>
        <_>
          <internalNodes>
            0 -1 251 1.6691084019839764e-03</internalNodes>
          <leafValues>
            -1.7757000029087067e-01 5.3062158823013306e-01</leafValues></_>
        <_>
          <internalNodes>
            0 -1 48 -2.4388716556131840e-03</internalNodes>
          <leafValues>
            4.6614608168601990e-01 -1.8624299764633179e-01</leafValues></_>
        <_>
          <internalNodes>
            0 -1 79 -6.7312392638996243e-04</internalNodes>
          <leafValues>
            -4.6818718314170837e-01 1.8193396925926208e-01</leafValues></_>
        <_>
          <internalNodes>
            0 -1 225 -6.1849760822951794e-04</internalNodes>
          <leafValues>
            -6.1140483617782593e-01 1.6489389538764954e-01</leafValues></_>
        <_>
          <internalNodes>
            0 -1 193 -1.3022657483816147e-02</internalNodes>
          <leafValues>
            5.0530934333801270e-01 -2.1350288391113281e-01</leafValues></_>
        <_>
          <internalNodes>
            0 -1 212 -3.0089833308011293e-03</internalNodes>
          <leafValues>
            4.5887345075607300e-01 -2.2265063226222992e-01</leafValues></_>
        <_>
          <internalNodes>
            0 -1 106 -3.7277430295944214e-02</internalNodes>
          <leafValues>
            7.2556120157241821e-01 -1.4401255548000336e-01</leafValues></_>
        <_>
          <internalNodes>
            0 -1 236 1.2770491593983024e-04</internalNodes>
          <leafValues>
            2.6020023226737976e-01 -4.9053859710693359e-01</leafValues></_></weakClassifiers></_>
    <!-- stage 12 -->
    <_>
      <maxWeakCount>16</maxWeakCount>
      <stageThreshold>-8.4080129861831665e-01</stageThreshold>
      <weakClassifiers>
        <_>
          <internalNodes>
            0 -1 274 7.0881913416087627e-04</internalNodes>
          <leafValues>
            1.4216867089271545e-01 -6.9411766529083252e-01</leafValues></_>
        <_>
          <internalNodes>
            0 -1 140 -3.0008922331035137e-03</internalNodes>
          <leafValues>
            5.5043619871139526e-01 -1.6766145825386047e-01</leafValues></_>
        <_>
          <internalNodes>
            0 -1 81 -2.0886436104774475e-03</internalNodes>
          <leafValues>
            -4.6134588122367859e-01 1.7138336598873138e-01</leafValues></_>
        <_>
          <internalNodes>
            0 -1 135 -4.7660637646913528e-03</internalNodes>
          <leafValues>
            5.4130083322525024e-01 -1.3184773921966553e-01</leafValues></_>
        <_>
          <internalNodes>
            0 -1 270 8.6945499060675502e-04</internalNodes>
          <leafValues>
            1.4786672592163086e-01 -5.8826088905334473e-01</leafValues></_>
        <_>
          <internalNodes>
            0 -1 177 -2.1793222986161709e-03</internalNodes>
          <leafValues>
            5.3748899698257446e-01 -1.6929319500923157e-01</leafValues></_>
        <_>
          <internalNodes>
            0 -1 4 1.5730710001662374e-03</internalNodes>
          <leafValues>
            -1.8357200920581818e-01 4.1094714403152466e-01</leafValues></_>
        <_>
          <internalNodes>
            0 -1 228 -6.2097674235701561e-03</internalNodes>
          <leafValues>
            5.5092310905456543e-01 -1.5886448323726654e-01</leafValues></_>
        <_>
          <internalNodes>
            0 -1 139 -1.3179982488509268e-04</internalNodes>
          <leafValues>
            4.2186307907104492e-01 -1.9423334300518036e-01</leafValues></_>
        <_>
          <internalNodes>
            0 -1 32 1.2340417597442865e-03</internalNodes>
          <leafValues>
            8.9448019862174988e-02 -7.0391994714736938e-01</leafValues></_>
        <_>
          <internalNodes>
            0 -1 189 -3.3219952136278152e-02</internalNodes>
          <leafValues>
            -7.5839132070541382e-01 9.9469058215618134e-02</leafValues></_>
        <_>
          <internalNodes>
            0 -1 261 -5.4026296129450202e-04</internalNodes>
          <leafValues>
            3.3076933026313782e-01 -2.6396688818931580e-01</leafValues></_>
        <_>
          <internalNodes>
            0 -1 260 6.8285325542092323e-03</internalNodes>
          <leafValues>
            -1.0582049190998077e-01 7.4307632446289063e-01</leafValues></_>
        <_>
          <internalNodes>
            0 -1 272 1.1230536038056016e-03</internalNodes>
          <leafValues>
            -2.6735225319862366e-01 3.1223675608634949e-01</leafValues></_>
        <_>
          <internalNodes>
            0 -1 149 6.5231265034526587e-04</internalNodes>
          <leafValues>
            1.8076780438423157e-01 -4.8387536406517029e-01</leafValues></_>
        <_>
          <internalNodes>
            0 -1 230 2.1395639050751925e-03</internalNodes>
          <leafValues>
            -2.4399413168430328e-01 3.4743541479110718e-01</leafValues></_></weakClassifiers></_>
    <!-- stage 13 -->
    <_>
      <maxWeakCount>14</maxWeakCount>
      <stageThreshold>-1.1548504829406738e+00</stageThreshold>
      <weakClassifiers>
        <_>
          <internalNodes>
            0 -1 278 -1.3930249224358704e-05</internalNodes>
          <leafValues>
            3.4375000000000000e-01 -3.6065572500228882e-01</leafValues></_>
        <_>
          <internalNodes>
            0 -1 75 1.6881253031897359e-05</internalNodes>
          <leafValues>
            -2.2810392081737518e-01 4.4802185893058777e-01</leafValues></_>
        <_>
          <internalNodes>
            0 -1 75 -1.4773604561924003e-05</internalNodes>
          <leafValues>
            4.0058368444442749e-01 -2.7149736881256104e-01</leafValues></_>
        <_>
          <internalNodes>
            0 -1 169 6.4858812838792801e-03</internalNodes>
          <leafValues>
            -2.1123313903808594e-01 4.2342504858970642e-01</leafValues></_>
        <_>
          <internalNodes>
            0 -1 167 2.7004727162420750e-03</internalNodes>
          <leafValues>
            -1.3208895921707153e-01 6.2994283437728882e-01</leafValues></_>
        <_>
          <internalNodes>
            0 -1 253 -1.4773604561924003e-05</internalNodes>
          <leafValues>
            3.6874553561210632e-01 -2.4647146463394165e-01</leafValues></_>
        <_>
          <internalNodes>
            0 -1 176 -9.6844951622188091e-04</internalNodes>
          <leafValues>
            6.4934492111206055e-01 -1.0831077396869659e-01</leafValues></_>
        <_>
          <internalNodes>
            0 -1 117 8.7234002421610057e-05</internalNodes>
          <leafValues>
            -2.6269930601119995e-01 3.7035045027732849e-01</leafValues></_>
        <_>
          <internalNodes>
            0 -1 158 -2.1443455480039120e-03</internalNodes>
          <leafValues>
            5.9342521429061890e-01 -1.6590224206447601e-01</leafValues></_>
        <_>
          <internalNodes>
            0 -1 50 -8.1995967775583267e-03</internalNodes>
          <leafValues>
            3.3772400021553040e-01 -2.5445377826690674e-01</leafValues></_>
        <_>
          <internalNodes>
            0 -1 114 -5.6957424385473132e-04</internalNodes>
          <leafValues>
            3.9696028828620911e-01 -2.3365418612957001e-01</leafValues></_>
        <_>
          <internalNodes>
            0 -1 110 -1.5891733710304834e-05</internalNodes>
          <leafValues>
            3.8326674699783325e-01 -2.5439575314521790e-01</leafValues></_>
        <_>
          <internalNodes>
            0 -1 186 -2.2539719939231873e-03</internalNodes>
          <leafValues>
            4.6866071224212646e-01 -2.0895579457283020e-01</leafValues></_>
        <_>
          <internalNodes>
            0 -1 264 1.9645953216240741e-05</internalNodes>
          <leafValues>
            -3.2545304298400879e-01 3.2992711663246155e-01</leafValues></_></weakClassifiers></_>
    <!-- stage 14 -->
    <_>
      <maxWeakCount>16</maxWeakCount>
      <stageThreshold>-6.4427745342254639e-01</stageThreshold>
      <weakClassifiers>
        <_>
          <internalNodes>
            0 -1 101 1.4246103819459677e-03</internalNodes>
          <leafValues>
            -2.7906978130340576e-01 2.9752066731452942e-01</leafValues></_>
        <_>
          <internalNodes>
            0 -1 206 -1.7619797959923744e-02</internalNodes>
          <leafValues>
            -8.9741724729537964e-01 8.2958541810512543e-02</leafValues></_>
        <_>
          <internalNodes>
            0 -1 58 1.5429635823238641e-05</internalNodes>
          <leafValues>
            -2.0717753469944000e-01 3.4163871407508850e-01</leafValues></_>
        <_>
          <internalNodes>
            0 -1 62 -1.2235813774168491e-03</internalNodes>
          <leafValues>
            4.0766084194183350e-01 -1.7649330198764801e-01</leafValues></_>
        <_>
          <internalNodes>
            0 -1 266 -3.9376849599648267e-05</internalNodes>
          <leafValues>
            2.6332691311836243e-01 -2.8064090013504028e-01</leafValues></_>
        <_>
          <internalNodes>
            0 -1 18 -1.0910918936133385e-02</internalNodes>
          <leafValues>
            6.2042397260665894e-01 -1.2026361376047134e-01</leafValues></_>
        <_>
          <internalNodes>
            0 -1 278 -1.3930249224358704e-05</internalNodes>
          <leafValues>
            2.5207102298736572e-01 -3.1132021546363831e-01</leafValues></_>
        <_>
          <internalNodes>
            0 -1 208 -1.9015807658433914e-02</internalNodes>
          <leafValues>
            4.5937576889991760e-01 -1.8448260426521301e-01</leafValues></_>
        <_>
          <internalNodes>
            0 -1 155 -1.5283320099115372e-02</internalNodes>
          <leafValues>
            3.5789474844932556e-01 -2.3596277832984924e-01</leafValues></_>
        <_>
          <internalNodes>
            0 -1 108 1.9375741481781006e-02</internalNodes>
          <leafValues>
            2.3632723093032837e-01 -3.6983045935630798e-01</leafValues></_>
        <_>
          <internalNodes>
            0 -1 99 1.6081865396699868e-05</internalNodes>
          <leafValues>
            -2.4128116667270660e-01 3.3306893706321716e-01</leafValues></_>
        <_>
          <internalNodes>
            0 -1 159 6.0692458646371961e-04</internalNodes>
          <leafValues>
            -2.5843289494514465e-01 3.2260701060295105e-01</leafValues></_>
        <_>
          <internalNodes>
            0 -1 73 -1.4740742699359544e-05</internalNodes>
          <leafValues>
            3.0437740683555603e-01 -2.7758499979972839e-01</leafValues></_>
        <_>
          <internalNodes>
            0 -1 37 1.7435222616768442e-05</internalNodes>
          <leafValues>
            -2.4744902551174164e-01 3.3446252346038818e-01</leafValues></_>
        <_>
          <internalNodes>
            0 -1 130 -5.3813331760466099e-04</internalNodes>
          <leafValues>
            4.4248250126838684e-01 -1.8904103338718414e-01</leafValues></_>
        <_>
          <internalNodes>
            0 -1 162 1.7079888493753970e-04</internalNodes>
          <leafValues>
            -2.2507287561893463e-01 3.5404106974601746e-01</leafValues></_></weakClassifiers></_>
    <!-- stage 15 -->
    <_>
      <maxWeakCount>11</maxWeakCount>
      <stageThreshold>-6.4427310228347778e-01</stageThreshold>
      <weakClassifiers>
        <_>
          <internalNodes>
            0 -1 94 -1.3123223185539246e-01</internalNodes>
          <leafValues>
            6.9863015413284302e-01 -1.1943794041872025e-01</leafValues></_>
        <_>
          <internalNodes>
            0 -1 64 -6.3673881813883781e-03</internalNodes>
          <leafValues>
            2.9934337735176086e-01 -2.6784846186637878e-01</leafValues></_>
        <_>
          <internalNodes>
            0 -1 152 -7.4112340807914734e-03</internalNodes>
          <leafValues>
            8.1280946731567383e-01 -1.3189801573753357e-01</leafValues></_>
        <_>
          <internalNodes>
            0 -1 97 -5.7401817291975021e-02</internalNodes>
          <leafValues>
            -6.6143774986267090e-01 1.5158398449420929e-01</leafValues></_>
        <_>
          <internalNodes>
            0 -1 31 8.0756342504173517e-04</internalNodes>
          <leafValues>
            -3.0774119496345520e-01 3.0576920509338379e-01</leafValues></_>
        <_>
          <internalNodes>
            0 -1 150 3.7870542146265507e-03</internalNodes>
          <leafValues>
            -2.0160675048828125e-01 5.1798176765441895e-01</leafValues></_>
        <_>
          <internalNodes>
            0 -1 34 -4.3506873771548271e-03</internalNodes>
          <leafValues>
            -5.6571573019027710e-01 1.8641062080860138e-01</leafValues></_>
        <_>
          <internalNodes>
            0 -1 0 -4.7035091556608677e-03</internalNodes>
          <leafValues>
            5.3407186269760132e-01 -1.9557636976242065e-01</leafValues></_>
        <_>
          <internalNodes>
            0 -1 229 2.0721253007650375e-02</internalNodes>
          <leafValues>
            -1.3550464808940887e-01 6.4588594436645508e-01</leafValues></_>
        <_>
          <internalNodes>
            0 -1 200 -5.9467637911438942e-03</internalNodes>
          <leafValues>
            5.5558693408966064e-01 -1.2420230358839035e-01</leafValues></_>
        <_>
          <internalNodes>
            0 -1 148 -2.5469528045505285e-03</internalNodes>
          <leafValues>
            -7.6458388566970825e-01 1.0460327565670013e-01</leafValues></_></weakClassifiers></_>
    <!-- stage 16 -->
    <_>
      <maxWeakCount>19</maxWeakCount>
      <stageThreshold>-8.3792442083358765e-01</stageThreshold>
      <weakClassifiers>
        <_>
          <internalNodes>
            0 -1 174 -3.9534881711006165e-02</internalNodes>
          <leafValues>
            7.9487180709838867e-01 -6.7245118319988251e-02</leafValues></_>
        <_>
          <internalNodes>
            0 -1 56 -5.2380375564098358e-04</internalNodes>
          <leafValues>
            -4.9812075495719910e-01 1.2194080650806427e-01</leafValues></_>
        <_>
          <internalNodes>
            0 -1 36 3.1308000907301903e-03</internalNodes>
          <leafValues>
            -2.3254990577697754e-01 2.5906124711036682e-01</leafValues></_>
        <_>
          <internalNodes>
            0 -1 20 -1.6023136675357819e-02</internalNodes>
          <leafValues>
            4.9269676208496094e-01 -1.1997098475694656e-01</leafValues></_>
        <_>
          <internalNodes>
            0 -1 95 1.0793518275022507e-02</internalNodes>
          <leafValues>
            -1.8613846600055695e-01 3.6683705449104309e-01</leafValues></_>
        <_>
          <internalNodes>
            0 -1 131 3.9580678567290306e-03</internalNodes>
          <leafValues>
            -1.4298963546752930e-01 4.8632261157035828e-01</leafValues></_>
        <_>
          <internalNodes>
            0 -1 223 6.1277719214558601e-04</internalNodes>
          <leafValues>
            1.0481439530849457e-01 -5.8477097749710083e-01</leafValues></_>
        <_>
          <internalNodes>
            0 -1 68 -1.5960950404405594e-02</internalNodes>
          <leafValues>
            3.6390441656112671e-01 -1.6863960027694702e-01</leafValues></_>
        <_>
          <internalNodes>
            0 -1 72 -3.4909870009869337e-04</internalNodes>
          <leafValues>
            2.7582335472106934e-01 -2.2938010096549988e-01</leafValues></_>
        <_>
          <internalNodes>
            0 -1 247 1.8479477614164352e-02</internalNodes>
          <leafValues>
            -7.4332192540168762e-02 6.7054533958435059e-01</leafValues></_>
        <_>
          <internalNodes>
            0 -1 237 -3.9006915176287293e-04</internalNodes>
          <leafValues>
            -2.5203263759613037e-01 2.5205478072166443e-01</leafValues></_>
        <_>
          <internalNodes>
            0 -1 265 -1.2700923252850771e-03</internalNodes>
          <leafValues>
            -5.7586693763732910e-01 1.2821163237094879e-01</leafValues></_>
        <_>
          <internalNodes>
            0 -1 267 -1.7217185813933611e-04</internalNodes>
          <leafValues>
            2.4981160461902618e-01 -2.5992682576179504e-01</leafValues></_>
        <_>
          <internalNodes>
            0 -1 115 1.0079676285386086e-03</internalNodes>
          <leafValues>
            1.4492562413215637e-01 -4.0055325627326965e-01</leafValues></_>
        <_>
          <internalNodes>
            0 -1 123 -2.5778537616133690e-02</internalNodes>
          <leafValues>
            4.4293552637100220e-01 -1.4703658223152161e-01</leafValues></_>
        <_>
          <internalNodes>
            0 -1 25 -9.3467722763307393e-05</internalNodes>
          <leafValues>
            -3.0480074882507324e-01 2.2091898322105408e-01</leafValues></_>
        <_>
          <internalNodes>
            0 -1 109 -3.7260480225086212e-02</internalNodes>
          <leafValues>
            -7.0850223302841187e-01 9.9978379905223846e-02</leafValues></_>
        <_>
          <internalNodes>
            0 -1 184 -1.9821191381197423e-04</internalNodes>
          <leafValues>
            3.7839552760124207e-01 -1.9117920100688934e-01</leafValues></_>
        <_>
          <internalNodes>
            0 -1 52 1.5559107123408467e-04</internalNodes>
          <leafValues>
            -2.5127822160720825e-01 2.7594733238220215e-01</leafValues></_></weakClassifiers></_>
    <!-- stage 17 -->
    <_>
      <maxWeakCount>18</maxWeakCount>
      <stageThreshold>-6.4104312658309937e-01</stageThreshold>
      <weakClassifiers>
        <_>
          <internalNodes>
            0 -1 146 6.1506908386945724e-03</internalNodes>
          <leafValues>
            7.7605322003364563e-02 -7.1428573131561279e-01</leafValues></_>
        <_>
          <internalNodes>
            0 -1 170 -2.3471186868846416e-03</internalNodes>
          <leafValues>
            4.7321492433547974e-01 -1.1458141356706619e-01</leafValues></_>
        <_>
          <internalNodes>
            0 -1 161 -1.2871467042714357e-03</internalNodes>
          <leafValues>
            -3.3753103017807007e-01 1.5346682071685791e-01</leafValues></_>
        <_>
          <internalNodes>
            0 -1 9 2.2788946516811848e-03</internalNodes>
          <leafValues>
            -2.0602060854434967e-01 3.9876195788383484e-01</leafValues></_>
        <_>
          <internalNodes>
            0 -1 279 -8.3216559141874313e-04</internalNodes>
          <leafValues>
            -5.5594879388809204e-01 1.5769122540950775e-01</leafValues></_>
        <_>
          <internalNodes>
            0 -1 35 -1.9901942461729050e-02</internalNodes>
          <leafValues>
            5.9350812435150146e-01 -1.1067111790180206e-01</leafValues></_>
        <_>
          <internalNodes>
            0 -1 198 9.4166013877838850e-04</internalNodes>
          <leafValues>
            7.8462384641170502e-02 -8.3837473392486572e-01</leafValues></_>
        <_>
          <internalNodes>
            0 -1 210 -1.7146971076726913e-03</internalNodes>
          <leafValues>
            4.7308972477912903e-01 -1.2380386888980865e-01</leafValues></_>
        <_>
          <internalNodes>
            0 -1 234 -1.1272549629211426e-02</internalNodes>
          <leafValues>
            -8.9689356088638306e-01 3.3358540385961533e-02</leafValues></_>
        <_>
          <internalNodes>
            0 -1 78 -9.2607294209301472e-04</internalNodes>
          <leafValues>
            -5.6871426105499268e-01 1.0278524458408356e-01</leafValues></_>
        <_>
          <internalNodes>
            0 -1 38 -2.8507539536803961e-04</internalNodes>
          <leafValues>
            3.3832332491874695e-01 -2.0259958505630493e-01</leafValues></_>
        <_>
          <internalNodes>
            0 -1 269 1.4740742699359544e-05</internalNodes>
          <leafValues>
            -2.4119114875793457e-01 2.7167162299156189e-01</leafValues></_>
        <_>
          <internalNodes>
            0 -1 231 -6.3264375785365701e-04</internalNodes>
          <leafValues>
            2.5440341234207153e-01 -2.6314377784729004e-01</leafValues></_>
        <_>
          <internalNodes>
            0 -1 128 2.3818511515855789e-02</internalNodes>
          <leafValues>
            -1.0396409034729004e-01 6.5119814872741699e-01</leafValues></_>
        <_>
          <internalNodes>
            0 -1 275 -4.0062777698040009e-03</internalNodes>
          <leafValues>
            -9.5632344484329224e-01 7.7003560960292816e-02</leafValues></_>
        <_>
          <internalNodes>
            0 -1 65 -4.6837241388857365e-03</internalNodes>
          <leafValues>
            7.1978557109832764e-01 -1.1101503670215607e-01</leafValues></_>
        <_>
          <internalNodes>
            0 -1 39 5.0466444343328476e-02</internalNodes>
          <leafValues>
            -7.0878259837627411e-02 8.6916702985763550e-01</leafValues></_>
        <_>
          <internalNodes>
            0 -1 42 5.0065311370417476e-05</internalNodes>
          <leafValues>
            -2.2089803218841553e-01 3.0237129330635071e-01</leafValues></_></weakClassifiers></_>
    <!-- stage 18 -->
    <_>
      <maxWeakCount>17</maxWeakCount>
      <stageThreshold>-6.9630867242813110e-01</stageThreshold>
      <weakClassifiers>
        <_>
          <internalNodes>
            0 -1 6 -6.9013405591249466e-03</internalNodes>
          <leafValues>
            -5.1162791252136230e-01 1.0628019273281097e-01</leafValues></_>
        <_>
          <internalNodes>
            0 -1 245 -3.1842514872550964e-03</internalNodes>
          <leafValues>
            2.2405071556568146e-01 -2.4684734642505646e-01</leafValues></_>
        <_>
          <internalNodes>
            0 -1 89 -6.6342571517452598e-04</internalNodes>
          <leafValues>
            3.1125313043594360e-01 -1.4225056767463684e-01</leafValues></_>
        <_>
          <internalNodes>
            0 -1 1 -1.5557814913336188e-04</internalNodes>
          <leafValues>
            -2.9771801829338074e-01 1.9494898617267609e-01</leafValues></_>
        <_>
          <internalNodes>
            0 -1 17 -3.3173471689224243e-02</internalNodes>
          <leafValues>
            7.8270304203033447e-01 -1.3382594287395477e-01</leafValues></_>
        <_>
          <internalNodes>
            0 -1 14 1.8682974623516202e-03</internalNodes>
          <leafValues>
            -1.4424248039722443e-01 3.7406402826309204e-01</leafValues></_>
        <_>
          <internalNodes>
            0 -1 218 6.3336067833006382e-03</internalNodes>
          <leafValues>
            4.0640685707330704e-02 -7.6929146051406860e-01</leafValues></_>
        <_>
          <internalNodes>
            0 -1 227 6.4502172172069550e-03</internalNodes>
          <leafValues>
            -1.3196721673011780e-01 4.7221016883850098e-01</leafValues></_>
        <_>
          <internalNodes>
            0 -1 74 2.8415734414011240e-04</internalNodes>
          <leafValues>
            1.3439005613327026e-01 -4.2161324620246887e-01</leafValues></_>
        <_>
          <internalNodes>
            0 -1 216 3.0611981637775898e-03</internalNodes>
          <leafValues>
            -1.7138513922691345e-01 3.5632532835006714e-01</leafValues></_>
        <_>
          <internalNodes>
            0 -1 196 4.2412162292748690e-04</internalNodes>
          <leafValues>
            -1.5906697511672974e-01 3.3525079488754272e-01</leafValues></_>
        <_>
          <internalNodes>
            0 -1 21 -4.2489722371101379e-02</internalNodes>
          <leafValues>
            6.4414846897125244e-01 -9.0149596333503723e-02</leafValues></_>
        <_>
          <internalNodes>
            0 -1 221 7.7244220301508904e-04</internalNodes>
          <leafValues>
            -2.2105655074119568e-01 2.5302782654762268e-01</leafValues></_>
        <_>
          <internalNodes>
            0 -1 187 7.3404498398303986e-03</internalNodes>
          <leafValues>
            -1.6395810246467590e-01 3.8445898890495300e-01</leafValues></_>
        <_>
          <internalNodes>
            0 -1 151 2.5374289602041245e-02</internalNodes>
          <leafValues>
            -1.0609557479619980e-01 5.0867086648941040e-01</leafValues></_>
        <_>
          <internalNodes>
            0 -1 254 -2.1052684634923935e-02</internalNodes>
          <leafValues>
            4.7664046287536621e-01 -1.4347867667675018e-01</leafValues></_>
        <_>
          <internalNodes>
            0 -1 23 3.6526666954159737e-03</internalNodes>
          <leafValues>
            9.4816014170646667e-02 -7.9106330871582031e-01</leafValues></_></weakClassifiers></_>
    <!-- stage 19 -->
    <_>
      <maxWeakCount>14</maxWeakCount>
      <stageThreshold>-5.6818616390228271e-01</stageThreshold>
      <weakClassifiers>
        <_>
          <internalNodes>
            0 -1 28 -1.1268593370914459e-03</internalNodes>
          <leafValues>
            -5.3846156597137451e-01 9.9526070058345795e-02</leafValues></_>
        <_>
          <internalNodes>
            0 -1 278 -1.3930249224358704e-05</internalNodes>
          <leafValues>
            1.8393793702125549e-01 -2.8488919138908386e-01</leafValues></_>
        <_>
          <internalNodes>
            0 -1 15 -5.0196675583720207e-03</internalNodes>
          <leafValues>
            -6.0746479034423828e-01 1.1598367244005203e-01</leafValues></_>
        <_>
          <internalNodes>
            0 -1 13 2.9991280753165483e-03</internalNodes>
          <leafValues>
            6.7499905824661255e-02 -7.2811448574066162e-01</leafValues></_>
        <_>
          <internalNodes>
            0 -1 244 -2.0940983667969704e-03</internalNodes>
          <leafValues>
            4.1043329238891602e-01 -1.5926392376422882e-01</leafValues></_>
        <_>
          <internalNodes>
            0 -1 163 1.0747510241344571e-03</internalNodes>
          <leafValues>
            1.2547478079795837e-01 -4.3787088990211487e-01</leafValues></_>
        <_>
          <internalNodes>
            0 -1 49 8.9980224147439003e-03</internalNodes>
          <leafValues>
            -1.4762516319751740e-01 6.4998233318328857e-01</leafValues></_>
        <_>
          <internalNodes>
            0 -1 80 4.8583094030618668e-04</internalNodes>
          <leafValues>
            -1.7506222426891327e-01 3.1344830989837646e-01</leafValues></_>
        <_>
          <internalNodes>
            0 -1 211 2.7643837966024876e-03</internalNodes>
          <leafValues>
            -1.9401580095291138e-01 3.1688913702964783e-01</leafValues></_>
        <_>
          <internalNodes>
            0 -1 77 1.6587283462285995e-03</internalNodes>
          <leafValues>
            1.2269237637519836e-01 -5.4184389114379883e-01</leafValues></_>
        <_>
          <internalNodes>
            0 -1 178 -1.1170363053679466e-02</internalNodes>
          <leafValues>
            4.2644402384757996e-01 -1.4364795386791229e-01</leafValues></_>
        <_>
          <internalNodes>
            0 -1 273 1.2322841212153435e-03</internalNodes>
          <leafValues>
            8.4201753139495850e-02 -7.7308398485183716e-01</leafValues></_>
        <_>
          <internalNodes>
            0 -1 262 8.3892568945884705e-03</internalNodes>
          <leafValues>
            -1.9110147655010223e-01 3.5679650306701660e-01</leafValues></_>
        <_>
          <internalNodes>
            0 -1 220 -4.0689967572689056e-02</internalNodes>
          <leafValues>
            5.0931370258331299e-01 -1.5486833453178406e-01</leafValues></_></weakClassifiers></_></stages>
  <features>
    <_>
      <rects>
        <_>
          0 0 3 13 -1.</_>
        <_>
          1 0 1 13 3.</_></rects>
      <tilted>0</tilted></_>
    <_>
      <rects>
        <_>
          0 0 6 1 -1.</_>
        <_>
          3 0 3 1 2.</_></rects>
      <tilted>0</tilted></_>
    <_>
      <rects>
        <_>
          0 0 9 4 -1.</_>
        <_>
          0 2 9 2 2.</_></rects>
      <tilted>0</tilted></_>
    <_>
      <rects>
        <_>
          0 0 10 15 -1.</_>
        <_>
          0 5 10 5 3.</_></rects>
      <tilted>0</tilted></_>
    <_>
      <rects>
        <_>
          0 1 1 10 -1.</_>
        <_>
          0 6 1 5 2.</_></rects>
      <tilted>0</tilted></_>
    <_>
      <rects>
        <_>
          0 1 4 10 -1.</_>
        <_>
          0 1 2 5 2.</_>
        <_>
          2 6 2 5 2.</_></rects>
      <tilted>0</tilted></_>
    <_>
      <rects>
        <_>
          0 1 16 2 -1.</_>
        <_>
          0 1 8 1 2.</_>
        <_>
          8 2 8 1 2.</_></rects>
      <tilted>0</tilted></_>
    <_>
      <rects>
        <_>
          0 2 4 18 -1.</_>
        <_>
          0 2 2 9 2.</_>
        <_>
          2 11 2 9 2.</_></rects>
      <tilted>0</tilted></_>
    <_>
      <rects>
        <_>
          0 2 15 5 -1.</_>
        <_>
          5 2 5 5 3.</_></rects>
      <tilted>0</tilted></_>
    <_>
      <rects>
        <_>
          0 3 2 7 -1.</_>
        <_>
          1 3 1 7 2.</_></rects>
      <tilted>0</tilted></_>
    <_>
      <rects>
        <_>
          0 5 4 8 -1.</_>
        <_>
          2 5 2 8 2.</_></rects>
      <tilted>0</tilted></_>
    <_>
      <rects>
        <_>
          0 7 12 11 -1.</_>
        <_>
          4 7 4 11 3.</_></rects>
      <tilted>0</tilted></_>
    <_>
      <rects>
        <_>
          0 9 8 8 -1.</_>
        <_>
          0 9 4 4 2.</_>
        <_>
          4 13 4 4 2.</_></rects>
      <tilted>0</tilted></_>
    <_>
      <rects>
        <_>
          0 10 1 3 -1.</_>
        <_>
          0 11 1 1 3.</_></rects>
      <tilted>0</tilted></_>
    <_>
      <rects>
        <_>
          0 10 4 9 -1.</_>
        <_>
          2 10 2 9 2.</_></rects>
      <tilted>0</tilted></_>
    <_>
      <rects>
        <_>
          0 10 4 3 -1.</_>
        <_>
          0 11 4 1 3.</_></rects>
      <tilted>0</tilted></_>
    <_>
      <rects>
        <_>
          0 12 2 2 -1.</_>
        <_>
          0 13 2 1 2.</_></rects>
      <tilted>0</tilted></_>
    <_>
      <rects>
        <_>
          0 12 6 12 -1.</_>
        <_>
          3 12 3 12 2.</_></rects>
      <tilted>0</tilted></_>
    <_>
      <rects>
        <_>
          0 14 6 5 -1.</_>
        <_>
          3 14 3 5 2.</_></rects>
      <tilted>0</tilted></_>
    <_>
      <rects>
        <_>
          0 14 8 4 -1.</_>
        <_>
          4 14 4 4 2.</_></rects>
      <tilted>0</tilted></_>
    <_>
      <rects>
        <_>
          0 14 18 6 -1.</_>
        <_>
          6 14 6 6 3.</_></rects>
      <tilted>0</tilted></_>
    <_>
      <rects>
        <_>
          0 14 14 5 -1.</_>
        <_>
          7 14 7 5 2.</_></rects>
      <tilted>0</tilted></_>
    <_>
      <rects>
        <_>
          0 15 2 5 -1.</_>
        <_>
          1 15 1 5 2.</_></rects>
      <tilted>0</tilted></_>
    <_>
      <rects>
        <_>
          0 15 2 2 -1.</_>
        <_>
          0 16 2 1 2.</_></rects>
      <tilted>0</tilted></_>
    <_>
      <rects>
        <_>
          0 15 8 4 -1.</_>
        <_>
          0 15 4 2 2.</_>
        <_>
          4 17 4 2 2.</_></rects>
      <tilted>0</tilted></_>
    <_>
      <rects>
        <_>
          0 16 1 3 -1.</_>
        <_>
          0 17 1 1 3.</_></rects>
      <tilted>0</tilted></_>
    <_>
      <rects>
        <_>
          0 16 15 8 -1.</_>
        <_>
          5 16 5 8 3.</_></rects>
      <tilted>0</tilted></_>
    <_>
      <rects>
        <_>
          0 16 16 4 -1.</_>
        <_>
          0 18 16 2 2.</_></rects>
      <tilted>0</tilted></_>
    <_>
      <rects>
        <_>
          0 17 3 3 -1.</_>
        <_>
          1 17 1 3 3.</_></rects>
      <tilted>0</tilted></_>
    <_>
      <rects>
        <_>
          0 18 3 6 -1.</_>
        <_>
          1 18 1 6 3.</_></rects>
      <tilted>0</tilted></_>
    <_>
      <rects>
        <_>
          0 18 7 3 -1.</_>
        <_>
          0 19 7 1 3.</_></rects>
      <tilted>0</tilted></_>
    <_>
      <rects>
        <_>
          0 18 21 2 -1.</_>
        <_>
          7 18 7 2 3.</_></rects>
      <tilted>0</tilted></_>
    <_>
      <rects>
        <_>
          0 19 3 2 -1.</_>
        <_>
          1 19 1 2 3.</_></rects>
      <tilted>0</tilted></_>
    <_>
      <rects>
        <_>
          0 19 3 5 -1.</_>
        <_>
          1 19 1 5 3.</_></rects>
      <tilted>0</tilted></_>
    <_>
      <rects>
        <_>
          0 19 6 5 -1.</_>
        <_>
          2 19 2 5 3.</_></rects>
      <tilted>0</tilted></_>
    <_>
      <rects>
        <_>
          0 19 12 5 -1.</_>
        <_>
          6 19 6 5 2.</_></rects>
      <tilted>0</tilted></_>
    <_>
      <rects>
        <_>
          0 19 21 2 -1.</_>
        <_>
          7 19 7 2 3.</_></rects>
      <tilted>0</tilted></_>
    <_>
      <rects>
        <_>
          0 20 2 1 -1.</_>
        <_>
          1 20 1 1 2.</_></rects>
      <tilted>0</tilted></_>
    <_>
      <rects>
        <_>
          0 20 7 2 -1.</_>
        <_>
          0 21 7 1 2.</_></rects>
      <tilted>0</tilted></_>
    <_>
      <rects>
        <_>
          0 20 19 4 -1.</_>
        <_>
          0 22 19 2 2.</_></rects>
      <tilted>0</tilted></_>
    <_>
      <rects>
        <_>
          0 21 9 2 -1.</_>
        <_>
          3 21 3 2 3.</_></rects>
      <tilted>0</tilted></_>
    <_>
      <rects>
        <_>
          0 22 6 2 -1.</_>
        <_>
          2 22 2 2 3.</_></rects>
      <tilted>0</tilted></_>
    <_>
      <rects>
        <_>
          0 22 8 2 -1.</_>
        <_>
          0 22 4 1 2.</_>
        <_>
          4 23 4 1 2.</_></rects>
      <tilted>0</tilted></_>
    <_>
      <rects>
        <_>
          0 22 21 2 -1.</_>
        <_>
          7 22 7 2 3.</_></rects>
      <tilted>0</tilted></_>
    <_>
      <rects>
        <_>
          0 23 2 1 -1.</_>
        <_>
          1 23 1 1 2.</_></rects>
      <tilted>0</tilted></_>
    <_>
      <rects>
        <_>
          1 0 22 2 -1.</_>
        <_>
          1 0 11 1 2.</_>
        <_>
          12 1 11 1 2.</_></rects>
      <tilted>0</tilted></_>
    <_>
      <rects>
        <_>
          1 0 23 12 -1.</_>
        <_>
          1 6 23 6 2.</_></rects>
      <tilted>0</tilted></_>
    <_>
      <rects>
        <_>
          1 1 15 7 -1.</_>
        <_>
          6 1 5 7 3.</_></rects>
      <tilted>0</tilted></_>
    <_>
      <rects>
        <_>
          1 4 8 3 -1.</_>
        <_>
          1 5 8 1 3.</_></rects>
      <tilted>0</tilted></_>
    <_>
      <rects>
        <_>
          1 7 3 11 -1.</_>
        <_>
          2 7 1 11 3.</_></rects>
      <tilted>0</tilted></_>
    <_>
      <rects>
        <_>
          1 7 22 6 -1.</_>
        <_>
          1 9 22 2 3.</_></rects>
      <tilted>0</tilted></_>
    <_>
      <rects>
        <_>
          1 8 4 4 -1.</_>
        <_>
          3 8 2 4 2.</_></rects>
      <tilted>0</tilted></_>
    <_>
      <rects>
        <_>
          1 10 2 4 -1.</_>
        <_>
          2 10 1 4 2.</_></rects>
      <tilted>0</tilted></_>
    <_>
      <rects>
        <_>
          1 12 21 8 -1.</_>
        <_>
          1 16 21 4 2.</_></rects>
      <tilted>0</tilted></_>
    <_>
      <rects>
        <_>
          1 16 2 6 -1.</_>
        <_>
          2 16 1 6 2.</_></rects>
      <tilted>0</tilted></_>
    <_>
      <rects>
        <_>
          1 18 2 1 -1.</_>
        <_>
          2 18 1 1 2.</_></rects>
      <tilted>0</tilted></_>
    <_>
      <rects>
        <_>
          1 18 2 6 -1.</_>
        <_>
          1 18 1 3 2.</_>
        <_>
          2 21 1 3 2.</_></rects>
      <tilted>0</tilted></_>
    <_>
      <rects>
        <_>
          1 18 3 6 -1.</_>
        <_>
          1 21 3 3 2.</_></rects>
      <tilted>0</tilted></_>
    <_>
      <rects>
        <_>
          1 22 2 2 -1.</_>
        <_>
          1 22 1 1 2.</_>
        <_>
          2 23 1 1 2.</_></rects>
      <tilted>0</tilted></_>
    <_>
      <rects>
        <_>
          1 22 18 1 -1.</_>
        <_>
          7 22 6 1 3.</_></rects>
      <tilted>0</tilted></_>
    <_>
      <rects>
        <_>
          1 23 3 1 -1.</_>
        <_>
          2 23 1 1 3.</_></rects>
      <tilted>0</tilted></_>
    <_>
      <rects>
        <_>
          2 0 3 2 -1.</_>
        <_>
          3 0 1 2 3.</_></rects>
      <tilted>0</tilted></_>
    <_>
      <rects>
        <_>
          2 0 3 4 -1.</_>
        <_>
          3 0 1 4 3.</_></rects>
      <tilted>0</tilted></_>
    <_>
      <rects>
        <_>
          2 0 3 3 -1.</_>
        <_>
          2 1 3 1 3.</_></rects>
      <tilted>0</tilted></_>
    <_>
      <rects>
        <_>
          2 0 22 4 -1.</_>
        <_>
          2 2 22 2 2.</_></rects>
      <tilted>0</tilted></_>
    <_>
      <rects>
        <_>
          2 1 3 4 -1.</_>
        <_>
          3 1 1 4 3.</_></rects>
      <tilted>0</tilted></_>
    <_>
      <rects>
        <_>
          2 4 22 2 -1.</_>
        <_>
          2 5 22 1 2.</_></rects>
      <tilted>0</tilted></_>
    <_>
      <rects>
        <_>
          2 5 16 16 -1.</_>
        <_>
          10 5 8 16 2.</_></rects>
      <tilted>0</tilted></_>
    <_>
      <rects>
        <_>
          2 7 10 10 -1.</_>
        <_>
          2 7 5 5 2.</_>
        <_>
          7 12 5 5 2.</_></rects>
      <tilted>0</tilted></_>
    <_>
      <rects>
        <_>
          2 8 8 14 -1.</_>
        <_>
          2 8 4 7 2.</_>
        <_>
          6 15 4 7 2.</_></rects>
      <tilted>0</tilted></_>
    <_>
      <rects>
        <_>
          2 15 2 9 -1.</_>
        <_>
          3 15 1 9 2.</_></rects>
      <tilted>0</tilted></_>
    <_>
      <rects>
        <_>
          2 16 21 8 -1.</_>
        <_>
          9 16 7 8 3.</_></rects>
      <tilted>0</tilted></_>
    <_>
      <rects>
        <_>
          2 17 8 2 -1.</_>
        <_>
          2 17 4 1 2.</_>
        <_>
          6 18 4 1 2.</_></rects>
      <tilted>0</tilted></_>
    <_>
      <rects>
        <_>
          2 18 1 3 -1.</_>
        <_>
          2 19 1 1 3.</_></rects>
      <tilted>0</tilted></_>
    <_>
      <rects>
        <_>
          2 19 3 1 -1.</_>
        <_>
          3 19 1 1 3.</_></rects>
      <tilted>0</tilted></_>
    <_>
      <rects>
        <_>
          2 20 2 2 -1.</_>
        <_>
          2 20 1 1 2.</_>
        <_>
          3 21 1 1 2.</_></rects>
      <tilted>0</tilted></_>
    <_>
      <rects>
        <_>
          2 22 3 2 -1.</_>
        <_>
          3 22 1 2 3.</_></rects>
      <tilted>0</tilted></_>
    <_>
      <rects>
        <_>
          2 22 4 2 -1.</_>
        <_>
          4 22 2 2 2.</_></rects>
      <tilted>0</tilted></_>
    <_>
      <rects>
        <_>
          2 23 6 1 -1.</_>
        <_>
          4 23 2 1 3.</_></rects>
      <tilted>0</tilted></_>
    <_>
      <rects>
        <_>
          2 23 6 1 -1.</_>
        <_>
          5 23 3 1 2.</_></rects>
      <tilted>0</tilted></_>
    <_>
      <rects>
        <_>
          2 23 8 1 -1.</_>
        <_>
          6 23 4 1 2.</_></rects>
      <tilted>0</tilted></_>
    <_>
      <rects>
        <_>
          2 23 12 1 -1.</_>
        <_>
          6 23 4 1 3.</_></rects>
      <tilted>0</tilted></_>
    <_>
      <rects>
        <_>
          3 0 18 4 -1.</_>
        <_>
          9 0 6 4 3.</_></rects>
      <tilted>0</tilted></_>
    <_>
      <rects>
        <_>
          3 3 3 8 -1.</_>
        <_>
          3 7 3 4 2.</_></rects>
      <tilted>0</tilted></_>
    <_>
      <rects>
        <_>
          3 3 18 4 -1.</_>
        <_>
          9 3 6 4 3.</_></rects>
      <tilted>0</tilted></_>
    <_>
      <rects>
        <_>
          3 4 6 13 -1.</_>
        <_>
          6 4 3 13 2.</_></rects>
      <tilted>0</tilted></_>
    <_>
      <rects>
        <_>
          3 4 16 15 -1.</_>
        <_>
          3 9 16 5 3.</_></rects>
      <tilted>0</tilted></_>
    <_>
      <rects>
        <_>
          3 5 9 10 -1.</_>
        <_>
          6 5 3 10 3.</_></rects>
      <tilted>0</tilted></_>
    <_>
      <rects>
        <_>
          3 8 4 3 -1.</_>
        <_>
          5 8 2 3 2.</_></rects>
      <tilted>0</tilted></_>
    <_>
      <rects>
        <_>
          3 8 3 3 -1.</_>
        <_>
          3 9 3 1 3.</_></rects>
      <tilted>0</tilted></_>
    <_>
      <rects>
        <_>
          3 8 4 12 -1.</_>
        <_>
          3 12 4 4 3.</_></rects>
      <tilted>0</tilted></_>
    <_>
      <rects>
        <_>
          3 10 6 12 -1.</_>
        <_>
          3 14 6 4 3.</_></rects>
      <tilted>0</tilted></_>
    <_>
      <rects>
        <_>
          3 12 12 12 -1.</_>
        <_>
          3 12 6 6 2.</_>
        <_>
          9 18 6 6 2.</_></rects>
      <tilted>0</tilted></_>
    <_>
      <rects>
        <_>
          3 12 11 3 -1.</_>
        <_>
          3 13 11 1 3.</_></rects>
      <tilted>0</tilted></_>
    <_>
      <rects>
        <_>
          3 12 16 12 -1.</_>
        <_>
          3 16 16 4 3.</_></rects>
      <tilted>0</tilted></_>
    <_>
      <rects>
        <_>
          3 14 12 7 -1.</_>
        <_>
          7 14 4 7 3.</_></rects>
      <tilted>0</tilted></_>
    <_>
      <rects>
        <_>
          3 16 19 3 -1.</_>
        <_>
          3 17 19 1 3.</_></rects>
      <tilted>0</tilted></_>
    <_>
      <rects>
        <_>
          3 17 20 4 -1.</_>
        <_>
          13 17 10 4 2.</_></rects>
      <tilted>0</tilted></_>
    <_>
      <rects>
        <_>
          3 18 2 2 -1.</_>
        <_>
          3 18 1 1 2.</_>
        <_>
          4 19 1 1 2.</_></rects>
      <tilted>0</tilted></_>
    <_>
      <rects>
        <_>
          3 21 4 2 -1.</_>
        <_>
          3 21 2 1 2.</_>
        <_>
          5 22 2 1 2.</_></rects>
      <tilted>0</tilted></_>
    <_>
      <rects>
        <_>
          3 22 4 2 -1.</_>
        <_>
          3 22 2 1 2.</_>
        <_>
          5 23 2 1 2.</_></rects>
      <tilted>0</tilted></_>
    <_>
      <rects>
        <_>
          3 22 21 1 -1.</_>
        <_>
          10 22 7 1 3.</_></rects>
      <tilted>0</tilted></_>
    <_>
      <rects>
        <_>
          3 23 3 1 -1.</_>
        <_>
          4 23 1 1 3.</_></rects>
      <tilted>0</tilted></_>
    <_>
      <rects>
        <_>
          4 0 3 11 -1.</_>
        <_>
          5 0 1 11 3.</_></rects>
      <tilted>0</tilted></_>
    <_>
      <rects>
        <_>
          4 0 17 12 -1.</_>
        <_>
          4 6 17 6 2.</_></rects>
      <tilted>0</tilted></_>
    <_>
      <rects>
        <_>
          4 4 8 12 -1.</_>
        <_>
          4 4 4 6 2.</_>
        <_>
          8 10 4 6 2.</_></rects>
      <tilted>0</tilted></_>
    <_>
      <rects>
        <_>
          4 4 16 4 -1.</_>
        <_>
          4 6 16 2 2.</_></rects>
      <tilted>0</tilted></_>
    <_>
      <rects>
        <_>
          4 7 6 5 -1.</_>
        <_>
          6 7 2 5 3.</_></rects>
      <tilted>0</tilted></_>
    <_>
      <rects>
        <_>
          4 8 20 10 -1.</_>
        <_>
          4 8 10 5 2.</_>
        <_>
          14 13 10 5 2.</_></rects>
      <tilted>0</tilted></_>
    <_>
      <rects>
        <_>
          4 9 8 10 -1.</_>
        <_>
          8 9 4 10 2.</_></rects>
      <tilted>0</tilted></_>
    <_>
      <rects>
        <_>
          4 19 2 2 -1.</_>
        <_>
          4 19 1 1 2.</_>
        <_>
          5 20 1 1 2.</_></rects>
      <tilted>0</tilted></_>
    <_>
      <rects>
        <_>
          4 23 3 1 -1.</_>
        <_>
          5 23 1 1 3.</_></rects>
      <tilted>0</tilted></_>
    <_>
      <rects>
        <_>
          5 0 1 8 -1.</_>
        <_>
          5 4 1 4 2.</_></rects>
      <tilted>0</tilted></_>
    <_>
      <rects>
        <_>
          5 1 12 18 -1.</_>
        <_>
          5 7 12 6 3.</_></rects>
      <tilted>0</tilted></_>
    <_>
      <rects>
        <_>
          5 2 1 6 -1.</_>
        <_>
          5 4 1 2 3.</_></rects>
      <tilted>0</tilted></_>
    <_>
      <rects>
        <_>
          5 3 2 3 -1.</_>
        <_>
          5 4 2 1 3.</_></rects>
      <tilted>0</tilted></_>
    <_>
      <rects>
        <_>
          5 4 4 7 -1.</_>
        <_>
          7 4 2 7 2.</_></rects>
      <tilted>0</tilted></_>
    <_>
      <rects>
        <_>
          5 5 2 2 -1.</_>
        <_>
          5 5 1 1 2.</_>
        <_>
          6 6 1 1 2.</_></rects>
      <tilted>0</tilted></_>
    <_>
      <rects>
        <_>
          5 6 2 5 -1.</_>
        <_>
          6 6 1 5 2.</_></rects>
      <tilted>0</tilted></_>
    <_>
      <rects>
        <_>
          5 7 10 6 -1.</_>
        <_>
          5 9 10 2 3.</_></rects>
      <tilted>0</tilted></_>
    <_>
      <rects>
        <_>
          5 10 14 6 -1.</_>
        <_>
          5 12 14 2 3.</_></rects>
      <tilted>0</tilted></_>
    <_>
      <rects>
        <_>
          5 12 11 2 -1.</_>
        <_>
          5 13 11 1 2.</_></rects>
      <tilted>0</tilted></_>
    <_>
      <rects>
        <_>
          5 12 12 12 -1.</_>
        <_>
          5 16 12 4 3.</_></rects>
      <tilted>0</tilted></_>
    <_>
      <rects>
        <_>
          5 13 15 10 -1.</_>
        <_>
          10 13 5 10 3.</_></rects>
      <tilted>0</tilted></_>
    <_>
      <rects>
        <_>
          5 20 3 2 -1.</_>
        <_>
          6 20 1 2 3.</_></rects>
      <tilted>0</tilted></_>
    <_>
      <rects>
        <_>
          5 21 2 3 -1.</_>
        <_>
          6 21 1 3 2.</_></rects>
      <tilted>0</tilted></_>
    <_>
      <rects>
        <_>
          5 22 2 2 -1.</_>
        <_>
          6 22 1 2 2.</_></rects>
      <tilted>0</tilted></_>
    <_>
      <rects>
        <_>
          6 2 2 6 -1.</_>
        <_>
          6 2 1 3 2.</_>
        <_>
          7 5 1 3 2.</_></rects>
      <tilted>0</tilted></_>
    <_>
      <rects>
        <_>
          6 4 17 4 -1.</_>
        <_>
          6 6 17 2 2.</_></rects>
      <tilted>0</tilted></_>
    <_>
      <rects>
        <_>
          6 10 15 2 -1.</_>
        <_>
          6 11 15 1 2.</_></rects>
      <tilted>0</tilted></_>
    <_>
      <rects>
        <_>
          6 11 3 2 -1.</_>
        <_>
          7 11 1 2 3.</_></rects>
      <tilted>0</tilted></_>
    <_>
      <rects>
        <_>
          6 12 10 2 -1.</_>
        <_>
          6 12 5 1 2.</_>
        <_>
          11 13 5 1 2.</_></rects>
      <tilted>0</tilted></_>
    <_>
      <rects>
        <_>
          6 12 12 12 -1.</_>
        <_>
          6 16 12 4 3.</_></rects>
      <tilted>0</tilted></_>
    <_>
      <rects>
        <_>
          6 16 15 2 -1.</_>
        <_>
          11 16 5 2 3.</_></rects>
      <tilted>0</tilted></_>
    <_>
      <rects>
        <_>
          6 23 2 1 -1.</_>
        <_>
          7 23 1 1 2.</_></rects>
      <tilted>0</tilted></_>
    <_>
      <rects>
        <_>
          7 0 3 17 -1.</_>
        <_>
          8 0 1 17 3.</_></rects>
      <tilted>0</tilted></_>
    <_>
      <rects>
        <_>
          7 0 9 13 -1.</_>
        <_>
          10 0 3 13 3.</_></rects>
      <tilted>0</tilted></_>
    <_>
      <rects>
        <_>
          7 0 10 12 -1.</_>
        <_>
          7 0 5 6 2.</_>
        <_>
          12 6 5 6 2.</_></rects>
      <tilted>0</tilted></_>
    <_>
      <rects>
        <_>
          7 5 15 7 -1.</_>
        <_>
          12 5 5 7 3.</_></rects>
      <tilted>0</tilted></_>
    <_>
      <rects>
        <_>
          7 10 2 2 -1.</_>
        <_>
          7 11 2 1 2.</_></rects>
      <tilted>0</tilted></_>
    <_>
      <rects>
        <_>
          7 10 2 4 -1.</_>
        <_>
          7 12 2 2 2.</_></rects>
      <tilted>0</tilted></_>
    <_>
      <rects>
        <_>
          7 10 12 4 -1.</_>
        <_>
          11 10 4 4 3.</_></rects>
      <tilted>0</tilted></_>
    <_>
      <rects>
        <_>
          7 11 1 12 -1.</_>
        <_>
          7 15 1 4 3.</_></rects>
      <tilted>0</tilted></_>
    <_>
      <rects>
        <_>
          7 12 1 12 -1.</_>
        <_>
          7 16 1 4 3.</_></rects>
      <tilted>0</tilted></_>
    <_>
      <rects>
        <_>
          7 12 12 2 -1.</_>
        <_>
          7 13 12 1 2.</_></rects>
      <tilted>0</tilted></_>
    <_>
      <rects>
        <_>
          7 13 5 4 -1.</_>
        <_>
          7 15 5 2 2.</_></rects>
      <tilted>0</tilted></_>
    <_>
      <rects>
        <_>
          7 20 6 4 -1.</_>
        <_>
          9 20 2 4 3.</_></rects>
      <tilted>0</tilted></_>
    <_>
      <rects>
        <_>
          7 22 3 2 -1.</_>
        <_>
          8 22 1 2 3.</_></rects>
      <tilted>0</tilted></_>
    <_>
      <rects>
        <_>
          7 22 4 2 -1.</_>
        <_>
          9 22 2 2 2.</_></rects>
      <tilted>0</tilted></_>
    <_>
      <rects>
        <_>
          7 23 6 1 -1.</_>
        <_>
          9 23 2 1 3.</_></rects>
      <tilted>0</tilted></_>
    <_>
      <rects>
        <_>
          8 0 3 8 -1.</_>
        <_>
          9 0 1 8 3.</_></rects>
      <tilted>0</tilted></_>
    <_>
      <rects>
        <_>
          8 0 6 20 -1.</_>
        <_>
          10 0 2 20 3.</_></rects>
      <tilted>0</tilted></_>
    <_>
      <rects>
        <_>
          8 1 3 10 -1.</_>
        <_>
          9 1 1 10 3.</_></rects>
      <tilted>0</tilted></_>
    <_>
      <rects>
        <_>
          8 1 7 15 -1.</_>
        <_>
          8 6 7 5 3.</_></rects>
      <tilted>0</tilted></_>
    <_>
      <rects>
        <_>
          8 1 16 2 -1.</_>
        <_>
          8 2 16 1 2.</_></rects>
      <tilted>0</tilted></_>
    <_>
      <rects>
        <_>
          8 6 3 14 -1.</_>
        <_>
          8 13 3 7 2.</_></rects>
      <tilted>0</tilted></_>
    <_>
      <rects>
        <_>
          8 7 12 16 -1.</_>
        <_>
          8 7 6 8 2.</_>
        <_>
          14 15 6 8 2.</_></rects>
      <tilted>0</tilted></_>
    <_>
      <rects>
        <_>
          8 11 4 9 -1.</_>
        <_>
          10 11 2 9 2.</_></rects>
      <tilted>0</tilted></_>
    <_>
      <rects>
        <_>
          8 13 6 1 -1.</_>
        <_>
          10 13 2 1 3.</_></rects>
      <tilted>0</tilted></_>
    <_>
      <rects>
        <_>
          8 17 9 2 -1.</_>
        <_>
          11 17 3 2 3.</_></rects>
      <tilted>0</tilted></_>
    <_>
      <rects>
        <_>
          8 20 3 4 -1.</_>
        <_>
          9 20 1 4 3.</_></rects>
      <tilted>0</tilted></_>
    <_>
      <rects>
        <_>
          8 20 12 2 -1.</_>
        <_>
          12 20 4 2 3.</_></rects>
      <tilted>0</tilted></_>
    <_>
      <rects>
        <_>
          8 21 2 3 -1.</_>
        <_>
          8 22 2 1 3.</_></rects>
      <tilted>0</tilted></_>
    <_>
      <rects>
        <_>
          8 22 4 2 -1.</_>
        <_>
          10 22 2 2 2.</_></rects>
      <tilted>0</tilted></_>
    <_>
      <rects>
        <_>
          9 0 7 3 -1.</_>
        <_>
          9 1 7 1 3.</_></rects>
      <tilted>0</tilted></_>
    <_>
      <rects>
        <_>
          9 3 2 4 -1.</_>
        <_>
          10 3 1 4 2.</_></rects>
      <tilted>0</tilted></_>
    <_>
      <rects>
        <_>
          9 5 3 13 -1.</_>
        <_>
          10 5 1 13 3.</_></rects>
      <tilted>0</tilted></_>
    <_>
      <rects>
        <_>
          9 6 3 3 -1.</_>
        <_>
          9 7 3 1 3.</_></rects>
      <tilted>0</tilted></_>
    <_>
      <rects>
        <_>
          9 9 12 13 -1.</_>
        <_>
          13 9 4 13 3.</_></rects>
      <tilted>0</tilted></_>
    <_>
      <rects>
        <_>
          9 14 3 10 -1.</_>
        <_>
          9 19 3 5 2.</_></rects>
      <tilted>0</tilted></_>
    <_>
      <rects>
        <_>
          9 16 4 8 -1.</_>
        <_>
          11 16 2 8 2.</_></rects>
      <tilted>0</tilted></_>
    <_>
      <rects>
        <_>
          10 1 4 6 -1.</_>
        <_>
          10 3 4 2 3.</_></rects>
      <tilted>0</tilted></_>
    <_>
      <rects>
        <_>
          10 3 12 8 -1.</_>
        <_>
          10 3 6 4 2.</_>
        <_>
          16 7 6 4 2.</_></rects>
      <tilted>0</tilted></_>
    <_>
      <rects>
        <_>
          10 10 12 4 -1.</_>
        <_>
          10 10 6 2 2.</_>
        <_>
          16 12 6 2 2.</_></rects>
      <tilted>0</tilted></_>
    <_>
      <rects>
        <_>
          10 17 11 6 -1.</_>
        <_>
          10 19 11 2 3.</_></rects>
      <tilted>0</tilted></_>
    <_>
      <rects>
        <_>
          10 20 3 4 -1.</_>
        <_>
          11 20 1 4 3.</_></rects>
      <tilted>0</tilted></_>
    <_>
      <rects>
        <_>
          11 0 3 1 -1.</_>
        <_>
          12 0 1 1 3.</_></rects>
      <tilted>0</tilted></_>
    <_>
      <rects>
        <_>
          11 0 1 4 -1.</_>
        <_>
          11 2 1 2 2.</_></rects>
      <tilted>0</tilted></_>
    <_>
      <rects>
        <_>
          11 0 8 4 -1.</_>
        <_>
          11 2 8 2 2.</_></rects>
      <tilted>0</tilted></_>
    <_>
      <rects>
        <_>
          11 3 2 8 -1.</_>
        <_>
          11 3 1 4 2.</_>
        <_>
          12 7 1 4 2.</_></rects>
      <tilted>0</tilted></_>
    <_>
      <rects>
        <_>
          11 9 6 12 -1.</_>
        <_>
          11 13 6 4 3.</_></rects>
      <tilted>0</tilted></_>
    <_>
      <rects>
        <_>
          11 10 6 8 -1.</_>
        <_>
          11 14 6 4 2.</_></rects>
      <tilted>0</tilted></_>
    <_>
      <rects>
        <_>
          11 12 4 4 -1.</_>
        <_>
          11 12 2 2 2.</_>
        <_>
          13 14 2 2 2.</_></rects>
      <tilted>0</tilted></_>
    <_>
      <rects>
        <_>
          11 21 3 1 -1.</_>
        <_>
          12 21 1 1 3.</_></rects>
      <tilted>0</tilted></_>
    <_>
      <rects>
        <_>
          11 22 3 2 -1.</_>
        <_>
          12 22 1 2 3.</_></rects>
      <tilted>0</tilted></_>
    <_>
      <rects>
        <_>
          12 0 3 21 -1.</_>
        <_>
          12 7 3 7 3.</_></rects>
      <tilted>0</tilted></_>
    <_>
      <rects>
        <_>
          12 1 6 3 -1.</_>
        <_>
          14 1 2 3 3.</_></rects>
      <tilted>0</tilted></_>
    <_>
      <rects>
        <_>
          12 3 6 9 -1.</_>
        <_>
          14 3 2 9 3.</_></rects>
      <tilted>0</tilted></_>
    <_>
      <rects>
        <_>
          12 4 4 18 -1.</_>
        <_>
          12 10 4 6 3.</_></rects>
      <tilted>0</tilted></_>
    <_>
      <rects>
        <_>
          12 5 3 8 -1.</_>
        <_>
          12 9 3 4 2.</_></rects>
      <tilted>0</tilted></_>
    <_>
      <rects>
        <_>
          12 7 6 2 -1.</_>
        <_>
          12 7 3 1 2.</_>
        <_>
          15 8 3 1 2.</_></rects>
      <tilted>0</tilted></_>
    <_>
      <rects>
        <_>
          12 11 4 2 -1.</_>
        <_>
          12 11 2 1 2.</_>
        <_>
          14 12 2 1 2.</_></rects>
      <tilted>0</tilted></_>
    <_>
      <rects>
        <_>
          12 11 8 8 -1.</_>
        <_>
          12 15 8 4 2.</_></rects>
      <tilted>0</tilted></_>
    <_>
      <rects>
        <_>
          12 15 5 9 -1.</_>
        <_>
          12 18 5 3 3.</_></rects>
      <tilted>0</tilted></_>
    <_>
      <rects>
        <_>
          12 16 3 4 -1.</_>
        <_>
          13 16 1 4 3.</_></rects>
      <tilted>0</tilted></_>
    <_>
      <rects>
        <_>
          12 16 10 2 -1.</_>
        <_>
          17 16 5 2 2.</_></rects>
      <tilted>0</tilted></_>
    <_>
      <rects>
        <_>
          12 18 3 6 -1.</_>
        <_>
          13 18 1 6 3.</_></rects>
      <tilted>0</tilted></_>
    <_>
      <rects>
        <_>
          12 19 12 4 -1.</_>
        <_>
          16 19 4 4 3.</_></rects>
      <tilted>0</tilted></_>
    <_>
      <rects>
        <_>
          12 22 3 1 -1.</_>
        <_>
          13 22 1 1 3.</_></rects>
      <tilted>0</tilted></_>
    <_>
      <rects>
        <_>
          12 23 3 1 -1.</_>
        <_>
          13 23 1 1 3.</_></rects>
      <tilted>0</tilted></_>
    <_>
      <rects>
        <_>
          13 0 3 15 -1.</_>
        <_>
          14 0 1 15 3.</_></rects>
      <tilted>0</tilted></_>
    <_>
      <rects>
        <_>
          13 1 8 1 -1.</_>
        <_>
          17 1 4 1 2.</_></rects>
      <tilted>0</tilted></_>
    <_>
      <rects>
        <_>
          13 2 2 10 -1.</_>
        <_>
          13 2 1 5 2.</_>
        <_>
          14 7 1 5 2.</_></rects>
      <tilted>0</tilted></_>
    <_>
      <rects>
        <_>
          13 2 9 4 -1.</_>
        <_>
          13 4 9 2 2.</_></rects>
      <tilted>0</tilted></_>
    <_>
      <rects>
        <_>
          13 5 8 8 -1.</_>
        <_>
          17 5 4 8 2.</_></rects>
      <tilted>0</tilted></_>
    <_>
      <rects>
        <_>
          13 18 2 4 -1.</_>
        <_>
          14 18 1 4 2.</_></rects>
      <tilted>0</tilted></_>
    <_>
      <rects>
        <_>
          13 18 6 4 -1.</_>
        <_>
          13 20 6 2 2.</_></rects>
      <tilted>0</tilted></_>
    <_>
      <rects>
        <_>
          13 19 3 1 -1.</_>
        <_>
          14 19 1 1 3.</_></rects>
      <tilted>0</tilted></_>
    <_>
      <rects>
        <_>
          14 1 1 21 -1.</_>
        <_>
          14 8 1 7 3.</_></rects>
      <tilted>0</tilted></_>
    <_>
      <rects>
        <_>
          14 1 10 4 -1.</_>
        <_>
          14 1 5 2 2.</_>
        <_>
          19 3 5 2 2.</_></rects>
      <tilted>0</tilted></_>
    <_>
      <rects>
        <_>
          14 6 3 3 -1.</_>
        <_>
          15 6 1 3 3.</_></rects>
      <tilted>0</tilted></_>
    <_>
      <rects>
        <_>
          14 13 8 8 -1.</_>
        <_>
          14 13 4 4 2.</_>
        <_>
          18 17 4 4 2.</_></rects>
      <tilted>0</tilted></_>
    <_>
      <rects>
        <_>
          14 13 10 3 -1.</_>
        <_>
          14 14 10 1 3.</_></rects>
      <tilted>0</tilted></_>
    <_>
      <rects>
        <_>
          14 21 3 3 -1.</_>
        <_>
          15 21 1 3 3.</_></rects>
      <tilted>0</tilted></_>
    <_>
      <rects>
        <_>
          14 22 4 2 -1.</_>
        <_>
          16 22 2 2 2.</_></rects>
      <tilted>0</tilted></_>
    <_>
      <rects>
        <_>
          14 23 6 1 -1.</_>
        <_>
          16 23 2 1 3.</_></rects>
      <tilted>0</tilted></_>
    <_>
      <rects>
        <_>
          15 0 3 11 -1.</_>
        <_>
          16 0 1 11 3.</_></rects>
      <tilted>0</tilted></_>
    <_>
      <rects>
        <_>
          15 2 2 12 -1.</_>
        <_>
          15 2 1 6 2.</_>
        <_>
          16 8 1 6 2.</_></rects>
      <tilted>0</tilted></_>
    <_>
      <rects>
        <_>
          15 2 8 2 -1.</_>
        <_>
          15 2 4 1 2.</_>
        <_>
          19 3 4 1 2.</_></rects>
      <tilted>0</tilted></_>
    <_>
      <rects>
        <_>
          15 5 6 8 -1.</_>
        <_>
          15 5 3 4 2.</_>
        <_>
          18 9 3 4 2.</_></rects>
      <tilted>0</tilted></_>
    <_>
      <rects>
        <_>
          15 10 5 12 -1.</_>
        <_>
          15 14 5 4 3.</_></rects>
      <tilted>0</tilted></_>
    <_>
      <rects>
        <_>
          15 14 1 6 -1.</_>
        <_>
          15 16 1 2 3.</_></rects>
      <tilted>0</tilted></_>
    <_>
      <rects>
        <_>
          15 14 9 5 -1.</_>
        <_>
          18 14 3 5 3.</_></rects>
      <tilted>0</tilted></_>
    <_>
      <rects>
        <_>
          15 15 2 1 -1.</_>
        <_>
          16 15 1 1 2.</_></rects>
      <tilted>0</tilted></_>
    <_>
      <rects>
        <_>
          15 21 4 2 -1.</_>
        <_>
          15 22 4 1 2.</_></rects>
      <tilted>0</tilted></_>
    <_>
      <rects>
        <_>
          15 23 3 1 -1.</_>
        <_>
          16 23 1 1 3.</_></rects>
      <tilted>0</tilted></_>
    <_>
      <rects>
        <_>
          16 0 2 8 -1.</_>
        <_>
          17 0 1 8 2.</_></rects>
      <tilted>0</tilted></_>
    <_>
      <rects>
        <_>
          16 0 3 9 -1.</_>
        <_>
          17 0 1 9 3.</_></rects>
      <tilted>0</tilted></_>
    <_>
      <rects>
        <_>
          16 0 3 14 -1.</_>
        <_>
          17 0 1 14 3.</_></rects>
      <tilted>0</tilted></_>
    <_>
      <rects>
        <_>
          16 0 6 19 -1.</_>
        <_>
          18 0 2 19 3.</_></rects>
      <tilted>0</tilted></_>
    <_>
      <rects>
        <_>
          16 2 3 20 -1.</_>
        <_>
          17 2 1 20 3.</_></rects>
      <tilted>0</tilted></_>
    <_>
      <rects>
        <_>
          16 4 8 2 -1.</_>
        <_>
          16 5 8 1 2.</_></rects>
      <tilted>0</tilted></_>
    <_>
      <rects>
        <_>
          16 5 8 10 -1.</_>
        <_>
          16 5 4 5 2.</_>
        <_>
          20 10 4 5 2.</_></rects>
      <tilted>0</tilted></_>
    <_>
      <rects>
        <_>
          16 8 1 9 -1.</_>
        <_>
          16 11 1 3 3.</_></rects>
      <tilted>0</tilted></_>
    <_>
      <rects>
        <_>
          16 10 8 2 -1.</_>
        <_>
          16 11 8 1 2.</_></rects>
      <tilted>0</tilted></_>
    <_>
      <rects>
        <_>
          16 13 4 1 -1.</_>
        <_>
          18 13 2 1 2.</_></rects>
      <tilted>0</tilted></_>
    <_>
      <rects>
        <_>
          16 21 8 3 -1.</_>
        <_>
          20 21 4 3 2.</_></rects>
      <tilted>0</tilted></_>
    <_>
      <rects>
        <_>
          17 2 4 1 -1.</_>
        <_>
          19 2 2 1 2.</_></rects>
      <tilted>0</tilted></_>
    <_>
      <rects>
        <_>
          17 6 3 4 -1.</_>
        <_>
          18 6 1 4 3.</_></rects>
      <tilted>0</tilted></_>
    <_>
      <rects>
        <_>
          17 11 1 10 -1.</_>
        <_>
          17 16 1 5 2.</_></rects>
      <tilted>0</tilted></_>
    <_>
      <rects>
        <_>
          17 20 6 4 -1.</_>
        <_>
          20 20 3 4 2.</_></rects>
      <tilted>0</tilted></_>
    <_>
      <rects>
        <_>
          18 0 4 1 -1.</_>
        <_>
          20 0 2 1 2.</_></rects>
      <tilted>0</tilted></_>
    <_>
      <rects>
        <_>
          18 1 3 10 -1.</_>
        <_>
          19 1 1 10 3.</_></rects>
      <tilted>0</tilted></_>
    <_>
      <rects>
        <_>
          18 1 3 11 -1.</_>
        <_>
          19 1 1 11 3.</_></rects>
      <tilted>0</tilted></_>
    <_>
      <rects>
        <_>
          18 2 3 5 -1.</_>
        <_>
          19 2 1 5 3.</_></rects>
      <tilted>0</tilted></_>
    <_>
      <rects>
        <_>
          18 2 2 12 -1.</_>
        <_>
          18 8 2 6 2.</_></rects>
      <tilted>0</tilted></_>
    <_>
      <rects>
        <_>
          18 21 5 2 -1.</_>
        <_>
          18 22 5 1 2.</_></rects>
      <tilted>0</tilted></_>
    <_>
      <rects>
        <_>
          19 2 4 12 -1.</_>
        <_>
          19 2 2 6 2.</_>
        <_>
          21 8 2 6 2.</_></rects>
      <tilted>0</tilted></_>
    <_>
      <rects>
        <_>
          19 3 4 10 -1.</_>
        <_>
          19 3 2 5 2.</_>
        <_>
          21 8 2 5 2.</_></rects>
      <tilted>0</tilted></_>
    <_>
      <rects>
        <_>
          19 4 4 9 -1.</_>
        <_>
          21 4 2 9 2.</_></rects>
      <tilted>0</tilted></_>
    <_>
      <rects>
        <_>
          19 5 4 14 -1.</_>
        <_>
          19 5 2 7 2.</_>
        <_>
          21 12 2 7 2.</_></rects>
      <tilted>0</tilted></_>
    <_>
      <rects>
        <_>
          19 13 4 3 -1.</_>
        <_>
          19 14 4 1 3.</_></rects>
      <tilted>0</tilted></_>
    <_>
      <rects>
        <_>
          19 18 4 6 -1.</_>
        <_>
          21 18 2 6 2.</_></rects>
      <tilted>0</tilted></_>
    <_>
      <rects>
        <_>
          19 22 2 2 -1.</_>
        <_>
          19 22 1 1 2.</_>
        <_>
          20 23 1 1 2.</_></rects>
