<?xml version="1.0"?>
<opencv_storage>
<cascade>
  <stageType>BOOST</stageType>
  <featureType>HAAR</featureType>
  <height>32</height>
  <width>32</width>
  <stageParams>
    <boostType>GAB</boostType>
    <minHitRate>9.9500000476837158e-01</minHitRate>
    <maxFalseAlarm>5.0000000000000000e-01</maxFalseAlarm>
    <weightTrimRate>9.4999999999999996e-01</weightTrimRate>
    <maxDepth>1</maxDepth>
    <maxWeakCount>100</maxWeakCount></stageParams>
  <featureParams>
    <maxCatCount>0</maxCatCount>
    <featSize>1</featSize>
    <mode>BASIC</mode></featureParams>
  <stageNum>20</stageNum>
  <stages>
    <!-- stage 0 -->
    <_>
      <maxWeakCount>2</maxWeakCount>
      <stageThreshold>1.0431797802448273e-01</stageThreshold>
      <weakClassifiers>
        <_>
          <internalNodes>
            0 -1 28 -1.9080605357885361e-02</internalNodes>
          <leafValues>
            9.1150444746017456e-01 -8.0000001192092896e-01</leafValues></_>
        <_>
          <internalNodes>
            0 -1 15 -3.2321834005415440e-03</internalNodes>
          <leafValues>
            9.1316080093383789e-01 -8.0718642473220825e-01</leafValues></_></weakClassifiers></_>
    <!-- stage 1 -->
    <_>
      <maxWeakCount>2</maxWeakCount>
      <stageThreshold>1.4445686340332031e-01</stageThreshold>
      <weakClassifiers>
        <_>
          <internalNodes>
            0 -1 50 -7.8782681375741959e-03</internalNodes>
          <leafValues>
            8.9285713434219360e-01 -7.0731705427169800e-01</leafValues></_>
        <_>
          <internalNodes>
            0 -1 68 -2.4405536241829395e-03</internalNodes>
          <leafValues>
            8.7436378002166748e-01 -7.4840027093887329e-01</leafValues></_></weakClassifiers></_>
    <!-- stage 2 -->
    <_>
      <maxWeakCount>2</maxWeakCount>
      <stageThreshold>2.5334209203720093e-01</stageThreshold>
      <weakClassifiers>
        <_>
          <internalNodes>
            0 -1 62 -4.7435410320758820e-02</internalNodes>
          <leafValues>
            8.9189189672470093e-01 -6.6666668653488159e-01</leafValues></_>
        <_>
          <internalNodes>
            0 -1 9 6.5246529877185822e-02</internalNodes>
          <leafValues>
            -6.1099904775619507e-01 9.2000877857208252e-01</leafValues></_></weakClassifiers></_>
    <!-- stage 3 -->
    <_>
      <maxWeakCount>2</maxWeakCount>
      <stageThreshold>7.6527491211891174e-02</stageThreshold>
      <weakClassifiers>
        <_>
          <internalNodes>
            0 -1 51 1.2876702472567558e-02</internalNodes>
          <leafValues>
            -8.5185188055038452e-01 7.4603176116943359e-01</leafValues></_>
        <_>
          <internalNodes>
            0 -1 13 -8.7561279535293579e-02</internalNodes>
          <leafValues>
            9.2837935686111450e-01 -5.9303379058837891e-01</leafValues></_></weakClassifiers></_>
    <!-- stage 4 -->
    <_>
      <maxWeakCount>4</maxWeakCount>
      <stageThreshold>2.3083345592021942e-01</stageThreshold>
      <weakClassifiers>
        <_>
          <internalNodes>
            0 -1 70 3.0041807331144810e-03</internalNodes>
          <leafValues>
            -4.4680851697921753e-01 8.6792451143264771e-01</leafValues></_>
        <_>
          <internalNodes>
            0 -1 3 -1.5681885182857513e-02</internalNodes>
          <leafValues>
            9.2927241325378418e-01 -5.8561062812805176e-01</leafValues></_>
        <_>
          <internalNodes>
            0 -1 14 1.6647811979055405e-02</internalNodes>
          <leafValues>
            -6.9599717855453491e-01 7.9331266880035400e-01</leafValues></_>
        <_>
          <internalNodes>
            0 -1 56 4.6650425065308809e-04</internalNodes>
          <leafValues>
            6.4451670646667480e-01 -7.4633455276489258e-01</leafValues></_></weakClassifiers></_>
    <!-- stage 5 -->
    <_>
      <maxWeakCount>3</maxWeakCount>
      <stageThreshold>-7.0433145761489868e-01</stageThreshold>
      <weakClassifiers>
        <_>
          <internalNodes>
            0 -1 29 -7.8958636149764061e-03</internalNodes>
          <leafValues>
            -9.2000001668930054e-01 7.3437500000000000e-01</leafValues></_>
        <_>
          <internalNodes>
            0 -1 39 6.8095809547230601e-04</internalNodes>
          <leafValues>
            -5.9207302331924438e-01 7.7918374538421631e-01</leafValues></_>
        <_>
          <internalNodes>
            0 -1 35 3.7745456211268902e-04</internalNodes>
          <leafValues>
            5.6250214576721191e-01 -8.4663343429565430e-01</leafValues></_></weakClassifiers></_>
    <!-- stage 6 -->
    <_>
      <maxWeakCount>4</maxWeakCount>
      <stageThreshold>4.3338513374328613e-01</stageThreshold>
      <weakClassifiers>
        <_>
          <internalNodes>
            0 -1 23 -3.6689117550849915e-03</internalNodes>
          <leafValues>
            7.7777779102325439e-01 -5.5555558204650879e-01</leafValues></_>
        <_>
          <internalNodes>
            0 -1 48 -4.7398908063769341e-03</internalNodes>
          <leafValues>
            7.4588036537170410e-01 -6.6433060169219971e-01</leafValues></_>
        <_>
          <internalNodes>
            0 -1 17 8.2728728652000427e-02</internalNodes>
          <leafValues>
            -5.3184294700622559e-01 9.6064895391464233e-01</leafValues></_>
        <_>
          <internalNodes>
            0 -1 63 8.6851239204406738e-02</internalNodes>
          <leafValues>
            -5.1611644029617310e-01 8.5178095102310181e-01</leafValues></_></weakClassifiers></_>
    <!-- stage 7 -->
    <_>
      <maxWeakCount>3</maxWeakCount>
      <stageThreshold>5.1467323303222656e-01</stageThreshold>
      <weakClassifiers>
        <_>
          <internalNodes>
            0 -1 57 -4.0649072616361082e-04</internalNodes>
          <leafValues>
            -9.1666668653488159e-01 7.2093021869659424e-01</leafValues></_>
        <_>
          <internalNodes>
            0 -1 22 5.4603323340415955e-02</internalNodes>
          <leafValues>
            -7.0468044281005859e-01 7.5570189952850342e-01</leafValues></_>
        <_>
          <internalNodes>
            0 -1 45 2.1740466356277466e-02</internalNodes>
          <leafValues>
            -8.4337198734283447e-01 6.7563796043395996e-01</leafValues></_></weakClassifiers></_>
    <!-- stage 8 -->
    <_>
      <maxWeakCount>3</maxWeakCount>
      <stageThreshold>4.3313604593276978e-01</stageThreshold>
      <weakClassifiers>
        <_>
          <internalNodes>
            0 -1 49 1.5898566925898194e-04</internalNodes>
          <leafValues>
            7.5999999046325684e-01 -8.5714286565780640e-01</leafValues></_>
        <_>
          <internalNodes>
            0 -1 58 3.5907243727706373e-05</internalNodes>
          <leafValues>
            6.7126888036727905e-01 -7.7309411764144897e-01</leafValues></_>
        <_>
          <internalNodes>
            0 -1 42 1.1361757060512900e-04</internalNodes>
          <leafValues>
            6.1901003122329712e-01 -8.5727286338806152e-01</leafValues></_></weakClassifiers></_>
    <!-- stage 9 -->
    <_>
      <maxWeakCount>3</maxWeakCount>
      <stageThreshold>-7.0579403638839722e-01</stageThreshold>
      <weakClassifiers>
        <_>
          <internalNodes>
            0 -1 40 9.3262839072849602e-05</internalNodes>
          <leafValues>
            7.5999999046325684e-01 -8.5714286565780640e-01</leafValues></_>
        <_>
          <internalNodes>
            0 -1 21 2.1540513262152672e-03</internalNodes>
          <leafValues>
            -6.6339844465255737e-01 8.5317277908325195e-01</leafValues></_>
        <_>
          <internalNodes>
            0 -1 43 -2.2100616479292512e-04</internalNodes>
          <leafValues>
            -8.0239564180374146e-01 6.7977339029312134e-01</leafValues></_></weakClassifiers></_>
    <!-- stage 10 -->
    <_>
      <maxWeakCount>4</maxWeakCount>
      <stageThreshold>3.6841280758380890e-02</stageThreshold>
      <weakClassifiers>
        <_>
          <internalNodes>
            0 -1 37 2.7543862233869731e-04</internalNodes>
          <leafValues>
            7.3015874624252319e-01 -7.7777779102325439e-01</leafValues></_>
        <_>
          <internalNodes>
            0 -1 65 4.0552064776420593e-02</internalNodes>
          <leafValues>
            -4.8732700943946838e-01 8.2140946388244629e-01</leafValues></_>
        <_>
          <internalNodes>
            0 -1 2 4.5341346412897110e-03</internalNodes>
          <leafValues>
            -5.2612560987472534e-01 6.9404488801956177e-01</leafValues></_>
        <_>
          <internalNodes>
            0 -1 47 4.0454743430018425e-04</internalNodes>
          <leafValues>
            5.1933521032333374e-01 -7.2158944606781006e-01</leafValues></_></weakClassifiers></_>
    <!-- stage 11 -->
    <_>
      <maxWeakCount>5</maxWeakCount>
      <stageThreshold>-4.2393636703491211e-01</stageThreshold>
      <weakClassifiers>
        <_>
          <internalNodes>
            0 -1 18 -3.5997550003230572e-04</internalNodes>
          <leafValues>
            7.1428573131561279e-01 -4.1176471114158630e-01</leafValues></_>
        <_>
          <internalNodes>
            0 -1 30 7.7722463756799698e-03</internalNodes>
          <leafValues>
            -4.2896947264671326e-01 6.9549471139907837e-01</leafValues></_>
        <_>
          <internalNodes>
            0 -1 27 -1.2460988014936447e-02</internalNodes>
          <leafValues>
            7.4676030874252319e-01 -4.9300211668014526e-01</leafValues></_>
        <_>
          <internalNodes>
            0 -1 41 -1.8795102369040251e-03</internalNodes>
          <leafValues>
            4.7694095969200134e-01 -8.2913893461227417e-01</leafValues></_>
        <_>
          <internalNodes>
            0 -1 4 -3.9725750684738159e-03</internalNodes>
          <leafValues>
            8.0461227893829346e-01 -5.1157575845718384e-01</leafValues></_></weakClassifiers></_>
    <!-- stage 12 -->
    <_>
      <maxWeakCount>4</maxWeakCount>
      <stageThreshold>3.1620824337005615e-01</stageThreshold>
      <weakClassifiers>
        <_>
          <internalNodes>
            0 -1 10 -1.8647750839591026e-02</internalNodes>
          <leafValues>
            7.4789917469024658e-01 -5.2941179275512695e-01</leafValues></_>
        <_>
          <internalNodes>
            0 -1 55 -1.0131090879440308e-01</internalNodes>
          <leafValues>
            7.3044288158416748e-01 -5.4629141092300415e-01</leafValues></_>
        <_>
          <internalNodes>
            0 -1 5 -4.6140226913848892e-05</internalNodes>
          <leafValues>
            -6.0023945569992065e-01 6.8014550209045410e-01</leafValues></_>
        <_>
          <internalNodes>
            0 -1 32 -5.1032556220889091e-03</internalNodes>
          <leafValues>
            7.9476267099380493e-01 -5.6189435720443726e-01</leafValues></_></weakClassifiers></_>
    <!-- stage 13 -->
    <_>
      <maxWeakCount>5</maxWeakCount>
      <stageThreshold>-3.0849072337150574e-01</stageThreshold>
      <weakClassifiers>
        <_>
          <internalNodes>
            0 -1 44 -7.5111836194992065e-03</internalNodes>
          <leafValues>
            8.0769228935241699e-01 -2.6530611515045166e-01</leafValues></_>
        <_>
          <internalNodes>
            0 -1 60 4.9149751663208008e-02</internalNodes>
          <leafValues>
            -4.8576852679252625e-01 8.1035006046295166e-01</leafValues></_>
        <_>
          <internalNodes>
            0 -1 24 4.6587814722442999e-05</internalNodes>
          <leafValues>
            5.9403288364410400e-01 -6.4739757776260376e-01</leafValues></_>
        <_>
          <internalNodes>
            0 -1 46 1.4566678553819656e-02</internalNodes>
          <leafValues>
            -7.2716343402862549e-01 5.1254183053970337e-01</leafValues></_>
        <_>
          <internalNodes>
            0 -1 8 -2.3025292903184891e-02</internalNodes>
          <leafValues>
            5.7571452856063843e-01 -7.1352964639663696e-01</leafValues></_></weakClassifiers></_>
    <!-- stage 14 -->
    <_>
      <maxWeakCount>4</maxWeakCount>
      <stageThreshold>-1.6336014866828918e-01</stageThreshold>
      <weakClassifiers>
        <_>
          <internalNodes>
            0 -1 59 -8.2814571214839816e-05</internalNodes>
          <leafValues>
            -8.9473682641983032e-01 6.5671640634536743e-01</leafValues></_>
        <_>
          <internalNodes>
            0 -1 1 2.3270122706890106e-02</internalNodes>
          <leafValues>
            -7.1060246229171753e-01 5.0219076871871948e-01</leafValues></_>
        <_>
          <internalNodes>
            0 -1 33 -9.4199270009994507e-02</internalNodes>
          <leafValues>
            5.3473246097564697e-01 -8.5522806644439697e-01</leafValues></_>
        <_>
          <internalNodes>
            0 -1 54 4.4319694861769676e-03</internalNodes>
          <leafValues>
            -4.6703928709030151e-01 8.6499387025833130e-01</leafValues></_></weakClassifiers></_>
    <!-- stage 15 -->
    <_>
      <maxWeakCount>5</maxWeakCount>
      <stageThreshold>1.1908178031444550e-01</stageThreshold>
      <weakClassifiers>
        <_>
          <internalNodes>
            0 -1 6 -2.5146737694740295e-02</internalNodes>
          <leafValues>
            7.1428573131561279e-01 -4.1176471114158630e-01</leafValues></_>
        <_>
          <internalNodes>
            0 -1 0 -3.5451506846584380e-04</internalNodes>
          <leafValues>
            -7.7594935894012451e-01 4.4834235310554504e-01</leafValues></_>
        <_>
          <internalNodes>
            0 -1 71 1.6337378474418074e-04</internalNodes>
          <leafValues>
            3.7332049012184143e-01 -8.2770770788192749e-01</leafValues></_>
        <_>
          <internalNodes>
            0 -1 53 -1.4448880683630705e-03</internalNodes>
          <leafValues>
            6.1446398496627808e-01 -5.5614495277404785e-01</leafValues></_>
        <_>
          <internalNodes>
            0 -1 19 -8.8519379496574402e-03</internalNodes>
          <leafValues>
            3.9398911595344543e-01 -7.8121894598007202e-01</leafValues></_></weakClassifiers></_>
    <!-- stage 16 -->
    <_>
      <maxWeakCount>5</maxWeakCount>
      <stageThreshold>-2.5630289316177368e-01</stageThreshold>
      <weakClassifiers>
        <_>
          <internalNodes>
            0 -1 38 -1.5301202074624598e-04</internalNodes>
          <leafValues>
            -8.1818181276321411e-01 6.7938929796218872e-01</leafValues></_>
        <_>
          <internalNodes>
            0 -1 66 -1.6244847327470779e-02</internalNodes>
          <leafValues>
            7.4260669946670532e-01 -5.4649603366851807e-01</leafValues></_>
        <_>
          <internalNodes>
            0 -1 16 6.1667175032198429e-04</internalNodes>
          <leafValues>
            -5.1349282264709473e-01 6.3272446393966675e-01</leafValues></_>
        <_>
          <internalNodes>
            0 -1 67 3.2694688998162746e-03</internalNodes>
          <leafValues>
            -6.7664563655853271e-01 5.9514284133911133e-01</leafValues></_>
        <_>
          <internalNodes>
            0 -1 20 1.5866473317146301e-02</internalNodes>
          <leafValues>
            -4.7084614634513855e-01 9.5987665653228760e-01</leafValues></_></weakClassifiers></_>
    <!-- stage 17 -->
    <_>
      <maxWeakCount>4</maxWeakCount>
      <stageThreshold>3.3825203776359558e-01</stageThreshold>
      <weakClassifiers>
        <_>
          <internalNodes>
            0 -1 25 -1.8876750255003572e-03</internalNodes>
          <leafValues>
            -4.6666666865348816e-01 6.9105690717697144e-01</leafValues></_>
        <_>
          <internalNodes>
            0 -1 69 1.5800625551491976e-03</internalNodes>
          <leafValues>
            -5.4991149902343750e-01 7.2678875923156738e-01</leafValues></_>
        <_>
          <internalNodes>
            0 -1 7 -3.5604692995548248e-02</internalNodes>
          <leafValues>
            6.0977333784103394e-01 -5.3801047801971436e-01</leafValues></_>
        <_>
          <internalNodes>
            0 -1 31 -8.6335940286517143e-03</internalNodes>
          <leafValues>
            9.0823751688003540e-01 -4.1266667842864990e-01</leafValues></_></weakClassifiers></_>
    <!-- stage 18 -->
    <_>
      <maxWeakCount>4</maxWeakCount>
      <stageThreshold>2.7146351337432861e-01</stageThreshold>
      <weakClassifiers>
        <_>
          <internalNodes>
            0 -1 52 1.8949928926303983e-04</internalNodes>
          <leafValues>
            7.2413790225982666e-01 -3.5135135054588318e-01</leafValues></_>
        <_>
          <internalNodes>
            0 -1 61 6.1739627271890640e-03</internalNodes>
          <leafValues>
            -4.1573196649551392e-01 7.0280307531356812e-01</leafValues></_>
        <_>
          <internalNodes>
            0 -1 64 -1.2560182949528098e-04</internalNodes>
          <leafValues>
            -7.8757911920547485e-01 4.2639032006263733e-01</leafValues></_>
        <_>
          <internalNodes>
            0 -1 11 -1.5183288604021072e-02</internalNodes>
          <leafValues>
            9.3675440549850464e-01 -3.6789837479591370e-01</leafValues></_></weakClassifiers></_>
    <!-- stage 19 -->
    <_>
      <maxWeakCount>4</maxWeakCount>
      <stageThreshold>2.5864437222480774e-01</stageThreshold>
      <weakClassifiers>
        <_>
          <internalNodes>
            0 -1 34 -1.1357386410236359e-01</internalNodes>
          <leafValues>
            7.4789917469024658e-01 -5.2941179275512695e-01</leafValues></_>
        <_>
          <internalNodes>
            0 -1 26 3.3933897502720356e-03</internalNodes>
          <leafValues>
            -4.5096886157989502e-01 7.6744139194488525e-01</leafValues></_>
        <_>
          <internalNodes>
            0 -1 12 -1.2754899263381958e-01</internalNodes>
          <leafValues>
            8.5571104288101196e-01 -4.3807935714721680e-01</leafValues></_>
        <_>
          <internalNodes>
            0 -1 36 -4.2817853391170502e-03</internalNodes>
          <leafValues>
            -7.7744370698928833e-01 4.5869413018226624e-01</leafValues></_></weakClassifiers></_></stages>
  <features>
    <_>
      <rects>
        <_>
          0 0 5 24 -1.</_>
        <_>
          0 12 5 12 2.</_></rects>
      <tilted>0</tilted></_>
    <_>
      <rects>
        <_>
          0 6 29 8 -1.</_>
        <_>
          0 10 29 4 2.</_></rects>
      <tilted>0</tilted></_>
    <_>
      <rects>
        <_>
          0 18 12 3 -1.</_>
        <_>
          4 18 4 3 3.</_></rects>
      <tilted>0</tilted></_>
    <_>
      <rects>
        <_>
          0 19 30 1 -1.</_>
        <_>
          10 19 10 1 3.</_></rects>
      <tilted>0</tilted></_>
    <_>
      <rects>
        <_>
          1 7 25 3 -1.</_>
        <_>
          1 8 25 1 3.</_></rects>
      <tilted>0</tilted></_>
    <_>
      <rects>
        <_>
          1 9 13 12 -1.</_>
        <_>
          1 13 13 4 3.</_></rects>
      <tilted>0</tilted></_>
    <_>
      <rects>
        <_>
          1 14 15 12 -1.</_>
        <_>
          1 18 15 4 3.</_></rects>
      <tilted>0</tilted></_>
    <_>
      <rects>
        <_>
          1 18 14 5 -1.</_>
        <_>
          8 18 7 5 2.</_></rects>
      <tilted>0</tilted></_>
    <_>
      <rects>
        <_>
          1 19 14 4 -1.</_>
        <_>
          8 19 7 4 2.</_></rects>
      <tilted>0</tilted></_>
    <_>
      <rects>
        <_>
          2 2 26 14 -1.</_>
        <_>
          2 9 26 7 2.</_></rects>
      <tilted>0</tilted></_>
    <_>
      <rects>
        <_>
          2 10 16 14 -1.</_>
        <_>
          10 10 8 14 2.</_></rects>
      <tilted>0</tilted></_>
    <_>
      <rects>
        <_>
          2 15 12 6 -1.</_>
        <_>
          2 15 6 3 2.</_>
        <_>
          8 18 6 3 2.</_></rects>
      <tilted>0</tilted></_>
    <_>
      <rects>
        <_>
          2 15 27 12 -1.</_>
        <_>
          2 19 27 4 3.</_></rects>
      <tilted>0</tilted></_>
    <_>
      <rects>
        <_>
          2 18 30 9 -1.</_>
        <_>
          12 18 10 9 3.</_></rects>
      <tilted>0</tilted></_>
    <_>
      <rects>
        <_>
          2 20 14 6 -1.</_>
        <_>
          2 23 14 3 2.</_></rects>
      <tilted>0</tilted></_>
    <_>
      <rects>
        <_>
          2 21 16 1 -1.</_>
        <_>
          10 21 8 1 2.</_></rects>
      <tilted>0</tilted></_>
    <_>
      <rects>
        <_>
          2 21 9 2 -1.</_>
        <_>
          2 22 9 1 2.</_></rects>
      <tilted>0</tilted></_>
    <_>
      <rects>
        <_>
          3 4 26 10 -1.</_>
        <_>
          3 9 26 5 2.</_></rects>
      <tilted>0</tilted></_>
    <_>
      <rects>
        <_>
          3 17 10 9 -1.</_>
        <_>
          3 20 10 3 3.</_></rects>
      <tilted>0</tilted></_>
    <_>
      <rects>
        <_>
          3 21 18 2 -1.</_>
        <_>
          12 21 9 2 2.</_></rects>
      <tilted>0</tilted></_>
    <_>
      <rects>
        <_>
          3 28 28 4 -1.</_>
        <_>
          3 30 28 2 2.</_></rects>
      <tilted>0</tilted></_>
    <_>
      <rects>
        <_>
          4 0 1 22 -1.</_>
        <_>
          4 11 1 11 2.</_></rects>
      <tilted>0</tilted></_>
    <_>
      <rects>
        <_>
          4 5 24 18 -1.</_>
        <_>
          4 11 24 6 3.</_></rects>
      <tilted>0</tilted></_>
    <_>
      <rects>
        <_>
          4 7 8 18 -1.</_>
        <_>
          4 7 4 9 2.</_>
        <_>
          8 16 4 9 2.</_></rects>
      <tilted>0</tilted></_>
    <_>
      <rects>
        <_>
          4 16 2 10 -1.</_>
        <_>
          4 16 1 5 2.</_>
        <_>
          5 21 1 5 2.</_></rects>
      <tilted>0</tilted></_>
    <_>
      <rects>
        <_>
          4 22 16 10 -1.</_>
        <_>
          4 22 8 5 2.</_>
        <_>
          12 27 8 5 2.</_></rects>
      <tilted>0</tilted></_>
    <_>
      <rects>
        <_>
          4 26 10 6 -1.</_>
        <_>
          4 29 10 3 2.</_></rects>
      <tilted>0</tilted></_>
    <_>
      <rects>
        <_>
          5 5 6 18 -1.</_>
        <_>
          5 5 3 9 2.</_>
        <_>
          8 14 3 9 2.</_></rects>
      <tilted>0</tilted></_>
    <_>
      <rects>
        <_>
          5 18 27 5 -1.</_>
        <_>
          14 18 9 5 3.</_></rects>
      <tilted>0</tilted></_>
    <_>
      <rects>
        <_>
          5 26 13 6 -1.</_>
        <_>
          5 29 13 3 2.</_></rects>
      <tilted>0</tilted></_>
    <_>
      <rects>
        <_>
          6 8 10 9 -1.</_>
        <_>
          6 11 10 3 3.</_></rects>
      <tilted>0</tilted></_>
    <_>
      <rects>
        <_>
          7 5 17 6 -1.</_>
        <_>
          7 7 17 2 3.</_></rects>
      <tilted>0</tilted></_>
    <_>
      <rects>
        <_>
          7 18 9 8 -1.</_>
        <_>
          10 18 3 8 3.</_></rects>
      <tilted>0</tilted></_>
    <_>
      <rects>
        <_>
          8 8 12 21 -1.</_>
        <_>
          8 15 12 7 3.</_></rects>
      <tilted>0</tilted></_>
    <_>
      <rects>
        <_>
          8 8 14 21 -1.</_>
        <_>
          8 15 14 7 3.</_></rects>
      <tilted>0</tilted></_>
    <_>
      <rects>
        <_>
          9 26 10 1 -1.</_>
        <_>
          14 26 5 1 2.</_></rects>
      <tilted>0</tilted></_>
    <_>
      <rects>
        <_>
          10 21 9 5 -1.</_>
        <_>
          13 21 3 5 3.</_></rects>
      <tilted>0</tilted></_>
    <_>
      <rects>
        <_>
          10 25 4 2 -1.</_>
        <_>
          12 25 2 2 2.</_></rects>
      <tilted>0</tilted></_>
    <_>
      <rects>
        <_>
          10 28 2 4 -1.</_>
        <_>
          10 30 2 2 2.</_></rects>
      <tilted>0</tilted></_>
    <_>
      <rects>
        <_>
          11 20 1 4 -1.</_>
        <_>
          11 22 1 2 2.</_></rects>
      <tilted>0</tilted></_>
    <_>
      <rects>
        <_>
          11 26 2 2 -1.</_>
        <_>
          11 26 1 1 2.</_>
        <_>
          12 27 1 1 2.</_></rects>
      <tilted>0</tilted></_>
    <_>
      <rects>
        <_>
          12 21 18 3 -1.</_>
        <_>
          18 21 6 3 3.</_></rects>
      <tilted>0</tilted></_>
    <_>
      <rects>
        <_>
          12 23 2 7 -1.</_>
        <_>
          13 23 1 7 2.</_></rects>
      <tilted>0</tilted></_>
    <_>
      <rects>
        <_>
          12 26 2 4 -1.</_>
        <_>
          13 26 1 4 2.</_></rects>
      <tilted>0</tilted></_>
    <_>
      <rects>
        <_>
          13 12 1 15 -1.</_>
        <_>
          13 17 1 5 3.</_></rects>
      <tilted>0</tilted></_>
    <_>
      <rects>
        <_>
          13 14 3 18 -1.</_>
        <_>
          13 23 3 9 2.</_></rects>
      <tilted>0</tilted></_>
    <_>
      <rects>
        <_>
          13 17 17 8 -1.</_>
        <_>
          13 21 17 4 2.</_></rects>
      <tilted>0</tilted></_>
    <_>
      <rects>
        <_>
          14 7 5 3 -1.</_>
        <_>
          14 8 5 1 3.</_></rects>
      <tilted>0</tilted></_>
    <_>
      <rects>
        <_>
          14 19 15 2 -1.</_>
        <_>
          19 19 5 2 3.</_></rects>
      <tilted>0</tilted></_>
    <_>
      <rects>
        <_>
          14 25 6 1 -1.</_>
        <_>
          16 25 2 1 3.</_></rects>
      <tilted>0</tilted></_>
    <_>
      <rects>
        <_>
          15 11 2 15 -1.</_>
        <_>
          15 16 2 5 3.</_></rects>
      <tilted>0</tilted></_>
    <_>
      <rects>
        <_>
          15 14 3 18 -1.</_>
        <_>
          15 23 3 9 2.</_></rects>
      <tilted>0</tilted></_>
    <_>
      <rects>
        <_>
          15 23 6 2 -1.</_>
        <_>
          17 23 2 2 3.</_></rects>
      <tilted>0</tilted></_>
    <_>
      <rects>
        <_>
          16 19 15 1 -1.</_>
        <_>
          21 19 5 1 3.</_></rects>
      <tilted>0</tilted></_>
    <_>
      <rects>
        <_>
          16 28 5 4 -1.</_>
        <_>
          16 30 5 2 2.</_></rects>
      <tilted>0</tilted></_>
    <_>
      <rects>
        <_>
          17 7 9 24 -1.</_>
        <_>
          17 15 9 8 3.</_></rects>
      <tilted>0</tilted></_>
    <_>
      <rects>
        <_>
          17 22 9 5 -1.</_>
        <_>
          20 22 3 5 3.</_></rects>
      <tilted>0</tilted></_>
    <_>
      <rects>
        <_>
          17 24 4 1 -1.</_>
        <_>
          19 24 2 1 2.</_></rects>
      <tilted>0</tilted></_>
    <_>
      <rects>
        <_>
          17 27 2 1 -1.</_>
        <_>
          18 27 1 1 2.</_></rects>
      <tilted>0</tilted></_>
    <_>
      <rects>
        <_>
          17 28 3 1 -1.</_>
        <_>
          18 28 1 1 3.</_></rects>
      <tilted>0</tilted></_>
    <_>
      <rects>
        <_>
          18 3 14 22 -1.</_>
        <_>
          18 3 7 11 2.</_>
        <_>
          25 14 7 11 2.</_></rects>
      <tilted>0</tilted></_>
    <_>
      <rects>
        <_>
          18 4 3 10 -1.</_>
        <_>
          18 9 3 5 2.</_></rects>
      <tilted>0</tilted></_>
    <_>
      <rects>
        <_>
          18 10 7 21 -1.</_>
        <_>
          18 17 7 7 3.</_></rects>
      <tilted>0</tilted></_>
    <_>
      <rects>
        <_>
          18 16 8 16 -1.</_>
        <_>
          18 24 8 8 2.</_></rects>
      <tilted>0</tilted></_>
    <_>
      <rects>
        <_>
          19 26 2 4 -1.</_>
        <_>
          19 26 1 2 2.</_>
        <_>
          20 28 1 2 2.</_></rects>
      <tilted>0</tilted></_>
    <_>
      <rects>
        <_>
          20 2 12 24 -1.</_>
        <_>
          20 2 6 12 2.</_>
        <_>
          26 14 6 12 2.</_></rects>
      <tilted>0</tilted></_>
    <_>
      <rects>
        <_>
          20 18 12 10 -1.</_>
        <_>
          20 18 6 5 2.</_>
        <_>
          26 23 6 5 2.</_></rects>
      <tilted>0</tilted></_>
    <_>
      <rects>
        <_>
          21 2 5 16 -1.</_>
        <_>
          21 10 5 8 2.</_></rects>
      <tilted>0</tilted></_>
    <_>
      <rects>
        <_>
          21 18 8 10 -1.</_>
        <_>
          21 18 4 5 2.</_>
        <_>
          25 23 4 5 2.</_></rects>
      <tilted>0</tilted></_>
    <_>
      <rects>
        <_>
          21 21 5 6 -1.</_>
        <_>
          21 23 5 2 3.</_></rects>
      <tilted>0</tilted></_>
    <_>
      <rects>
        <_>
          23 0 7 20 -1.</_>
        <_>
          23 10 7 10 2.</_></rects>
      <tilted>0</tilted></_>
    <_>
      <rects>
        <_>
          31 24 1 2 -1.</_>
        <_>
          31 25 1 1 2.</_></rects>
      <tilted>0</tilted></_></features></cascade>
</opencv_storage>
